{"learner":{"attributes":{"scikit_learn":"{\"_estimator_type\": \"regressor\"}"},"feature_names":["mainroad_code","guestroom_code","basement_code","hotwaterheating_code","airconditioning_code","prefarea_code","furnishing_code","area","LogArea","bedrooms","bathrooms","stories","parking","TotalRooms","TotalBathRatio"],"feature_types":["int","int","int","int","int","int","int","float","float","float","float","float","float","float","float"],"gradient_booster":{"model":{"cats":{"enc":[],"feature_segments":[],"sorted_idx":[]},"gbtree_model_param":{"num_parallel_tree":"1","num_trees":"150"},"iteration_indptr":[0,1,2,3,4,5,6,7,8,9,10,11,12,13,14,15,16,17,18,19,20,21,22,23,24,25,26,27,28,29,30,31,32,33,34,35,36,37,38,39,40,41,42,43,44,45,46,47,48,49,50,51,52,53,54,55,56,57,58,59,60,61,62,63,64,65,66,67,68,69,70,71,72,73,74,75,76,77,78,79,80,81,82,83,84,85,86,87,88,89,90,91,92,93,94,95,96,97,98,99,100,101,102,103,104,105,106,107,108,109,110,111,112,113,114,115,116,117,118,119,120,121,122,123,124,125,126,127,128,129,130,131,132,133,134,135,136,137,138,139,140,141,142,143,144,145,146,147,148,149,150],"tree_info":[0,0,0,0,0,0,0,0,0,0,0,0,0,0,0,0,0,0,0,0,0,0,0,0,0,0,0,0,0,0,0,0,0,0,0,0,0,0,0,0,0,0,0,0,0,0,0,0,0,0,0,0,0,0,0,0,0,0,0,0,0,0,0,0,0,0,0,0,0,0,0,0,0,0,0,0,0,0,0,0,0,0,0,0,0,0,0,0,0,0,0,0,0,0,0,0,0,0,0,0,0,0,0,0,0,0,0,0,0,0,0,0,0,0,0,0,0,0,0,0,0,0,0,0,0,0,0,0,0,0,0,0,0,0,0,0,0,0,0,0,0,0,0,0,0,0,0,0,0,0],"trees":[{"base_weights":[4.145593E-3,-2.1700288E-1,2.211604E-1,-3.640326E-1,-1.2072016E-1,1.00147545E-1,4.2411774E-1,-1.1463107E-2,2.6518463E-3,-7.263955E-3,-1.8420556E-3,-1.2128201E-4,7.210056E-3,8.261147E-3,1.5842225E-2],"categories":[],"categories_nodes":[],"categories_segments":[],"categories_sizes":[],"default_left":[0,0,0,0,0,0,0,0,0,0,0,0,0,0,0],"id":0,"left_children":[1,3,5,7,9,11,13,-1,-1,-1,-1,-1,-1,-1,-1],"loss_changes":[2.04448E1,2.943059E0,5.238023E0,7.12368E-1,9.141824E-1,1.9874133E0,1.0916328E0,0E0,0E0,0E0,0E0,0E0,0E0,0E0,0E0],"parents":[2147483647,0,0,1,1,2,2,3,3,4,4,5,5,6,6],"right_children":[2,4,6,8,10,12,14,-1,-1,-1,-1,-1,-1,-1,-1],"split_conditions":[-2.9516113E-1,1E0,1.4205067E0,1.3769519E0,-8.6931735E-1,1E0,1E0,-1.1463107E-2,2.6518463E-3,-7.263955E-3,-1.8420556E-3,-1.2128201E-4,7.210056E-3,8.261147E-3,1.5842225E-2],"split_indices":[7,6,10,11,7,4,4,0,0,0,0,0,0,0,0],"split_type":[0,0,0,0,0,0,0,0,0,0,0,0,0,0,0],"sum_hessian":[4.24E2,2.1E2,2.14E2,8.2E1,1.28E2,1.35E2,7.9E1,7.9E1,3E0,4.1E1,8.7E1,7.8E1,5.7E1,3.4E1,4.5E1],"tree_param":{"num_deleted":"0","num_feature":"15","num_nodes":"15","size_leaf_vector":"1"}},{"base_weights":[9.201432E-4,-1.6685228E-1,2.5976378E-1,-3.1564626E-1,-7.746967E-2,9.754547E-2,4.5565507E-1,-1.1972704E-2,-3.6974645E-3,-4.3426137E-3,1.9754167E-3,-1.629709E-4,7.940501E-3,9.604909E-3,1.5373608E-2],"categories":[],"categories_nodes":[],"categories_segments":[],"categories_sizes":[],"default_left":[0,0,0,0,0,0,0,0,0,0,0,0,0,0,0],"id":1,"left_children":[1,3,5,7,9,11,13,-1,-1,-1,-1,-1,-1,-1,-1],"loss_changes":[1.9324852E1,3.5664382E0,5.516555E0,1.5723057E0,1.6488338E0,1.670953E0,4.4389153E-1,0E0,0E0,0E0,0E0,0E0,0E0,0E0,0E0],"parents":[2147483647,0,0,1,1,2,2,3,3,4,4,5,5,6,6],"right_children":[2,4,6,8,10,12,14,-1,-1,-1,-1,-1,-1,-1,-1],"split_conditions":[1.6103041E-1,1E0,7.2218424E-1,-5.089721E-1,7.2218424E-1,1E0,3.556489E-1,-1.1972704E-2,-3.6974645E-3,-4.3426137E-3,1.9754167E-3,-1.629709E-4,7.940501E-3,9.604909E-3,1.5373608E-2],"split_indices":[7,6,13,7,13,5,12,0,0,0,0,0,0,0,0],"split_type":[0,0,0,0,0,0,0,0,0,0,0,0,0,0,0],"sum_hessian":[4.43E2,2.69E2,1.74E2,1E2,1.69E2,9.6E1,7.8E1,6.9E1,3.1E1,1.15E2,5.4E1,6E1,3.6E1,2.5E1,5.3E1],"tree_param":{"num_deleted":"0","num_feature":"15","num_nodes":"15","size_leaf_vector":"1"}},{"base_weights":[3.8662087E-3,-1.398599E-1,2.778782E-1,-2.3955414E-1,4.1077905E-3,1.326874E-1,4.5576102E-1,-1.1365063E-2,-3.8908834E-3,-1.5960861E-3,5.706622E-3,7.132341E-4,7.917111E-3,1.1510484E-2,1.706743E-2],"categories":[],"categories_nodes":[],"categories_segments":[],"categories_sizes":[],"default_left":[0,0,0,0,0,0,0,0,0,0,0,0,0,0,0],"id":2,"left_children":[1,3,5,7,9,11,13,-1,-1,-1,-1,-1,-1,-1,-1],"loss_changes":[1.7170328E1,4.1058702E0,3.813569E0,2.5367641E0,1.2687384E0,1.1941826E0,3.281622E-1,0E0,0E0,0E0,0E0,0E0,0E0,0E0,0E0],"parents":[2147483647,0,0,1,1,2,2,3,3,4,4,5,5,6,6],"right_children":[2,4,6,8,10,12,14,-1,-1,-1,-1,-1,-1,-1,-1],"split_conditions":[3.6746863E-1,-5.154233E-1,1.4205067E0,1E0,1.4205067E0,1E0,1.0135096E0,-1.1365063E-2,-3.8908834E-3,-1.5960861E-3,5.706622E-3,7.132341E-4,7.917111E-3,1.1510484E-2,1.706743E-2],"split_indices":[7,7,10,6,10,5,7,0,0,0,0,0,0,0,0],"split_type":[0,0,0,0,0,0,0,0,0,0,0,0,0,0,0],"sum_hessian":[4.34E2,2.85E2,1.49E2,1.68E2,1.17E2,8.3E1,6.6E1,7.3E1,9.5E1,9E1,2.7E1,4.6E1,3.7E1,4.3E1,2.3E1],"tree_param":{"num_deleted":"0","num_feature":"15","num_nodes":"15","size_leaf_vector":"1"}},{"base_weights":[2.679139E-3,-1.701937E-1,2.2301094E-1,-2.1677761E-1,6.8013124E-2,8.016384E-2,4.035677E-1,-8.901425E-3,-3.4350194E-3,-4.5730313E-4,8.893867E-3,-2.3226466E-4,5.8886893E-3,8.376417E-3,1.4676942E-2],"categories":[],"categories_nodes":[],"categories_segments":[],"categories_sizes":[],"default_left":[0,0,0,0,0,0,0,0,0,0,0,0,0,0,0],"id":3,"left_children":[1,3,5,7,9,11,13,-1,-1,-1,-1,-1,-1,-1,-1],"loss_changes":[1.6721106E1,2.7445083E0,4.945506E0,1.6502142E0,7.843344E-1,1.1142086E0,7.6887226E-1,0E0,0E0,0E0,0E0,0E0,0E0,0E0,0E0],"parents":[2147483647,0,0,1,1,2,2,3,3,4,4,5,5,6,6],"right_children":[2,4,6,8,10,12,14,-1,-1,-1,-1,-1,-1,-1,-1],"split_conditions":[-7.1673356E-2,1.4205067E0,7.2218424E-1,-6.9144875E-1,1E0,1E0,1E0,-8.901425E-3,-3.4350194E-3,-4.5730313E-4,8.893867E-3,-2.3226466E-4,5.8886893E-3,8.376417E-3,1.4676942E-2],"split_indices":[7,10,13,7,4,4,4,0,0,0,0,0,0,0,0],"split_type":[0,0,0,0,0,0,0,0,0,0,0,0,0,0,0],"sum_hessian":[4.37E2,2.45E2,1.92E2,2.05E2,4E1,1.08E2,8.4E1,1.14E2,9.1E1,3E1,1E1,6.2E1,4.6E1,3.6E1,4.8E1],"tree_param":{"num_deleted":"0","num_feature":"15","num_nodes":"15","size_leaf_vector":"1"}},{"base_weights":[4.4081826E-3,-1.4643927E-1,2.4697332E-1,-2.9453543E-1,-5.741994E-2,1.1554949E-1,4.059122E-1,-1.1374959E-2,-3.5783509E-3,-5.6982394E-3,6.0616207E-4,6.355057E-4,7.343193E-3,8.812143E-3,1.5069893E-2],"categories":[],"categories_nodes":[],"categories_segments":[],"categories_sizes":[],"default_left":[0,0,0,0,0,0,0,0,0,0,0,0,0,0,0],"id":4,"left_children":[1,3,5,7,9,11,13,-1,-1,-1,-1,-1,-1,-1,-1],"loss_changes":[1.6318863E1,3.6085281E0,3.5250063E0,1.4824677E0,1.783492E0,1.1532744E0,6.852436E-1,0E0,0E0,0E0,0E0,0E0,0E0,0E0,0E0],"parents":[2147483647,0,0,1,1,2,2,3,3,4,4,5,5,6,6],"right_children":[2,4,6,8,10,12,14,-1,-1,-1,-1,-1,-1,-1,-1],"split_conditions":[1.6103041E-1,1E0,7.2218424E-1,-5.089721E-1,-7.605687E-1,1E0,1E0,-1.1374959E-2,-3.5783509E-3,-5.6982394E-3,6.0616207E-4,6.355057E-4,7.343193E-3,8.812143E-3,1.5069893E-2],"split_indices":[7,6,13,7,7,4,4,0,0,0,0,0,0,0,0],"split_type":[0,0,0,0,0,0,0,0,0,0,0,0,0,0,0],"sum_hessian":[4.44E2,2.74E2,1.7E2,1.02E2,1.72E2,9.4E1,7.6E1,6.8E1,3.4E1,6.3E1,1.09E2,5.5E1,3.9E1,3.7E1,3.9E1],"tree_param":{"num_deleted":"0","num_feature":"15","num_nodes":"15","size_leaf_vector":"1"}},{"base_weights":[1.14607075E-2,-1.7542963E-1,1.9748488E-1,-3.1609648E-1,-9.425992E-2,8.572922E-2,3.789053E-1,-1.0908763E-2,-4.105824E-3,-4.45971E-3,1.92763E-3,-7.892543E-4,5.382938E-3,7.986941E-3,1.348871E-2],"categories":[],"categories_nodes":[],"categories_segments":[],"categories_sizes":[],"default_left":[0,0,0,0,0,0,0,0,0,0,0,0,0,0,0],"id":5,"left_children":[1,3,5,7,9,11,13,-1,-1,-1,-1,-1,-1,-1,-1],"loss_changes":[1.5887997E1,2.573483E0,4.6104364E0,6.5730095E-1,1.2684675E0,1.5059577E0,5.7352257E-1,0E0,0E0,0E0,0E0,0E0,0E0,0E0,0E0],"parents":[2147483647,0,0,1,1,2,2,3,3,4,4,5,5,6,6],"right_children":[2,4,6,8,10,12,14,-1,-1,-1,-1,-1,-1,-1,-1],"split_conditions":[-2.9055315E-1,1E0,3.363172E-1,1E0,7.2218424E-1,3.556489E-1,1E0,-1.0908763E-2,-4.105824E-3,-4.45971E-3,1.92763E-3,-7.892543E-4,5.382938E-3,7.986941E-3,1.348871E-2],"split_indices":[7,6,14,2,13,12,4,0,0,0,0,0,0,0,0],"split_type":[0,0,0,0,0,0,0,0,0,0,0,0,0,0,0],"sum_hessian":[4.55E2,2.27E2,2.28E2,8.2E1,1.45E2,1.42E2,8.6E1,6.4E1,1.8E1,1.08E2,3.7E1,6.5E1,7.7E1,3.5E1,5.1E1],"tree_param":{"num_deleted":"0","num_feature":"15","num_nodes":"15","size_leaf_vector":"1"}},{"base_weights":[2.151713E-3,-1.5007111E-1,1.9695424E-1,-2.9776135E-1,-5.0934166E-2,8.795943E-2,3.7491882E-1,-1.0696857E-2,-4.3060104E-3,-3.4972338E-3,2.4409539E-3,1.1704638E-4,6.4714854E-3,5.099611E-3,1.2256079E-2],"categories":[],"categories_nodes":[],"categories_segments":[],"categories_sizes":[],"default_left":[0,0,0,0,0,0,0,0,0,0,0,0,0,0,0],"id":6,"left_children":[1,3,5,7,9,11,13,-1,-1,-1,-1,-1,-1,-1,-1],"loss_changes":[1.3047395E1,3.6012988E0,3.7106848E0,8.466215E-1,1.3034259E0,1.2985728E0,4.334669E-1,0E0,0E0,0E0,0E0,0E0,0E0,0E0,0E0],"parents":[2147483647,0,0,1,1,2,2,3,3,4,4,5,5,6,6],"right_children":[2,4,6,8,10,12,14,-1,-1,-1,-1,-1,-1,-1,-1],"split_conditions":[-7.1673356E-2,1E0,1.4205067E0,-5.154233E-1,7.2218424E-1,1E0,3.6746863E-1,-1.0696857E-2,-4.3060104E-3,-3.4972338E-3,2.4409539E-3,1.1704638E-4,6.4714854E-3,5.099611E-3,1.2256079E-2],"split_indices":[7,6,10,7,13,2,7,0,0,0,0,0,0,0,0],"split_type":[0,0,0,0,0,0,0,0,0,0,0,0,0,0,0],"sum_hessian":[4.38E2,2.46E2,1.92E2,9.8E1,1.48E2,1.2E2,7.2E1,7E1,2.8E1,9.9E1,4.9E1,7.3E1,4.7E1,1.1E1,6.1E1],"tree_param":{"num_deleted":"0","num_feature":"15","num_nodes":"15","size_leaf_vector":"1"}},{"base_weights":[9.829539E-3,-8.5998125E-2,2.7972808E-1,-1.5236256E-1,9.653903E-2,1.741667E-1,3.9574805E-1,-8.830095E-3,-2.0584122E-3,-2.7102453E-3,4.2964467E-3,1.9588158E-3,8.225836E-3,3.9499998E-4,1.253984E-2],"categories":[],"categories_nodes":[],"categories_segments":[],"categories_sizes":[],"default_left":[0,0,0,0,0,0,0,0,0,0,0,0,0,0,0],"id":7,"left_children":[1,3,5,7,9,11,13,-1,-1,-1,-1,-1,-1,-1,-1],"loss_changes":[1.1352377E1,3.9396365E0,1.3395052E0,2.80966E0,7.718229E-1,6.572962E-1,4.540987E-1,0E0,0E0,0E0,0E0,0E0,0E0,0E0,0E0],"parents":[2147483647,0,0,1,1,2,2,3,3,4,4,5,5,6,6],"right_children":[2,4,6,8,10,12,14,-1,-1,-1,-1,-1,-1,-1,-1],"split_conditions":[1.4205067E0,1E0,1E0,1E0,4.723492E-2,3.556489E-1,1E0,-8.830095E-3,-2.0584122E-3,-2.7102453E-3,4.2964467E-3,1.9588158E-3,8.225836E-3,3.9499998E-4,1.253984E-2],"split_indices":[10,4,4,6,9,12,0,0,0,0,0,0,0,0,0],"split_type":[0,0,0,0,0,0,0,0,0,0,0,0,0,0,0],"sum_hessian":[4.37E2,3.23E2,1.14E2,2.37E2,8.6E1,6.1E1,5.3E1,8.7E1,1.5E2,1.7E1,6.9E1,3E1,3.1E1,3E0,5E1],"tree_param":{"num_deleted":"0","num_feature":"15","num_nodes":"15","size_leaf_vector":"1"}},{"base_weights":[1.6195204E-2,-1.0387559E-1,2.413202E-1,-1.556602E-1,1.0781069E-1,1.4556226E-1,3.8335574E-1,-7.911065E-3,-2.1789297E-3,5.089346E-4,7.547029E-3,2.112544E-3,7.0539624E-3,9.485527E-3,1.4887351E-2],"categories":[],"categories_nodes":[],"categories_segments":[],"categories_sizes":[],"default_left":[0,0,0,0,0,0,0,0,0,0,0,0,0,0,0],"id":8,"left_children":[1,3,5,7,9,11,13,-1,-1,-1,-1,-1,-1,-1,-1],"loss_changes":[1.1891649E1,3.1629016E0,2.025156E0,2.0530639E0,7.401392E-1,6.093925E-1,3.0565453E-1,0E0,0E0,0E0,0E0,0E0,0E0,0E0,0E0],"parents":[2147483647,0,0,1,1,2,2,3,3,4,4,5,5,6,6],"right_children":[2,4,6,8,10,12,14,-1,-1,-1,-1,-1,-1,-1,-1],"split_conditions":[3.6746863E-1,1.4205067E0,1.4205067E0,1E0,1E0,1E0,1.5162995E0,-7.911065E-3,-2.1789297E-3,5.089346E-4,7.547029E-3,2.112544E-3,7.0539624E-3,9.485527E-3,1.4887351E-2],"split_indices":[7,10,10,6,4,5,12,0,0,0,0,0,0,0,0],"split_type":[0,0,0,0,0,0,0,0,0,0,0,0,0,0,0],"sum_hessian":[4.38E2,2.86E2,1.52E2,2.3E2,5.6E1,9.2E1,6E1,9.9E1,1.31E2,3.5E1,2.1E1,5.1E1,4.1E1,4E1,2E1],"tree_param":{"num_deleted":"0","num_feature":"15","num_nodes":"15","size_leaf_vector":"1"}},{"base_weights":[-8.709298E-3,-1.8325867E-1,1.14536166E-1,-3.128323E-1,-9.598746E-2,2.7082512E-2,3.1264147E-1,-1.0232253E-2,-1.3276612E-3,-4.276915E-3,1.5224054E-3,-1.5252009E-3,4.80255E-3,7.1996967E-3,1.4278176E-2],"categories":[],"categories_nodes":[],"categories_segments":[],"categories_sizes":[],"default_left":[0,0,0,0,0,0,0,0,0,0,0,0,0,0,0],"id":9,"left_children":[1,3,5,7,9,11,13,-1,-1,-1,-1,-1,-1,-1,-1],"loss_changes":[9.357379E0,2.0054207E0,4.409417E0,5.310521E-1,7.52179E-1,1.8529117E0,8.1115866E-1,0E0,0E0,0E0,0E0,0E0,0E0,0E0,0E0],"parents":[2147483647,0,0,1,1,2,2,3,3,4,4,5,5,6,6],"right_children":[2,4,6,8,10,12,14,-1,-1,-1,-1,-1,-1,-1,-1],"split_conditions":[-4.8639295E-1,1E0,3.363172E-1,1E0,7.2218424E-1,1E0,1.0135096E0,-1.0232253E-2,-1.3276612E-3,-4.276915E-3,1.5224054E-3,-1.5252009E-3,4.80255E-3,7.1996967E-3,1.4278176E-2],"split_indices":[7,6,14,5,13,2,7,0,0,0,0,0,0,0,0],"split_type":[0,0,0,0,0,0,0,0,0,0,0,0,0,0,0],"sum_hessian":[4.33E2,1.79E2,2.54E2,7.1E1,1.08E2,1.77E2,7.7E1,6.4E1,7E0,8.2E1,2.6E1,1.12E2,6.5E1,5.5E1,2.2E1],"tree_param":{"num_deleted":"0","num_feature":"15","num_nodes":"15","size_leaf_vector":"1"}},{"base_weights":[7.492517E-3,-1.13327265E-1,2.5243616E-1,-2.3795415E-1,-2.7442625E-2,1.2726498E-1,3.793408E-1,-8.131348E-3,4.495199E-3,-2.6289728E-3,3.8367354E-3,2.6324939E-3,1.0368058E-2,8.857666E-3,1.5667424E-2],"categories":[],"categories_nodes":[],"categories_segments":[],"categories_sizes":[],"default_left":[0,0,0,0,0,0,0,0,0,0,0,0,0,0,0],"id":10,"left_children":[1,3,5,7,9,11,13,-1,-1,-1,-1,-1,-1,-1,-1],"loss_changes":[1.2902014E1,3.1189022E0,2.2391348E0,1.5676699E0,1.6380223E0,6.081177E-1,6.989641E-1,0E0,0E0,0E0,0E0,0E0,0E0,0E0,0E0],"parents":[2147483647,0,0,1,1,2,2,3,3,4,4,5,5,6,6],"right_children":[2,4,6,8,10,12,14,-1,-1,-1,-1,-1,-1,-1,-1],"split_conditions":[3.6746863E-1,1E0,7.2218424E-1,1.3769519E0,1E0,1.3769519E0,1.5162995E0,-8.131348E-3,4.495199E-3,-2.6289728E-3,3.8367354E-3,2.6324939E-3,1.0368058E-2,8.857666E-3,1.5667424E-2],"split_indices":[7,6,13,11,4,11,12,0,0,0,0,0,0,0,0],"split_type":[0,0,0,0,0,0,0,0,0,0,0,0,0,0,0],"sum_hessian":[4.34E2,2.91E2,1.43E2,1.18E2,1.73E2,7.3E1,7E1,1.09E2,9E0,1.25E2,4.8E1,6.3E1,1E1,4.6E1,2.4E1],"tree_param":{"num_deleted":"0","num_feature":"15","num_nodes":"15","size_leaf_vector":"1"}},{"base_weights":[-9.461271E-3,-2.0291056E-1,1.1635352E-1,-3.151595E-1,-1.2006222E-1,3.6685172E-2,2.771E-1,-1.0233752E-2,-1.9438219E-3,-7.4081407E-3,-1.3450849E-3,-7.4280426E-4,5.797544E-3,4.2995987E-3,1.0349885E-2],"categories":[],"categories_nodes":[],"categories_segments":[],"categories_sizes":[],"default_left":[0,0,0,0,0,0,0,0,0,0,0,0,0,0,0],"id":11,"left_children":[1,3,5,7,9,11,13,-1,-1,-1,-1,-1,-1,-1,-1],"loss_changes":[1.0562302E1,1.5524001E0,3.3579195E0,4.45961E-1,9.43365E-1,1.707572E0,7.407894E-1,0E0,0E0,0E0,0E0,0E0,0E0,0E0,0E0],"parents":[2147483647,0,0,1,1,2,2,3,3,4,4,5,5,6,6],"right_children":[2,4,6,8,10,12,14,-1,-1,-1,-1,-1,-1,-1,-1],"split_conditions":[-5.154233E-1,1E0,1.4205067E0,1E0,-9.2184854E-1,1E0,3.6746863E-1,-1.0233752E-2,-1.9438219E-3,-7.4081407E-3,-1.3450849E-3,-7.4280426E-4,5.797544E-3,4.2995987E-3,1.0349885E-2],"split_indices":[7,6,10,5,7,5,7,0,0,0,0,0,0,0,0],"split_type":[0,0,0,0,0,0,0,0,0,0,0,0,0,0,0],"sum_hessian":[4.32E2,1.7E2,2.62E2,7.1E1,9.9E1,1.76E2,8.6E1,6.4E1,7E0,3.6E1,6.3E1,1.27E2,4.9E1,3E1,5.6E1],"tree_param":{"num_deleted":"0","num_feature":"15","num_nodes":"15","size_leaf_vector":"1"}},{"base_weights":[-1.7701784E-2,-1.6671403E-1,1.2994304E-1,-2.6589215E-1,-1.01383686E-1,3.5468925E-2,2.9322526E-1,-8.481302E-3,3.7297725E-3,-6.8201637E-3,-1.5962829E-3,-8.537084E-4,4.398008E-3,6.9696764E-3,1.2388902E-2],"categories":[],"categories_nodes":[],"categories_segments":[],"categories_sizes":[],"default_left":[0,0,0,0,0,0,0,0,0,0,0,0,0,0,0],"id":12,"left_children":[1,3,5,7,9,11,13,-1,-1,-1,-1,-1,-1,-1,-1],"loss_changes":[8.976025E0,1.2883487E0,3.1519184E0,5.6016064E-1,7.403097E-1,9.348179E-1,4.5098734E-1,0E0,0E0,0E0,0E0,0E0,0E0,0E0,0E0],"parents":[2147483647,0,0,1,1,2,2,3,3,4,4,5,5,6,6],"right_children":[2,4,6,8,10,12,14,-1,-1,-1,-1,-1,-1,-1,-1],"split_conditions":[-2.9516113E-1,1E0,1.4205067E0,1.3769519E0,-9.2184854E-1,1E0,1.5162995E0,-8.481302E-3,3.7297725E-3,-6.8201637E-3,-1.5962829E-3,-8.537084E-4,4.398008E-3,6.9696764E-3,1.2388902E-2],"split_indices":[7,6,10,11,7,2,12,0,0,0,0,0,0,0,0],"split_type":[0,0,0,0,0,0,0,0,0,0,0,0,0,0,0],"sum_hessian":[4.06E2,2.02E2,2.04E2,7.9E1,1.23E2,1.3E2,7.4E1,7.6E1,3E0,3.3E1,9E1,8.3E1,4.7E1,5.1E1,2.3E1],"tree_param":{"num_deleted":"0","num_feature":"15","num_nodes":"15","size_leaf_vector":"1"}},{"base_weights":[-1.0011974E-2,-1.8706037E-1,1.1174791E-1,-2.7496794E-1,-1.2058853E-1,3.0747857E-2,2.6873943E-1,-8.995182E-3,-8.75684E-4,-6.9739306E-3,-1.6812953E-3,-1.2883701E-3,4.4256505E-3,6.0072453E-3,1.3860532E-2],"categories":[],"categories_nodes":[],"categories_segments":[],"categories_sizes":[],"default_left":[0,0,0,0,0,0,0,0,0,0,0,0,0,0,0],"id":13,"left_children":[1,3,5,7,9,11,13,-1,-1,-1,-1,-1,-1,-1,-1],"loss_changes":[9.3121395E0,9.9527645E-1,3.2471151E0,4.497137E-1,7.235205E-1,1.4692662E0,1.0592918E0,0E0,0E0,0E0,0E0,0E0,0E0,0E0,0E0],"parents":[2147483647,0,0,1,1,2,2,3,3,4,4,5,5,6,6],"right_children":[2,4,6,8,10,12,14,-1,-1,-1,-1,-1,-1,-1,-1],"split_conditions":[-4.8408896E-1,1E0,1.4205067E0,1E0,-9.2184854E-1,1E0,1.0135096E0,-8.995182E-3,-8.75684E-4,-6.9739306E-3,-1.6812953E-3,-1.2883701E-3,4.4256505E-3,6.0072453E-3,1.3860532E-2],"split_indices":[7,6,10,5,7,2,7,0,0,0,0,0,0,0,0],"split_type":[0,0,0,0,0,0,0,0,0,0,0,0,0,0,0],"sum_hessian":[4.3E2,1.75E2,2.55E2,7.4E1,1.01E2,1.69E2,8.6E1,6.7E1,7E0,3.6E1,6.5E1,1.04E2,6.5E1,6.5E1,2.1E1],"tree_param":{"num_deleted":"0","num_feature":"15","num_nodes":"15","size_leaf_vector":"1"}},{"base_weights":[-8.724854E-3,-1.6426831E-1,1.1081352E-1,-2.5993145E-1,-9.7628236E-2,1.6470984E-2,3.0278942E-1,-9.063487E-3,-3.4576803E-3,-6.174523E-3,-1.3311998E-3,-1.1041714E-3,4.564385E-3,7.410872E-3,1.3510242E-2],"categories":[],"categories_nodes":[],"categories_segments":[],"categories_sizes":[],"default_left":[0,0,0,0,0,0,0,0,0,0,0,0,0,0,0],"id":14,"left_children":[1,3,5,7,9,11,13,-1,-1,-1,-1,-1,-1,-1,-1],"loss_changes":[8.087745E0,1.1794982E0,4.45044E0,4.3511868E-1,6.419287E-1,1.2055019E0,5.5518484E-1,0E0,0E0,0E0,0E0,0E0,0E0,0E0,0E0],"parents":[2147483647,0,0,1,1,2,2,3,3,4,4,5,5,6,6],"right_children":[2,4,6,8,10,12,14,-1,-1,-1,-1,-1,-1,-1,-1],"split_conditions":[-4.56441E-1,1E0,3.363172E-1,1E0,-9.2184854E-1,1E0,9.996856E-1,-9.063487E-3,-3.4576803E-3,-6.174523E-3,-1.3311998E-3,-1.1041714E-3,4.564385E-3,7.410872E-3,1.3510242E-2],"split_indices":[7,6,14,2,7,5,7,0,0,0,0,0,0,0,0],"split_type":[0,0,0,0,0,0,0,0,0,0,0,0,0,0,0],"sum_hessian":[4.33E2,1.88E2,2.45E2,7.6E1,1.12E2,1.65E2,8E1,5.8E1,1.8E1,3.6E1,7.6E1,1.19E2,4.6E1,6E1,2E1],"tree_param":{"num_deleted":"0","num_feature":"15","num_nodes":"15","size_leaf_vector":"1"}},{"base_weights":[2.5640184E-4,-1.396533E-1,1.3892132E-1,-2.4523614E-1,-8.339796E-2,2.5641002E-2,2.5503224E-1,-7.885459E-3,-9.4684324E-4,-3.7827054E-3,1.5521662E-3,-1.3874299E-3,5.175816E-3,5.101548E-3,1.0772651E-2],"categories":[],"categories_nodes":[],"categories_segments":[],"categories_sizes":[],"default_left":[0,0,0,0,0,0,0,0,0,0,0,0,0,0,0],"id":15,"left_children":[1,3,5,7,9,11,13,-1,-1,-1,-1,-1,-1,-1,-1],"loss_changes":[8.691453E0,1.3040781E0,2.9529042E0,2.8148127E-1,8.546095E-1,1.222316E0,9.2048216E-1,0E0,0E0,0E0,0E0,0E0,0E0,0E0,0E0],"parents":[2147483647,0,0,1,1,2,2,3,3,4,4,5,5,6,6],"right_children":[2,4,6,8,10,12,14,-1,-1,-1,-1,-1,-1,-1,-1],"split_conditions":[-2.9055315E-1,4.723492E-2,1E0,1E0,1.4205067E0,1E0,1.4205067E0,-7.885459E-3,-9.4684324E-4,-3.7827054E-3,1.5521662E-3,-1.3874299E-3,5.175816E-3,5.101548E-3,1.0772651E-2],"split_indices":[7,9,4,5,10,5,10,0,0,0,0,0,0,0,0],"split_type":[0,0,0,0,0,0,0,0,0,0,0,0,0,0,0],"sum_hessian":[4.46E2,2.22E2,2.24E2,7.6E1,1.46E2,1.14E2,1.1E2,7E1,6E0,1.11E2,3.5E1,7.7E1,3.7E1,6.2E1,4.8E1],"tree_param":{"num_deleted":"0","num_feature":"15","num_nodes":"15","size_leaf_vector":"1"}},{"base_weights":[3.146836E-3,-1.0582779E-1,1.6689883E-1,-1.4836317E-1,5.2738123E-2,7.366711E-2,2.816209E-1,-7.3715704E-3,-2.669196E-3,-2.234383E-3,3.5492065E-3,-2.669475E-4,5.720517E-3,3.5883083E-3,9.44026E-3],"categories":[],"categories_nodes":[],"categories_segments":[],"categories_sizes":[],"default_left":[0,0,0,0,0,0,0,0,0,0,0,0,0,0,0],"id":16,"left_children":[1,3,5,7,9,11,13,-1,-1,-1,-1,-1,-1,-1,-1],"loss_changes":[7.90507E0,1.801904E0,1.8723989E0,1.192349E0,4.8427683E-1,9.581887E-1,3.8541985E-1,0E0,0E0,0E0,0E0,0E0,0E0,0E0,0E0],"parents":[2147483647,0,0,1,1,2,2,3,3,4,4,5,5,6,6],"right_children":[2,4,6,8,10,12,14,-1,-1,-1,-1,-1,-1,-1,-1],"split_conditions":[1.6103041E-1,1E0,7.2218424E-1,1E0,2.2420415E-1,1E0,2.2420415E-1,-7.3715704E-3,-2.669196E-3,-2.234383E-3,3.5492065E-3,-2.669475E-4,5.720517E-3,3.5883083E-3,9.44026E-3],"split_indices":[7,4,13,6,11,4,11,0,0,0,0,0,0,0,0],"split_type":[0,0,0,0,0,0,0,0,0,0,0,0,0,0,0],"sum_hessian":[4.41E2,2.65E2,1.76E2,2.09E2,5.6E1,9.8E1,7.8E1,7.8E1,1.31E2,1.9E1,3.7E1,5.8E1,4E1,1.4E1,6.4E1],"tree_param":{"num_deleted":"0","num_feature":"15","num_nodes":"15","size_leaf_vector":"1"}},{"base_weights":[7.2768065E-3,-1.0850094E-1,1.7704374E-1,-2.2664164E-1,-3.624293E-2,9.836221E-2,2.9102403E-1,-7.166249E-3,7.455845E-3,-4.4177817E-3,8.0815476E-4,9.7560615E-4,5.5919643E-3,4.993297E-3,1.0245035E-2],"categories":[],"categories_nodes":[],"categories_segments":[],"categories_sizes":[],"default_left":[0,0,0,0,0,0,0,0,0,0,0,0,0,0,0],"id":17,"left_children":[1,3,5,7,9,11,13,-1,-1,-1,-1,-1,-1,-1,-1],"loss_changes":[8.726478E0,2.245452E0,1.58564E0,6.4065886E-1,1.1613063E0,6.19961E-1,4.0221882E-1,0E0,0E0,0E0,0E0,0E0,0E0,0E0,0E0],"parents":[2147483647,0,0,1,1,2,2,3,3,4,4,5,5,6,6],"right_children":[2,4,6,8,10,12,14,-1,-1,-1,-1,-1,-1,-1,-1],"split_conditions":[3.0171344E-1,1E0,1.4205067E0,2.5296998E0,-7.6836795E-1,1E0,3.556489E-1,-7.166249E-3,7.455845E-3,-4.4177817E-3,8.0815476E-4,9.7560615E-4,5.5919643E-3,4.993297E-3,1.0245035E-2],"split_indices":[8,6,10,11,8,4,12,0,0,0,0,0,0,0,0],"split_type":[0,0,0,0,0,0,0,0,0,0,0,0,0,0,0],"sum_hessian":[4.42E2,2.63E2,1.79E2,9.9E1,1.64E2,1.07E2,7.2E1,9.7E1,2E0,5.9E1,1.05E2,6.2E1,4.5E1,2.2E1,5E1],"tree_param":{"num_deleted":"0","num_feature":"15","num_nodes":"15","size_leaf_vector":"1"}},{"base_weights":[-3.2177332E-3,-1.0162964E-1,1.6353886E-1,-2.2352938E-1,-4.2146824E-2,6.4447254E-2,2.9228452E-1,-8.649002E-3,-3.9726733E-3,-7.1192943E-3,-2.2968775E-4,-6.81156E-4,5.6970273E-3,-2.0827483E-3,9.12892E-3],"categories":[],"categories_nodes":[],"categories_segments":[],"categories_sizes":[],"default_left":[0,0,0,0,0,0,0,0,0,0,0,0,0,0,0],"id":18,"left_children":[1,3,5,7,9,11,13,-1,-1,-1,-1,-1,-1,-1,-1],"loss_changes":[6.9419928E0,1.9193287E0,1.984108E0,4.7521448E-1,1.209814E0,9.883353E-1,3.1659555E-1,0E0,0E0,0E0,0E0,0E0,0E0,0E0,0E0],"parents":[2147483647,0,0,1,1,2,2,3,3,4,4,5,5,6,6],"right_children":[2,4,6,8,10,12,14,-1,-1,-1,-1,-1,-1,-1,-1],"split_conditions":[1.6103041E-1,4.723492E-2,1.4205067E0,-6.9144875E-1,-1.0831283E0,1E0,1E0,-8.649002E-3,-3.9726733E-3,-7.1192943E-3,-2.2968775E-4,-6.81156E-4,5.6970273E-3,-2.0827483E-3,9.12892E-3],"split_indices":[7,9,10,7,7,5,0,0,0,0,0,0,0,0,0],"split_type":[0,0,0,0,0,0,0,0,0,0,0,0,0,0,0],"sum_hessian":[4.21E2,2.65E2,1.56E2,8.6E1,1.79E2,8.9E1,6.7E1,4.9E1,3.7E1,2.6E1,1.53E2,5.3E1,3.6E1,2E0,6.5E1],"tree_param":{"num_deleted":"0","num_feature":"15","num_nodes":"15","size_leaf_vector":"1"}},{"base_weights":[-2.1148964E-3,-1.5598379E-1,9.912259E-2,-2.4517262E-1,-9.1257885E-2,1.7045755E-2,2.1358082E-1,-8.015453E-3,1.5326908E-5,-3.8991768E-3,1.4715858E-3,-4.6038395E-4,8.483993E-3,4.757343E-3,1.1128833E-2],"categories":[],"categories_nodes":[],"categories_segments":[],"categories_sizes":[],"default_left":[0,0,0,0,0,0,0,0,0,0,0,0,0,0,0],"id":19,"left_children":[1,3,5,7,9,11,13,-1,-1,-1,-1,-1,-1,-1,-1],"loss_changes":[6.869474E0,9.8787117E-1,2.495262E0,3.948679E-1,5.6588036E-1,1.3472307E0,9.020276E-1,0E0,0E0,0E0,0E0,0E0,0E0,0E0,0E0],"parents":[2147483647,0,0,1,1,2,2,3,3,4,4,5,5,6,6],"right_children":[2,4,6,8,10,12,14,-1,-1,-1,-1,-1,-1,-1,-1],"split_conditions":[-5.154233E-1,1E0,7.2218424E-1,1E0,7.2218424E-1,1.3769519E0,1.0135096E0,-8.015453E-3,1.5326908E-5,-3.8991768E-3,1.4715858E-3,-4.6038395E-4,8.483993E-3,4.757343E-3,1.1128833E-2],"split_indices":[7,6,13,5,13,11,7,0,0,0,0,0,0,0,0],"split_type":[0,0,0,0,0,0,0,0,0,0,0,0,0,0,0],"sum_hessian":[4.39E2,1.74E2,2.65E2,7.2E1,1.02E2,1.55E2,1.1E2,6.6E1,6E0,8E1,2.2E1,1.39E2,1.6E1,8.3E1,2.7E1],"tree_param":{"num_deleted":"0","num_feature":"15","num_nodes":"15","size_leaf_vector":"1"}},{"base_weights":[-5.5201603E-3,-9.64689E-2,1.7065184E-1,-2.137563E-1,-2.6081212E-2,5.5393346E-2,2.543118E-1,-7.203152E-3,-8.730922E-4,-3.876656E-3,6.9263764E-4,-2.051229E-3,3.8089254E-3,5.5867643E-3,1.0492993E-2],"categories":[],"categories_nodes":[],"categories_segments":[],"categories_sizes":[],"default_left":[0,0,0,0,0,0,0,0,0,0,0,0,0,0,0],"id":20,"left_children":[1,3,5,7,9,11,13,-1,-1,-1,-1,-1,-1,-1,-1],"loss_changes":[6.6818733E0,2.2647116E0,1.3551512E0,4.9414682E-1,8.8032466E-1,5.4902846E-1,4.677949E-1,0E0,0E0,0E0,0E0,0E0,0E0,0E0,0E0],"parents":[2147483647,0,0,1,1,2,2,3,3,4,4,5,5,6,6],"right_children":[2,4,6,8,10,12,14,-1,-1,-1,-1,-1,-1,-1,-1],"split_conditions":[3.845182E-1,1E0,2.2420415E-1,1E0,-7.605687E-1,3.556489E-1,1.5162995E0,-7.203152E-3,-8.730922E-4,-3.876656E-3,6.9263764E-4,-2.051229E-3,3.8089254E-3,5.5867643E-3,1.0492993E-2],"split_indices":[7,6,11,5,7,12,12,0,0,0,0,0,0,0,0],"split_type":[0,0,0,0,0,0,0,0,0,0,0,0,0,0,0],"sum_hessian":[4.15E2,2.74E2,1.41E2,1.02E2,1.72E2,6E1,8.1E1,8.9E1,1.3E1,5.5E1,1.17E2,2.2E1,3.8E1,4.9E1,3.2E1],"tree_param":{"num_deleted":"0","num_feature":"15","num_nodes":"15","size_leaf_vector":"1"}},{"base_weights":[-7.3041385E-3,-1.7090555E-1,9.405832E-2,-2.1955742E-1,-6.002342E-2,2.6183909E-2,2.3259479E-1,-7.2005256E-3,-1.2889948E-4,-3.1753778E-3,2.5675832E-3,-3.2804827E-3,2.277611E-3,3.9887065E-3,8.786028E-3],"categories":[],"categories_nodes":[],"categories_segments":[],"categories_sizes":[],"default_left":[0,0,0,0,0,0,0,0,0,0,0,0,0,0,0],"id":21,"left_children":[1,3,5,7,9,11,13,-1,-1,-1,-1,-1,-1,-1,-1],"loss_changes":[7.1965313E0,8.823285E-1,2.5139353E0,5.0545883E-1,3.56013E-1,1.2284136E0,4.89542E-1,0E0,0E0,0E0,0E0,0E0,0E0,0E0,0E0],"parents":[2147483647,0,0,1,1,2,2,3,3,4,4,5,5,6,6],"right_children":[2,4,6,8,10,12,14,-1,-1,-1,-1,-1,-1,-1,-1],"split_conditions":[-5.154233E-1,1E0,1.4205067E0,1.5162995E0,1E0,-2.4249814E-1,1E0,-7.2005256E-3,-1.2889948E-4,-3.1753778E-3,2.5675832E-3,-3.2804827E-3,2.277611E-3,3.9887065E-3,8.786028E-3],"split_indices":[7,2,10,12,4,13,4,0,0,0,0,0,0,0,0],"split_type":[0,0,0,0,0,0,0,0,0,0,0,0,0,0,0],"sum_hessian":[4.32E2,1.65E2,2.67E2,1.14E2,5.1E1,1.8E2,8.7E1,1.04E2,1E1,3.9E1,1.2E1,4.8E1,1.32E2,3.4E1,5.3E1],"tree_param":{"num_deleted":"0","num_feature":"15","num_nodes":"15","size_leaf_vector":"1"}},{"base_weights":[4.247841E-3,-1.0574674E-1,1.3763608E-1,-1.4576255E-1,6.152155E-2,6.7327976E-2,2.5579342E-1,-7.7782907E-3,-3.4340213E-3,2.923022E-3,-3.1477609E-3,-6.4719457E-4,4.0381136E-3,6.795133E-3,1.5238711E-2],"categories":[],"categories_nodes":[],"categories_segments":[],"categories_sizes":[],"default_left":[0,0,0,0,0,0,0,0,0,0,0,0,0,0,0],"id":22,"left_children":[1,3,5,7,9,11,13,-1,-1,-1,-1,-1,-1,-1,-1],"loss_changes":[6.558259E0,1.6488447E0,1.6608763E0,6.737037E-1,2.9714462E-1,7.684586E-1,4.3886662E-1,0E0,0E0,0E0,0E0,0E0,0E0,0E0,0E0],"parents":[2147483647,0,0,1,1,2,2,3,3,4,4,5,5,6,6],"right_children":[2,4,6,8,10,12,14,-1,-1,-1,-1,-1,-1,-1,-1],"split_conditions":[-7.305575E-2,1.4205067E0,3.363172E-1,1E0,3.4712362E0,3.556489E-1,3.4106767E0,-7.7782907E-3,-3.4340213E-3,2.923022E-3,-3.1477609E-3,-6.4719457E-4,4.0381136E-3,6.795133E-3,1.5238711E-2],"split_indices":[7,10,14,0,14,12,10,0,0,0,0,0,0,0,0],"split_type":[0,0,0,0,0,0,0,0,0,0,0,0,0,0,0],"sum_hessian":[4.45E2,2.44E2,2.01E2,1.97E2,4.7E1,1.27E2,7.4E1,4.1E1,1.56E2,3.9E1,8E0,5.5E1,7.2E1,6.8E1,6E0],"tree_param":{"num_deleted":"0","num_feature":"15","num_nodes":"15","size_leaf_vector":"1"}},{"base_weights":[9.819976E-3,-7.369509E-2,1.6179729E-1,-1.8371138E-1,-8.1340745E-3,7.8648195E-2,2.5771222E-1,-6.7051714E-3,5.408569E-3,-1.5389584E-3,3.22293E-3,2.7420907E-4,5.6369645E-3,5.880184E-3,1.0127015E-2],"categories":[],"categories_nodes":[],"categories_segments":[],"categories_sizes":[],"default_left":[0,0,0,0,0,0,0,0,0,0,0,0,0,0,0],"id":23,"left_children":[1,3,5,7,9,11,13,-1,-1,-1,-1,-1,-1,-1,-1],"loss_changes":[5.583885E0,2.046935E0,1.2238684E0,1.575707E0,8.9841914E-1,6.437539E-1,2.886176E-1,0E0,0E0,0E0,0E0,0E0,0E0,0E0,0E0],"parents":[2147483647,0,0,1,1,2,2,3,3,4,4,5,5,6,6],"right_children":[2,4,6,8,10,12,14,-1,-1,-1,-1,-1,-1,-1,-1],"split_conditions":[3.6746863E-1,1E0,7.2218424E-1,1.3769519E0,1E0,1E0,1.0135096E0,-6.7051714E-3,5.408569E-3,-1.5389584E-3,3.22293E-3,2.7420907E-4,5.6369645E-3,5.880184E-3,1.0127015E-2],"split_indices":[7,6,13,11,4,4,7,0,0,0,0,0,0,0,0],"split_type":[0,0,0,0,0,0,0,0,0,0,0,0,0,0,0],"sum_hessian":[4.38E2,2.83E2,1.55E2,1.05E2,1.78E2,8.4E1,7.1E1,9.5E1,1E1,1.3E2,4.8E1,5.2E1,3.2E1,4.2E1,2.9E1],"tree_param":{"num_deleted":"0","num_feature":"15","num_nodes":"15","size_leaf_vector":"1"}},{"base_weights":[2.0694085E-3,-7.429364E-2,1.5273161E-1,-1.6708764E-1,-1.5438343E-2,4.748122E-2,2.4050379E-1,-5.531835E-3,3.7140655E-3,-1.6316674E-3,2.808609E-3,-9.832426E-4,4.4075027E-3,5.3789658E-3,1.0322034E-2],"categories":[],"categories_nodes":[],"categories_segments":[],"categories_sizes":[],"default_left":[0,0,0,0,0,0,0,0,0,0,0,0,0,0,0],"id":24,"left_children":[1,3,5,7,9,11,13,-1,-1,-1,-1,-1,-1,-1,-1],"loss_changes":[5.096568E0,1.6030777E0,1.365051E0,5.967488E-1,7.739611E-1,5.5545557E-1,4.5173788E-1,0E0,0E0,0E0,0E0,0E0,0E0,0E0,0E0],"parents":[2147483647,0,0,1,1,2,2,3,3,4,4,5,5,6,6],"right_children":[2,4,6,8,10,12,14,-1,-1,-1,-1,-1,-1,-1,-1],"split_conditions":[5.849299E-1,1E0,2.2420415E-1,1.3769519E0,1E0,1E0,1.5162995E0,-5.531835E-3,3.7140655E-3,-1.6316674E-3,2.808609E-3,-9.832426E-4,4.4075027E-3,5.3789658E-3,1.0322034E-2],"split_indices":[8,6,11,11,4,5,12,0,0,0,0,0,0,0,0],"split_type":[0,0,0,0,0,0,0,0,0,0,0,0,0,0,0],"sum_hessian":[4.41E2,2.93E2,1.48E2,1.13E2,1.8E2,6.8E1,8E1,1.07E2,6E0,1.33E2,4.7E1,3.8E1,3E1,5.2E1,2.8E1],"tree_param":{"num_deleted":"0","num_feature":"15","num_nodes":"15","size_leaf_vector":"1"}},{"base_weights":[5.821569E-3,-6.455559E-2,1.5571333E-1,-1.1137587E-1,6.42765E-2,1.4288769E-2,2.1743774E-1,-4.6370556E-3,1.2905579E-3,-3.234335E-3,3.0900051E-3,-4.405243E-4,3.3410338E-3,-6.665518E-3,7.020245E-3],"categories":[],"categories_nodes":[],"categories_segments":[],"categories_sizes":[],"default_left":[0,0,0,0,0,0,0,0,0,0,0,0,0,0,0],"id":25,"left_children":[1,3,5,7,9,11,13,-1,-1,-1,-1,-1,-1,-1,-1],"loss_changes":[4.5566525E0,1.7805533E0,1.2015429E0,1.4470899E0,5.3755E-1,1.2257982E-1,7.513256E-1,0E0,0E0,0E0,0E0,0E0,0E0,0E0,0E0],"parents":[2147483647,0,0,1,1,2,2,3,3,4,4,5,5,6,6],"right_children":[2,4,6,8,10,12,14,-1,-1,-1,-1,-1,-1,-1,-1],"split_conditions":[1E0,7.2218424E-1,-2.7212116E-1,1E0,1E0,3.363172E-1,1E0,-4.6370556E-3,1.2905579E-3,-3.234335E-3,3.0900051E-3,-4.405243E-4,3.3410338E-3,-6.665518E-3,7.020245E-3],"split_indices":[4,13,7,5,0,14,0,0,0,0,0,0,0,0,0],"split_type":[0,0,0,0,0,0,0,0,0,0,0,0,0,0,0],"sum_hessian":[4.3E2,2.93E2,1.37E2,2.15E2,7.8E1,4.2E1,9.5E1,1.68E2,4.7E1,1.4E1,6.4E1,3.3E1,9E0,3E0,9.2E1],"tree_param":{"num_deleted":"0","num_feature":"15","num_nodes":"15","size_leaf_vector":"1"}},{"base_weights":[4.2878244E-5,-8.826831E-2,1.5500374E-1,-1.2862773E-1,5.8075685E-2,-5.5902436E-2,1.8750325E-1,-6.1585167E-3,-2.013887E-3,3.0210178E-4,5.4519954E-3,-4.052303E-3,3.9916052E-3,3.4018052E-3,7.5019747E-3],"categories":[],"categories_nodes":[],"categories_segments":[],"categories_sizes":[],"default_left":[0,0,0,0,0,0,0,0,0,0,0,0,0,0,0],"id":26,"left_children":[1,3,5,7,9,11,13,-1,-1,-1,-1,-1,-1,-1,-1],"loss_changes":[5.99393E0,1.6553445E0,1.100323E0,1.0186322E0,3.6028153E-1,3.4710252E-1,6.114812E-1,0E0,0E0,0E0,0E0,0E0,0E0,0E0,0E0],"parents":[2147483647,0,0,1,1,2,2,3,3,4,4,5,5,6,6],"right_children":[2,4,6,8,10,12,14,-1,-1,-1,-1,-1,-1,-1,-1],"split_conditions":[3.6746863E-1,1E0,-2.4249814E-1,1E0,1.4205067E0,1.543429E0,1E0,-6.1585167E-3,-2.013887E-3,3.0210178E-4,5.4519954E-3,-4.052303E-3,3.9916052E-3,3.4018052E-3,7.5019747E-3],"split_indices":[7,4,13,6,10,7,4,0,0,0,0,0,0,0,0],"split_type":[0,0,0,0,0,0,0,0,0,0,0,0,0,0,0],"sum_hessian":[4.36E2,2.78E2,1.58E2,2.18E2,6E1,2.1E1,1.37E2,9.6E1,1.22E2,4.4E1,1.6E1,1.5E1,6E0,6.4E1,7.3E1],"tree_param":{"num_deleted":"0","num_feature":"15","num_nodes":"15","size_leaf_vector":"1"}},{"base_weights":[7.8010624E-3,-6.867775E-2,1.2603109E-1,-1.6734543E-1,-2.3796802E-2,-9.048281E-2,1.6875936E-1,-7.7065835E-3,-3.354454E-3,-5.171002E-3,6.00166E-4,-3.8682164E-3,5.463395E-3,-4.363718E-3,5.433257E-3],"categories":[],"categories_nodes":[],"categories_segments":[],"categories_sizes":[],"default_left":[0,0,0,0,0,0,0,0,0,0,0,0,0,0,0],"id":27,"left_children":[1,3,5,7,9,11,13,-1,-1,-1,-1,-1,-1,-1,-1],"loss_changes":[3.9600499E0,1.1739455E0,1.6064875E0,3.8397074E-1,1.2008669E0,3.27501E-1,5.8511114E-1,0E0,0E0,0E0,0E0,0E0,0E0,0E0,0E0],"parents":[2147483647,0,0,1,1,2,2,3,3,4,4,5,5,6,6],"right_children":[2,4,6,8,10,12,14,-1,-1,-1,-1,-1,-1,-1,-1],"split_conditions":[1.6103041E-1,-2.4249814E-1,-2.4249814E-1,-7.559607E-1,1E0,2.465028E0,1E0,-7.7065835E-3,-3.354454E-3,-5.171002E-3,6.00166E-4,-3.8682164E-3,5.463395E-3,-4.363718E-3,5.433257E-3],"split_indices":[7,13,13,7,0,7,0,0,0,0,0,0,0,0,0],"split_type":[0,0,0,0,0,0,0,0,0,0,0,0,0,0,0],"sum_hessian":[4.36E2,2.65E2,1.71E2,8.2E1,1.83E2,2.8E1,1.43E2,3E1,5.2E1,4.1E1,1.42E2,2.5E1,3E0,5E0,1.38E2],"tree_param":{"num_deleted":"0","num_feature":"15","num_nodes":"15","size_leaf_vector":"1"}},{"base_weights":[4.9761442E-5,-7.691828E-2,1.4474934E-1,-1.1467898E-1,5.8920953E-2,6.761752E-2,2.3193404E-1,-7.046248E-3,-2.3991645E-3,3.431282E-4,5.230678E-3,-1.2587195E-3,3.886003E-3,5.284865E-3,9.586252E-3],"categories":[],"categories_nodes":[],"categories_segments":[],"categories_sizes":[],"default_left":[0,0,0,0,0,0,0,0,0,0,0,0,0,0,0],"id":28,"left_children":[1,3,5,7,9,11,13,-1,-1,-1,-1,-1,-1,-1,-1],"loss_changes":[4.811286E0,1.4532434E0,9.9302435E-1,9.0314436E-1,3.378426E-1,5.549735E-1,2.857318E-1,0E0,0E0,0E0,0E0,0E0,0E0,0E0,0E0],"parents":[2147483647,0,0,1,1,2,2,3,3,4,4,5,5,6,6],"right_children":[2,4,6,8,10,12,14,-1,-1,-1,-1,-1,-1,-1,-1],"split_conditions":[3.6746863E-1,1E0,7.2218424E-1,1E0,3.363172E-1,3.556489E-1,1.5162995E0,-7.046248E-3,-2.3991645E-3,3.431282E-4,5.230678E-3,-1.2587195E-3,3.886003E-3,5.284865E-3,9.586252E-3],"split_indices":[7,4,13,0,14,12,12,0,0,0,0,0,0,0,0],"split_type":[0,0,0,0,0,0,0,0,0,0,0,0,0,0,0],"sum_hessian":[4.3E2,2.81E2,1.49E2,2.2E2,6.1E1,8E1,6.9E1,4.8E1,1.72E2,4.4E1,1.7E1,2.9E1,5.1E1,4.4E1,2.5E1],"tree_param":{"num_deleted":"0","num_feature":"15","num_nodes":"15","size_leaf_vector":"1"}},{"base_weights":[1.1912964E-2,-5.961598E-2,1.5247384E-1,-9.698177E-2,5.5385258E-2,-5.6744922E-2,1.8751588E-1,-4.076986E-3,6.4828055E-5,-1.9440246E-3,3.393648E-3,-8.778009E-3,8.950828E-4,-4.0989933E-3,5.9750443E-3],"categories":[],"categories_nodes":[],"categories_segments":[],"categories_sizes":[],"default_left":[0,0,0,0,0,0,0,0,0,0,0,0,0,0,0],"id":29,"left_children":[1,3,5,7,9,11,13,-1,-1,-1,-1,-1,-1,-1,-1],"loss_changes":[4.412817E0,1.2558309E0,1.0956955E0,8.491447E-1,5.0694585E-1,4.5798326E-1,5.0690174E-1,0E0,0E0,0E0,0E0,0E0,0E0,0E0,0E0],"parents":[2147483647,0,0,1,1,2,2,3,3,4,4,5,5,6,6],"right_children":[2,4,6,8,10,12,14,-1,-1,-1,-1,-1,-1,-1,-1],"split_conditions":[5.7864475E-1,1E0,-2.4249814E-1,1E0,2.2420415E-1,1E0,1E0,-4.076986E-3,6.4828055E-5,-1.9440246E-3,3.393648E-3,-8.778009E-3,8.950828E-4,-4.0989933E-3,5.9750443E-3],"split_indices":[8,4,13,2,11,6,0,0,0,0,0,0,0,0,0],"split_type":[0,0,0,0,0,0,0,0,0,0,0,0,0,0,0],"sum_hessian":[4.37E2,2.9E2,1.47E2,2.19E2,7.1E1,2.1E1,1.26E2,1.57E2,6.2E1,2.3E1,4.8E1,5E0,1.6E1,4E0,1.22E2],"tree_param":{"num_deleted":"0","num_feature":"15","num_nodes":"15","size_leaf_vector":"1"}},{"base_weights":[-7.772113E-3,-1.229602E-1,6.291118E-2,-2.0507091E-1,-5.8758806E-2,1.2159563E-2,1.9402657E-1,-1.0249606E-2,-4.3790657E-3,-2.7355547E-3,1.9733391E-3,-1.4478143E-3,3.3481999E-3,4.242684E-3,1.0248778E-2],"categories":[],"categories_nodes":[],"categories_segments":[],"categories_sizes":[],"default_left":[0,0,0,0,0,0,0,0,0,0,0,0,0,0,0],"id":30,"left_children":[1,3,5,7,9,11,13,-1,-1,-1,-1,-1,-1,-1,-1],"loss_changes":[3.5331666E0,8.5776806E-1,1.7876524E0,5.3133583E-1,3.855957E-1,1.1770627E0,5.3400755E-1,0E0,0E0,0E0,0E0,0E0,0E0,0E0,0E0],"parents":[2147483647,0,0,1,1,2,2,3,3,4,4,5,5,6,6],"right_children":[2,4,6,8,10,12,14,-1,-1,-1,-1,-1,-1,-1,-1],"split_conditions":[-5.154233E-1,2.2420415E-1,1.4205067E0,-9.7437966E-1,1.4205067E0,1E0,9.996856E-1,-1.0249606E-2,-4.3790657E-3,-2.7355547E-3,1.9733391E-3,-1.4478143E-3,3.3481999E-3,4.242684E-3,1.0248778E-2],"split_indices":[7,11,10,7,10,2,7,0,0,0,0,0,0,0,0],"split_type":[0,0,0,0,0,0,0,0,0,0,0,0,0,0,0],"sum_hessian":[4.32E2,1.64E2,2.68E2,7.1E1,9.3E1,1.94E2,7.4E1,2E1,5.1E1,7.4E1,1.9E1,1.21E2,7.3E1,5.6E1,1.8E1],"tree_param":{"num_deleted":"0","num_feature":"15","num_nodes":"15","size_leaf_vector":"1"}},{"base_weights":[-2.6025772E-3,-1.2362004E-1,6.75619E-2,-1.7206322E-1,-3.546026E-2,3.40216E-2,2.0481978E-1,-5.8090007E-3,2.2939681E-4,-1.9000589E-3,2.681998E-3,-1.0570147E-3,3.5407655E-3,-7.2351453E-4,6.8601863E-3],"categories":[],"categories_nodes":[],"categories_segments":[],"categories_sizes":[],"default_left":[0,0,0,0,0,0,0,0,0,0,0,0,0,0,0],"id":31,"left_children":[1,3,5,7,9,11,13,-1,-1,-1,-1,-1,-1,-1,-1],"loss_changes":[3.7019925E0,6.77217E-1,1.263645E0,4.0074635E-1,2.075302E-1,1.3015115E0,3.0040097E-1,0E0,0E0,0E0,0E0,0E0,0E0,0E0,0E0],"parents":[2147483647,0,0,1,1,2,2,3,3,4,4,5,5,6,6],"right_children":[2,4,6,8,10,12,14,-1,-1,-1,-1,-1,-1,-1,-1],"split_conditions":[-5.347769E-1,1E0,1.3769519E0,1.5162995E0,1E0,1E0,-7.086732E-1,-5.8090007E-3,2.2939681E-4,-1.9000589E-3,2.681998E-3,-1.0570147E-3,3.5407655E-3,-7.2351453E-4,6.8601863E-3],"split_indices":[7,2,11,12,1,2,14,0,0,0,0,0,0,0,0],"split_type":[0,0,0,0,0,0,0,0,0,0,0,0,0,0,0],"sum_hessian":[4.34E2,1.59E2,2.75E2,1.02E2,5.7E1,2.22E2,5.3E1,9.1E1,1.1E1,4.7E1,1E1,1.22E2,1E2,5E0,4.8E1],"tree_param":{"num_deleted":"0","num_feature":"15","num_nodes":"15","size_leaf_vector":"1"}},{"base_weights":[-5.3430763E-3,-1.2868503E-1,7.025873E-2,-2.0028168E-1,-7.26415E-2,2.6980585E-3,1.6907251E-1,-8.917544E-3,-4.4287276E-3,-2.6332906E-3,8.5815955E-3,-1.0965264E-3,3.6113225E-3,3.4427233E-3,7.3640426E-3],"categories":[],"categories_nodes":[],"categories_segments":[],"categories_sizes":[],"default_left":[0,0,0,0,0,0,0,0,0,0,0,0,0,0,0],"id":32,"left_children":[1,3,5,7,9,11,13,-1,-1,-1,-1,-1,-1,-1,-1],"loss_changes":[4.0000873E0,6.3949347E-1,1.7753401E0,3.186574E-1,5.2998644E-1,7.387875E-1,4.1996908E-1,0E0,0E0,0E0,0E0,0E0,0E0,0E0,0E0],"parents":[2147483647,0,0,1,1,2,2,3,3,4,4,5,5,6,6],"right_children":[2,4,6,8,10,12,14,-1,-1,-1,-1,-1,-1,-1,-1],"split_conditions":[-5.154233E-1,2.2420415E-1,1E0,1E0,1E0,1E0,2E0,-8.917544E-3,-4.4287276E-3,-2.6332906E-3,8.5815955E-3,-1.0965264E-3,3.6113225E-3,3.4427233E-3,7.3640426E-3],"split_indices":[7,11,4,0,3,5,6,0,0,0,0,0,0,0,0],"split_type":[0,0,0,0,0,0,0,0,0,0,0,0,0,0,0],"sum_hessian":[4.27E2,1.62E2,2.65E2,7E1,9.2E1,1.58E2,1.07E2,2.3E1,4.7E1,8.9E1,3E0,1.19E2,3.9E1,6.4E1,4.3E1],"tree_param":{"num_deleted":"0","num_feature":"15","num_nodes":"15","size_leaf_vector":"1"}},{"base_weights":[-9.266495E-3,-7.27518E-2,1.24822386E-1,-1.1334478E-1,4.0403508E-2,5.3412866E-2,2.2978455E-1,-5.409124E-3,-2.2246765E-3,-2.1519011E-3,3.1295684E-3,-6.876929E-4,4.072415E-3,3.765242E-3,8.321033E-3],"categories":[],"categories_nodes":[],"categories_segments":[],"categories_sizes":[],"default_left":[0,0,0,0,0,0,0,0,0,0,0,0,0,0,0],"id":33,"left_children":[1,3,5,7,9,11,13,-1,-1,-1,-1,-1,-1,-1,-1],"loss_changes":[3.814246E0,1.4009461E0,1.0670493E0,5.7441926E-1,5.880151E-1,5.499127E-1,2.5297332E-1,0E0,0E0,0E0,0E0,0E0,0E0,0E0,0E0],"parents":[2147483647,0,0,1,1,2,2,3,3,4,4,5,5,6,6],"right_children":[2,4,6,8,10,12,14,-1,-1,-1,-1,-1,-1,-1,-1],"split_conditions":[1E0,3.6746863E-1,3.363172E-1,-7.605687E-1,3.556489E-1,2.5319034E-1,3.556489E-1,-5.409124E-3,-2.2246765E-3,-2.1519011E-3,3.1295684E-3,-6.876929E-4,4.072415E-3,3.765242E-3,8.321033E-3],"split_indices":[4,7,14,7,12,7,12,0,0,0,0,0,0,0,0],"split_type":[0,0,0,0,0,0,0,0,0,0,0,0,0,0,0],"sum_hessian":[4.46E2,3.03E2,1.43E2,2.23E2,8E1,8.6E1,5.7E1,8.1E1,1.42E2,2.9E1,5.1E1,4.5E1,4.1E1,1.9E1,3.8E1],"tree_param":{"num_deleted":"0","num_feature":"15","num_nodes":"15","size_leaf_vector":"1"}},{"base_weights":[1.4122181E-2,-4.7567315E-2,1.3916285E-1,-1.4345896E-1,6.140412E-3,4.738635E-2,2.0350008E-1,-6.5647624E-3,-2.2522872E-3,-1.5658875E-3,3.1669678E-3,-2.0045915E-3,2.8561067E-3,5.014818E-3,1.06401695E-2],"categories":[],"categories_nodes":[],"categories_segments":[],"categories_sizes":[],"default_left":[0,0,0,0,0,0,0,0,0,0,0,0,0,0,0],"id":34,"left_children":[1,3,5,7,9,11,13,-1,-1,-1,-1,-1,-1,-1,-1],"loss_changes":[3.2695134E0,1.4635154E0,8.170073E-1,5.092552E-1,1.0669345E0,3.2856137E-1,3.9118123E-1,0E0,0E0,0E0,0E0,0E0,0E0,0E0,0E0],"parents":[2147483647,0,0,1,1,2,2,3,3,4,4,5,5,6,6],"right_children":[2,4,6,8,10,12,14,-1,-1,-1,-1,-1,-1,-1,-1],"split_conditions":[1E0,-6.7762476E-1,2.5319034E-1,2.2420415E-1,1E0,2.2420415E-1,1.6868666E0,-6.5647624E-3,-2.2522872E-3,-1.5658875E-3,3.1669678E-3,-2.0045915E-3,2.8561067E-3,5.014818E-3,1.06401695E-2],"split_indices":[4,7,7,11,2,11,13,0,0,0,0,0,0,0,0],"split_type":[0,0,0,0,0,0,0,0,0,0,0,0,0,0,0],"sum_hessian":[4.22E2,2.83E2,1.39E2,1.01E2,1.82E2,5.8E1,8.1E1,4.7E1,5.4E1,1.15E2,6.7E1,1.7E1,4.1E1,6.7E1,1.4E1],"tree_param":{"num_deleted":"0","num_feature":"15","num_nodes":"15","size_leaf_vector":"1"}},{"base_weights":[6.5326886E-3,-8.869096E-2,7.353036E-2,-1.7932194E-1,-2.9636307E-2,3.3596072E-3,1.3003348E-1,-6.4587086E-3,-1.1993122E-3,-1.7972431E-3,1.772084E-3,-1.2144006E-3,3.7885509E-3,2.206037E-3,5.5653313E-3],"categories":[],"categories_nodes":[],"categories_segments":[],"categories_sizes":[],"default_left":[0,0,0,0,0,0,0,0,0,0,0,0,0,0,0],"id":35,"left_children":[1,3,5,7,9,11,13,-1,-1,-1,-1,-1,-1,-1,-1],"loss_changes":[2.8263767E0,9.741348E-1,1.0304285E0,3.522575E-1,3.0429047E-1,6.3562554E-1,4.377153E-1,0E0,0E0,0E0,0E0,0E0,0E0,0E0,0E0],"parents":[2147483647,0,0,1,1,2,2,3,3,4,4,5,5,6,6],"right_children":[2,4,6,8,10,12,14,-1,-1,-1,-1,-1,-1,-1,-1],"split_conditions":[-4.8408896E-1,1E0,3.556489E-1,1E0,7.2218424E-1,1.3769519E0,7.2218424E-1,-6.4587086E-3,-1.1993122E-3,-1.7972431E-3,1.772084E-3,-1.2144006E-3,3.7885509E-3,2.206037E-3,5.5653313E-3],"split_indices":[7,6,12,2,13,11,13,0,0,0,0,0,0,0,0],"split_type":[0,0,0,0,0,0,0,0,0,0,0,0,0,0,0],"sum_hessian":[4.41E2,1.82E2,2.59E2,7.1E1,1.11E2,1.16E2,1.43E2,5.6E1,1.5E1,8.3E1,2.8E1,8.6E1,3E1,7.2E1,7.1E1],"tree_param":{"num_deleted":"0","num_feature":"15","num_nodes":"15","size_leaf_vector":"1"}},{"base_weights":[-6.5215435E-3,-6.436842E-2,1.0802824E-1,-1.3723321E-1,-1.6118016E-2,3.6045115E-2,1.7757878E-1,-4.696483E-3,4.2206882E-3,-4.216377E-3,4.7978555E-4,-2.2337013E-3,2.7506393E-3,3.6075204E-3,8.187553E-3],"categories":[],"categories_nodes":[],"categories_segments":[],"categories_sizes":[],"default_left":[0,0,0,0,0,0,0,0,0,0,0,0,0,0,0],"id":36,"left_children":[1,3,5,7,9,11,13,-1,-1,-1,-1,-1,-1,-1,-1],"loss_changes":[2.8827882E0,1.0138416E0,7.245431E-1,6.393924E-1,7.0145804E-1,4.5567736E-1,3.7163877E-1,0E0,0E0,0E0,0E0,0E0,0E0,0E0,0E0],"parents":[2147483647,0,0,1,1,2,2,3,3,4,4,5,5,6,6],"right_children":[2,4,6,8,10,12,14,-1,-1,-1,-1,-1,-1,-1,-1],"split_conditions":[3.914302E-1,1E0,7.2218424E-1,1.3769519E0,-9.2184854E-1,3.556489E-1,1.5162995E0,-4.696483E-3,4.2206882E-3,-4.216377E-3,4.7978555E-4,-2.2337013E-3,2.7506393E-3,3.6075204E-3,8.187553E-3],"split_indices":[7,6,13,11,7,12,12,0,0,0,0,0,0,0,0],"split_type":[0,0,0,0,0,0,0,0,0,0,0,0,0,0,0],"sum_hessian":[4.33E2,2.88E2,1.45E2,1.14E2,1.74E2,7.2E1,7.3E1,1.07E2,7E0,3.5E1,1.39E2,2.4E1,4.8E1,4.7E1,2.6E1],"tree_param":{"num_deleted":"0","num_feature":"15","num_nodes":"15","size_leaf_vector":"1"}},{"base_weights":[-5.215696E-4,-5.633633E-2,1.2048212E-1,-9.121991E-2,8.011851E-2,1.5912285E-2,1.7852768E-1,-3.8419487E-3,1.2697874E-3,-1.4362745E-4,4.4305422E-3,-3.4875228E-4,3.438047E-3,2.6597453E-3,6.635944E-3],"categories":[],"categories_nodes":[],"categories_segments":[],"categories_sizes":[],"default_left":[0,0,0,0,0,0,0,0,0,0,0,0,0,0,0],"id":37,"left_children":[1,3,5,7,9,11,13,-1,-1,-1,-1,-1,-1,-1,-1],"loss_changes":[2.9311793E0,1.4210382E0,8.287238E-1,1.1715825E0,3.5065085E-1,1.3721438E-1,3.1784916E-1,0E0,0E0,0E0,0E0,0E0,0E0,0E0,0E0],"parents":[2147483647,0,0,1,1,2,2,3,3,4,4,5,5,6,6],"right_children":[2,4,6,8,10,12,14,-1,-1,-1,-1,-1,-1,-1,-1],"split_conditions":[1E0,1E0,-7.397735E-2,1.4205067E0,1.1495046E-1,9.633123E-1,3.556489E-1,-3.8419487E-3,1.2697874E-3,-1.4362745E-4,4.4305422E-3,-3.4875228E-4,3.438047E-3,2.6597453E-3,6.635944E-3],"split_indices":[4,5,7,10,7,14,12,0,0,0,0,0,0,0,0],"split_type":[0,0,0,0,0,0,0,0,0,0,0,0,0,0,0],"sum_hessian":[4.32E2,2.96E2,1.36E2,2.36E2,6E1,4.9E1,8.7E1,1.85E2,5.1E1,2.7E1,3.3E1,3.9E1,1E1,2.9E1,5.8E1],"tree_param":{"num_deleted":"0","num_feature":"15","num_nodes":"15","size_leaf_vector":"1"}},{"base_weights":[6.03492E-3,-9.97156E-2,6.697994E-2,-2.092474E-1,-4.6034683E-2,2.265986E-2,1.706513E-1,-7.050017E-3,-1.0503208E-3,-3.6833691E-3,2.0965403E-4,-1.3188962E-4,5.4145106E-3,2.8442747E-3,6.6866814E-3],"categories":[],"categories_nodes":[],"categories_segments":[],"categories_sizes":[],"default_left":[0,0,0,0,0,0,0,0,0,0,0,0,0,0,0],"id":38,"left_children":[1,3,5,7,9,11,13,-1,-1,-1,-1,-1,-1,-1,-1],"loss_changes":[2.855354E0,9.428897E-1,1.2872502E0,2.2959137E-1,4.4847274E-1,8.4627527E-1,3.1166315E-1,0E0,0E0,0E0,0E0,0E0,0E0,0E0,0E0],"parents":[2147483647,0,0,1,1,2,2,3,3,4,4,5,5,6,6],"right_children":[2,4,6,8,10,12,14,-1,-1,-1,-1,-1,-1,-1,-1],"split_conditions":[-4.1311085E-1,4.723492E-2,1E0,1E0,1E0,2.5296998E0,2.2420415E-1,-7.050017E-3,-1.0503208E-3,-3.6833691E-3,2.0965403E-4,-1.3188962E-4,5.4145106E-3,2.8442747E-3,6.6866814E-3],"split_indices":[8,9,5,1,6,11,11,0,0,0,0,0,0,0,0],"split_type":[0,0,0,0,0,0,0,0,0,0,0,0,0,0,0],"sum_hessian":[4.41E2,1.61E2,2.8E2,5.2E1,1.09E2,1.97E2,8.3E1,4.5E1,7E0,4.4E1,6.5E1,1.69E2,2.8E1,3.5E1,4.8E1],"tree_param":{"num_deleted":"0","num_feature":"15","num_nodes":"15","size_leaf_vector":"1"}},{"base_weights":[5.962068E-4,-4.3643773E-2,1.2029938E-1,-1.4050849E-1,1.3831148E-2,8.2817525E-2,2.511838E-1,-5.1830523E-3,4.149163E-3,-1.3162345E-3,2.7854345E-3,-3.4333894E-4,3.353364E-3,9.280755E-3,1.7125129E-4],"categories":[],"categories_nodes":[],"categories_segments":[],"categories_sizes":[],"default_left":[0,0,0,0,0,0,0,0,0,0,0,0,0,0,0],"id":39,"left_children":[1,3,5,7,9,11,13,-1,-1,-1,-1,-1,-1,-1,-1],"loss_changes":[2.3353434E0,1.7946116E0,5.6298673E-1,1.1032369E0,9.296941E-1,2.578948E-1,3.695259E-1,0E0,0E0,0E0,0E0,0E0,0E0,0E0,0E0],"parents":[2147483647,0,0,1,1,2,2,3,3,4,4,5,5,6,6],"right_children":[2,4,6,8,10,12,14,-1,-1,-1,-1,-1,-1,-1,-1],"split_conditions":[1.4205067E0,1E0,1.0135096E0,1.3769519E0,3.556489E-1,-5.347769E-1,1E0,-5.1830523E-3,4.149163E-3,-1.3162345E-3,2.7854345E-3,-3.4333894E-4,3.353364E-3,9.280755E-3,1.7125129E-4],"split_indices":[10,6,7,11,12,7,1,0,0,0,0,0,0,0,0],"split_type":[0,0,0,0,0,0,0,0,0,0,0,0,0,0,0],"sum_hessian":[4.39E2,3.21E2,1.18E2,1.19E2,2.02E2,9.3E1,2.5E1,1.07E2,1.2E1,1.17E2,8.5E1,2.2E1,7.1E1,2E1,5E0],"tree_param":{"num_deleted":"0","num_feature":"15","num_nodes":"15","size_leaf_vector":"1"}},{"base_weights":[-6.7010475E-3,-1.21981576E-1,4.2259872E-2,-1.8836667E-1,-7.539934E-2,-9.712128E-2,7.639563E-2,-8.156045E-3,-3.9865146E-3,-4.2645005E-3,-1.4429982E-3,-3.4000855E-3,5.111475E-3,-3.6965818E-3,2.787553E-3],"categories":[],"categories_nodes":[],"categories_segments":[],"categories_sizes":[],"default_left":[0,0,0,0,0,0,0,0,0,0,0,0,0,0,0],"id":40,"left_children":[1,3,5,7,9,11,13,-1,-1,-1,-1,-1,-1,-1,-1],"loss_changes":[2.556352E0,4.0326667E-1,1.5204258E0,2.1868265E-1,1.407651E-1,2.925759E-1,8.557886E-1,0E0,0E0,0E0,0E0,0E0,0E0,0E0,0E0],"parents":[2147483647,0,0,1,1,2,2,3,3,4,4,5,5,6,6],"right_children":[2,4,6,8,10,12,14,-1,-1,-1,-1,-1,-1,-1,-1],"split_conditions":[-6.9144875E-1,2.2420415E-1,-2.4249814E-1,-9.7437966E-1,1E0,2.0042286E0,1E0,-8.156045E-3,-3.9865146E-3,-4.2645005E-3,-1.4429982E-3,-3.4000855E-3,5.111475E-3,-3.6965818E-3,2.787553E-3],"split_indices":[7,11,13,7,6,7,0,0,0,0,0,0,0,0,0],"split_type":[0,0,0,0,0,0,0,0,0,0,0,0,0,0,0],"sum_hessian":[4.51E2,1.34E2,3.17E2,5.4E1,8E1,6.2E1,2.55E2,2E1,3.4E1,2.2E1,5.8E1,5.9E1,3E0,1.9E1,2.36E2],"tree_param":{"num_deleted":"0","num_feature":"15","num_nodes":"15","size_leaf_vector":"1"}},{"base_weights":[5.0537777E-3,-4.7590055E-2,1.1284801E-1,-9.911356E-2,4.6184503E-2,7.323025E-2,2.2650984E-1,-6.7738798E-3,-2.052952E-3,7.103902E-4,7.7958866E-3,-2.628293E-3,2.8776983E-3,4.775982E-3,9.771597E-3],"categories":[],"categories_nodes":[],"categories_segments":[],"categories_sizes":[],"default_left":[0,0,0,0,0,0,0,0,0,0,0,0,0,0,0],"id":41,"left_children":[1,3,5,7,9,11,13,-1,-1,-1,-1,-1,-1,-1,-1],"loss_changes":[2.5079138E0,1.439561E0,6.3635147E-1,7.308229E-1,5.035789E-1,4.0624803E-1,1.9522703E-1,0E0,0E0,0E0,0E0,0E0,0E0,0E0,0E0],"parents":[2147483647,0,0,1,1,2,2,3,3,4,4,5,5,6,6],"right_children":[2,4,6,8,10,12,14,-1,-1,-1,-1,-1,-1,-1,-1],"split_conditions":[1E0,1E0,6.448699E-1,1E0,1E0,1E0,1.4021312E0,-6.7738798E-3,-2.052952E-3,7.103902E-4,7.7958866E-3,-2.628293E-3,2.8776983E-3,4.775982E-3,9.771597E-3],"split_indices":[4,2,7,0,3,0,9,0,0,0,0,0,0,0,0],"split_type":[0,0,0,0,0,0,0,0,0,0,0,0,0,0,0],"sum_hessian":[4.4E2,2.96E2,1.44E2,1.91E2,1.05E2,1.08E2,3.6E1,3.6E1,1.55E2,9.6E1,9E0,1.3E1,9.5E1,2.3E1,1.3E1],"tree_param":{"num_deleted":"0","num_feature":"15","num_nodes":"15","size_leaf_vector":"1"}},{"base_weights":[1.3457887E-3,-1.22311644E-1,4.231483E-2,-2.081616E-1,-6.282567E-2,-2.7627341E-2,1.19908854E-1,-6.922148E-3,-2.2470653E-3,-2.5511892E-3,2.6933956E-3,-2.0578515E-3,1.7947167E-3,-3.5888443E-3,4.0523577E-3],"categories":[],"categories_nodes":[],"categories_segments":[],"categories_sizes":[],"default_left":[0,0,0,0,0,0,0,0,0,0,0,0,0,0,0],"id":42,"left_children":[1,3,5,7,9,11,13,-1,-1,-1,-1,-1,-1,-1,-1],"loss_changes":[2.259602E0,5.537844E-1,1.8213894E0,1.1810219E-1,2.3476312E-1,6.382375E-1,5.939195E-1,0E0,0E0,0E0,0E0,0E0,0E0,0E0,0E0],"parents":[2147483647,0,0,1,1,2,2,3,3,4,4,5,5,6,6],"right_children":[2,4,6,8,10,12,14,-1,-1,-1,-1,-1,-1,-1,-1],"split_conditions":[4.723492E-2,1E0,3.556489E-1,1E0,1E0,1E0,1E0,-6.922148E-3,-2.2470653E-3,-2.5511892E-3,2.6933956E-3,-2.0578515E-3,1.7947167E-3,-3.5888443E-3,4.0523577E-3],"split_indices":[9,6,12,4,1,4,0,0,0,0,0,0,0,0,0],"split_type":[0,0,0,0,0,0,0,0,0,0,0,0,0,0,0],"sum_hessian":[4.44E2,1.1E2,3.34E2,4.4E1,6.6E1,1.76E2,1.58E2,3.7E1,7E0,5.8E1,8E0,1.2E2,5.6E1,9E0,1.49E2],"tree_param":{"num_deleted":"0","num_feature":"15","num_nodes":"15","size_leaf_vector":"1"}},{"base_weights":[-1.2181973E-3,-5.056681E-2,1.0423329E-1,-7.969554E-2,6.581991E-2,2.6545875E-2,1.6119593E-1,-2.8214105E-3,3.759275E-3,-1.5126072E-3,2.7022904E-3,-2.0094183E-3,1.6939967E-3,-9.328599E-4,5.6733103E-3],"categories":[],"categories_nodes":[],"categories_segments":[],"categories_sizes":[],"default_left":[0,0,0,0,0,0,0,0,0,0,0,0,0,0,0],"id":43,"left_children":[1,3,5,7,9,11,13,-1,-1,-1,-1,-1,-1,-1,-1],"loss_changes":[2.2689605E0,1.0121341E0,6.1083484E-1,7.1200967E-1,1.7371598E-1,1.7168474E-1,4.3529606E-1,0E0,0E0,0E0,0E0,0E0,0E0,0E0,0E0],"parents":[2147483647,0,0,1,1,2,2,3,3,4,4,5,5,6,6],"right_children":[2,4,6,8,10,12,14,-1,-1,-1,-1,-1,-1,-1,-1],"split_conditions":[1E0,1E0,3.556489E-1,1E0,-1.1522483E0,2.2420415E-1,-2.9055315E-1,-2.8214105E-3,3.759275E-3,-1.5126072E-3,2.7022904E-3,-2.0094183E-3,1.6939967E-3,-9.328599E-4,5.6733103E-3],"split_indices":[4,5,12,3,7,11,7,0,0,0,0,0,0,0,0],"split_type":[0,0,0,0,0,0,0,0,0,0,0,0,0,0,0],"sum_hessian":[4.34E2,2.96E2,1.38E2,2.37E2,5.9E1,5.9E1,7.9E1,2.22E2,1.5E1,1E1,4.9E1,1.4E1,4.5E1,1E1,6.9E1],"tree_param":{"num_deleted":"0","num_feature":"15","num_nodes":"15","size_leaf_vector":"1"}},{"base_weights":[2.127697E-3,-4.6141695E-2,1.06581256E-1,-9.045195E-2,3.7061807E-2,6.8116724E-2,2.0803562E-1,-3.4932357E-3,1.950535E-3,-1.7545924E-3,2.8065706E-3,9.843542E-4,3.9061876E-3,4.5935395E-3,1.2881048E-2],"categories":[],"categories_nodes":[],"categories_segments":[],"categories_sizes":[],"default_left":[0,0,0,0,0,0,0,0,0,0,0,0,0,0,0],"id":44,"left_children":[1,3,5,7,9,11,13,-1,-1,-1,-1,-1,-1,-1,-1],"loss_changes":[2.233442E0,1.1204431E0,5.321647E-1,8.075981E-1,5.776142E-1,2.2151053E-1,3.9614844E-1,0E0,0E0,0E0,0E0,0E0,0E0,0E0,0E0],"parents":[2147483647,0,0,1,1,2,2,3,3,4,4,5,5,6,6],"right_children":[2,4,6,8,10,12,14,-1,-1,-1,-1,-1,-1,-1,-1],"split_conditions":[1E0,1E0,8.051522E-1,1.4205067E0,-6.636995E-1,1.4205067E0,1.6868666E0,-3.4932357E-3,1.950535E-3,-1.7545924E-3,2.8065706E-3,9.843542E-4,3.9061876E-3,4.5935395E-3,1.2881048E-2],"split_indices":[4,2,8,10,8,10,13,0,0,0,0,0,0,0,0],"split_type":[0,0,0,0,0,0,0,0,0,0,0,0,0,0,0],"sum_hessian":[4.41E2,3.02E2,1.39E2,1.97E2,1.05E2,1.02E2,3.7E1,1.69E2,2.8E1,3.9E1,6.6E1,6.6E1,3.6E1,3.1E1,6E0],"tree_param":{"num_deleted":"0","num_feature":"15","num_nodes":"15","size_leaf_vector":"1"}},{"base_weights":[-3.940734E-3,-3.198672E-2,1.4226991E-1,-8.95166E-2,5.204348E-2,-3.1784162E-2,1.6487654E-1,-3.3640007E-3,1.7238198E-3,-1.2187073E-3,2.679445E-3,3.5035417E-3,-2.7274785E-3,-1.9124622E-3,5.443711E-3],"categories":[],"categories_nodes":[],"categories_segments":[],"categories_sizes":[],"default_left":[0,0,0,0,0,0,0,0,0,0,0,0,0,0,0],"id":45,"left_children":[1,3,5,7,9,11,13,-1,-1,-1,-1,-1,-1,-1,-1],"loss_changes":[1.8088244E0,1.7933304E0,2.8460932E-1,7.377559E-1,5.2515626E-1,8.96839E-2,2.5038326E-1,0E0,0E0,0E0,0E0,0E0,0E0,0E0,0E0],"parents":[2147483647,0,0,1,1,2,2,3,3,4,4,5,5,6,6],"right_children":[2,4,6,8,10,12,14,-1,-1,-1,-1,-1,-1,-1,-1],"split_conditions":[1.3769519E0,1E0,-7.086732E-1,1.4205067E0,-6.837322E-1,-9.436307E-1,-1.2665858E0,-3.3640007E-3,1.7238198E-3,-1.2187073E-3,2.679445E-3,3.5035417E-3,-2.7274785E-3,-1.9124622E-3,5.443711E-3],"split_indices":[11,2,14,10,8,8,8,0,0,0,0,0,0,0,0],"split_type":[0,0,0,0,0,0,0,0,0,0,0,0,0,0,0],"sum_hessian":[4.39E2,3.69E2,7E1,2.19E2,1.5E2,8E0,6.2E1,1.9E2,2.9E1,4.3E1,1.07E2,2E0,6E0,4E0,5.8E1],"tree_param":{"num_deleted":"0","num_feature":"15","num_nodes":"15","size_leaf_vector":"1"}},{"base_weights":[6.2067593E-3,-4.2983204E-2,9.1303445E-2,-1.3522398E-1,-1.8757775E-2,1.5584433E-2,1.4665756E-1,-5.444106E-3,-2.4799525E-4,-2.7660963E-3,3.6870077E-4,-2.496102E-4,4.1411356E-3,2.1353548E-3,5.6732167E-3],"categories":[],"categories_nodes":[],"categories_segments":[],"categories_sizes":[],"default_left":[0,0,0,0,0,0,0,0,0,0,0,0,0,0,0],"id":46,"left_children":[1,3,5,7,9,11,13,-1,-1,-1,-1,-1,-1,-1,-1],"loss_changes":[1.7829332E0,6.00798E-1,6.515664E-1,3.2729292E-1,4.9140188E-1,1.9727238E-1,2.7490532E-1,0E0,0E0,0E0,0E0,0E0,0E0,0E0,0E0],"parents":[2147483647,0,0,1,1,2,2,3,3,4,4,5,5,6,6],"right_children":[2,4,6,8,10,12,14,-1,-1,-1,-1,-1,-1,-1,-1],"split_conditions":[2.5319034E-1,1E0,2.2420415E-1,1E0,4.723492E-2,1.580293E0,3.556489E-1,-5.444106E-3,-2.4799525E-4,-2.7660963E-3,3.6870077E-4,-2.496102E-4,4.1411356E-3,2.1353548E-3,5.6732167E-3],"split_indices":[7,0,11,2,9,7,12,0,0,0,0,0,0,0,0],"split_type":[0,0,0,0,0,0,0,0,0,0,0,0,0,0,0],"sum_hessian":[4.24E2,2.69E2,1.55E2,5.5E1,2.14E2,6.6E1,8.9E1,4E1,1.5E1,6.3E1,1.51E2,5.6E1,1E1,3.3E1,5.6E1],"tree_param":{"num_deleted":"0","num_feature":"15","num_nodes":"15","size_leaf_vector":"1"}},{"base_weights":[1.1298136E-3,-9.4641134E-2,4.1057598E-2,-1.6168153E-1,-4.650824E-2,4.584326E-3,1.2820537E-1,-7.3395614E-3,-3.2703355E-3,-3.6002293E-3,-4.3553847E-4,-1.1289115E-3,2.463185E-3,2.1009212E-3,5.3560287E-3],"categories":[],"categories_nodes":[],"categories_segments":[],"categories_sizes":[],"default_left":[0,0,0,0,0,0,0,0,0,0,0,0,0,0,0],"id":47,"left_children":[1,3,5,7,9,11,13,-1,-1,-1,-1,-1,-1,-1,-1],"loss_changes":[1.5984612E0,3.8938284E-1,9.3708897E-1,1.9620466E-1,1.6990025E-1,6.870551E-1,2.422216E-1,0E0,0E0,0E0,0E0,0E0,0E0,0E0,0E0],"parents":[2147483647,0,0,1,1,2,2,3,3,4,4,5,5,6,6],"right_children":[2,4,6,8,10,12,14,-1,-1,-1,-1,-1,-1,-1,-1],"split_conditions":[-6.9144875E-1,2.2420415E-1,1.4205067E0,-9.7437966E-1,1E0,1E0,1E0,-7.3395614E-3,-3.2703355E-3,-3.6002293E-3,-4.3553847E-4,-1.1289115E-3,2.463185E-3,2.1009212E-3,5.3560287E-3],"split_indices":[7,11,10,7,6,2,4,0,0,0,0,0,0,0,0],"split_type":[0,0,0,0,0,0,0,0,0,0,0,0,0,0,0],"sum_hessian":[4.16E2,1.22E2,2.94E2,5E1,7.2E1,2.08E2,8.6E1,1.8E1,3.2E1,2.1E1,5.1E1,1.35E2,7.3E1,4.1E1,4.5E1],"tree_param":{"num_deleted":"0","num_feature":"15","num_nodes":"15","size_leaf_vector":"1"}},{"base_weights":[6.0462495E-3,-7.4022524E-2,5.3891543E-2,-9.012657E-2,1.2120371E-1,-6.0874134E-2,7.955153E-2,-4.714111E-3,-1.7679586E-3,5.4072835E-3,-4.0702247E-3,-3.2023E-3,1.384086E-3,-3.9634714E-3,2.8567533E-3],"categories":[],"categories_nodes":[],"categories_segments":[],"categories_sizes":[],"default_left":[0,0,0,0,0,0,0,0,0,0,0,0,0,0,0],"id":48,"left_children":[1,3,5,7,9,11,13,-1,-1,-1,-1,-1,-1,-1,-1],"loss_changes":[1.6895914E0,5.2967244E-1,8.176312E-1,3.105657E-1,2.2161013E-1,2.5525713E-1,7.623546E-1,0E0,0E0,0E0,0E0,0E0,0E0,0E0,0E0],"parents":[2147483647,0,0,1,1,2,2,3,3,4,4,5,5,6,6],"right_children":[2,4,6,8,10,12,14,-1,-1,-1,-1,-1,-1,-1,-1],"split_conditions":[-5.154233E-1,1E0,-2.4249814E-1,4.723492E-2,1.9038002E0,1E0,1E0,-4.714111E-3,-1.7679586E-3,5.4072835E-3,-4.0702247E-3,-3.2023E-3,1.384086E-3,-3.9634714E-3,2.8567533E-3],"split_indices":[7,1,13,9,14,2,0,0,0,0,0,0,0,0,0],"split_type":[0,0,0,0,0,0,0,0,0,0,0,0,0,0,0],"sum_hessian":[4.39E2,1.64E2,2.75E2,1.52E2,1.2E1,5E1,2.25E2,4.7E1,1.05E2,1E1,2E0,3.5E1,1.5E1,1.5E1,2.1E2],"tree_param":{"num_deleted":"0","num_feature":"15","num_nodes":"15","size_leaf_vector":"1"}},{"base_weights":[-2.774446E-4,-4.6621982E-2,9.773686E-2,-7.551039E-2,6.263479E-2,1.4441451E-2,1.3757424E-1,-6.9028875E-3,-1.496244E-3,2.0685717E-3,-5.220151E-3,-6.467907E-4,3.8172482E-3,2.0979967E-3,5.0953855E-3],"categories":[],"categories_nodes":[],"categories_segments":[],"categories_sizes":[],"default_left":[0,0,0,0,0,0,0,0,0,0,0,0,0,0,0],"id":49,"left_children":[1,3,5,7,9,11,13,-1,-1,-1,-1,-1,-1,-1,-1],"loss_changes":[2.0940733E0,9.92637E-1,4.8911738E-1,9.713229E-1,1.10668E-1,2.0172909E-1,2.0641279E-1,0E0,0E0,0E0,0E0,0E0,0E0,0E0,0E0],"parents":[2147483647,0,0,1,1,2,2,3,3,4,4,5,5,6,6],"right_children":[2,4,6,8,10,12,14,-1,-1,-1,-1,-1,-1,-1,-1],"split_conditions":[1E0,1E0,-7.397735E-2,-9.7437966E-1,2.67695E0,2E0,3.556489E-1,-6.9028875E-3,-1.496244E-3,2.0685717E-3,-5.220151E-3,-6.467907E-4,3.8172482E-3,2.0979967E-3,5.0953855E-3],"split_indices":[4,5,7,7,12,6,12,0,0,0,0,0,0,0,0],"split_type":[0,0,0,0,0,0,0,0,0,0,0,0,0,0,0],"sum_hessian":[4.59E2,3.12E2,1.47E2,2.47E2,6.5E1,4.8E1,9.9E1,3.4E1,2.13E2,6.4E1,1E0,3.7E1,1.1E1,3.3E1,6.6E1],"tree_param":{"num_deleted":"0","num_feature":"15","num_nodes":"15","size_leaf_vector":"1"}},{"base_weights":[-1.0583037E-2,-4.64042E-2,8.778107E-2,-1.3908814E-1,-1.7269114E-2,5.5061586E-2,2.0075119E-1,-6.7338743E-3,-2.6450222E-3,-1.0060726E-3,4.066184E-3,4.004108E-4,3.2459868E-3,2.9698194E-3,9.08216E-3],"categories":[],"categories_nodes":[],"categories_segments":[],"categories_sizes":[],"default_left":[0,0,0,0,0,0,0,0,0,0,0,0,0,0,0],"id":50,"left_children":[1,3,5,7,9,11,13,-1,-1,-1,-1,-1,-1,-1,-1],"loss_changes":[1.4909976E0,8.34708E-1,4.06631E-1,3.019116E-1,5.936522E-1,1.9583562E-1,2.2947967E-1,0E0,0E0,0E0,0E0,0E0,0E0,0E0,0E0],"parents":[2147483647,0,0,1,1,2,2,3,3,4,4,5,5,6,6],"right_children":[2,4,6,8,10,12,14,-1,-1,-1,-1,-1,-1,-1,-1],"split_conditions":[1.4205067E0,-7.605687E-1,9.996856E-1,2.2420415E-1,1.3769519E0,1E0,1E0,-6.7338743E-3,-2.6450222E-3,-1.0060726E-3,4.066184E-3,4.004108E-4,3.2459868E-3,2.9698194E-3,9.08216E-3],"split_indices":[10,7,7,11,11,4,5,0,0,0,0,0,0,0,0],"split_type":[0,0,0,0,0,0,0,0,0,0,0,0,0,0,0],"sum_hessian":[4.21E2,3.09E2,1.12E2,7.3E1,2.36E2,8.8E1,2.4E1,2.6E1,4.7E1,2.14E2,2.2E1,5E1,3.8E1,1.3E1,1.1E1],"tree_param":{"num_deleted":"0","num_feature":"15","num_nodes":"15","size_leaf_vector":"1"}},{"base_weights":[3.9708465E-3,-5.15422E-2,7.134006E-2,-7.230411E-2,7.042392E-2,-4.9678665E-2,1.026616E-1,-2.882682E-3,1.2258717E-3,-1.7923965E-3,2.6568691E-3,-9.411693E-3,-6.3970126E-4,2.7821357E-3,9.1895405E-3],"categories":[],"categories_nodes":[],"categories_segments":[],"categories_sizes":[],"default_left":[0,0,0,0,0,0,0,0,0,0,0,0,0,0,0],"id":51,"left_children":[1,3,5,7,9,11,13,-1,-1,-1,-1,-1,-1,-1,-1],"loss_changes":[1.6641794E0,6.229606E-1,7.6698923E-1,5.664915E-1,9.029028E-2,3.0776674E-1,2.949581E-1,0E0,0E0,0E0,0E0,0E0,0E0,0E0,0E0],"parents":[2147483647,0,0,1,1,2,2,3,3,4,4,5,5,6,6],"right_children":[2,4,6,8,10,12,14,-1,-1,-1,-1,-1,-1,-1,-1],"split_conditions":[3.556489E-1,1.3769519E0,4.723492E-2,1E0,-1.0508724E0,-9.7437966E-1,1.9038002E0,-2.882682E-3,1.2258717E-3,-1.7923965E-3,2.6568691E-3,-9.411693E-3,-6.3970126E-4,2.7821357E-3,9.1895405E-3],"split_indices":[12,11,9,5,7,7,14,0,0,0,0,0,0,0,0],"split_type":[0,0,0,0,0,0,0,0,0,0,0,0,0,0,0],"sum_hessian":[4.43E2,2.43E2,2E2,2.08E2,3.5E1,4.1E1,1.59E2,1.72E2,3.6E1,4E0,3.1E1,3E0,3.8E1,1.53E2,6E0],"tree_param":{"num_deleted":"0","num_feature":"15","num_nodes":"15","size_leaf_vector":"1"}},{"base_weights":[-5.0379494E-3,-4.4326413E-2,7.687114E-2,-8.397199E-2,3.62134E-2,-7.152939E-2,9.1011114E-2,-3.1717657E-3,1.7798253E-3,7.4059775E-5,4.6262336E-3,1.1328834E-3,-5.118092E-3,-6.2280765E-4,3.202273E-3],"categories":[],"categories_nodes":[],"categories_segments":[],"categories_sizes":[],"default_left":[0,0,0,0,0,0,0,0,0,0,0,0,0,0,0],"id":52,"left_children":[1,3,5,7,9,11,13,-1,-1,-1,-1,-1,-1,-1,-1],"loss_changes":[1.4193636E0,9.5456916E-1,3.0657816E-1,6.297265E-1,3.938067E-1,1.4720616E-1,2.325548E-1,0E0,0E0,0E0,0E0,0E0,0E0,0E0,0E0],"parents":[2147483647,0,0,1,1,2,2,3,3,4,4,5,5,6,6],"right_children":[2,4,6,8,10,12,14,-1,-1,-1,-1,-1,-1,-1,-1],"split_conditions":[1E0,1E0,1E0,1.4205067E0,1.5162995E0,-3.7112063E-1,4.723492E-2,-3.1717657E-3,1.7798253E-3,7.4059775E-5,4.6262336E-3,1.1328834E-3,-5.118092E-3,-6.2280765E-4,3.202273E-3],"split_indices":[4,2,0,10,12,8,9,0,0,0,0,0,0,0,0],"split_type":[0,0,0,0,0,0,0,0,0,0,0,0,0,0,0],"sum_hessian":[4.39E2,2.97E2,1.42E2,1.99E2,9.8E1,1.2E1,1.3E2,1.73E2,2.6E1,7.7E1,2.1E1,6E0,6E0,1.6E1,1.14E2],"tree_param":{"num_deleted":"0","num_feature":"15","num_nodes":"15","size_leaf_vector":"1"}},{"base_weights":[-3.4762472E-3,-4.719434E-2,9.427211E-2,-1.311596E-1,-3.5148307E-3,5.7200532E-2,1.7587991E-1,-4.738396E-3,7.8120764E-4,-5.8843824E-4,4.8376783E-3,-2.0677403E-3,2.2879776E-3,2.399673E-3,6.954394E-3],"categories":[],"categories_nodes":[],"categories_segments":[],"categories_sizes":[],"default_left":[0,0,0,0,0,0,0,0,0,0,0,0,0,0,0],"id":53,"left_children":[1,3,5,7,9,11,13,-1,-1,-1,-1,-1,-1,-1,-1],"loss_changes":[1.8804593E0,1.1144776E0,4.0138447E-1,4.4204688E-1,5.363703E-1,2.336961E-1,2.0672369E-1,0E0,0E0,0E0,0E0,0E0,0E0,0E0,0E0],"parents":[2147483647,0,0,1,1,2,2,3,3,4,4,5,5,6,6],"right_children":[2,4,6,8,10,12,14,-1,-1,-1,-1,-1,-1,-1,-1],"split_conditions":[1E0,1E0,6.448699E-1,1E0,1E0,1E0,2.2420415E-1,-4.738396E-3,7.8120764E-4,-5.8843824E-4,4.8376783E-3,-2.0677403E-3,2.2879776E-3,2.399673E-3,6.954394E-3],"split_indices":[4,6,7,5,3,0,11,0,0,0,0,0,0,0,0],"split_type":[0,0,0,0,0,0,0,0,0,0,0,0,0,0,0],"sum_hessian":[4.38E2,3.03E2,1.35E2,1.03E2,2E2,9.4E1,4.1E1,8.8E1,1.5E1,1.83E2,1.7E1,1.2E1,8.2E1,1.6E1,2.5E1],"tree_param":{"num_deleted":"0","num_feature":"15","num_nodes":"15","size_leaf_vector":"1"}},{"base_weights":[-8.407828E-4,-3.4114465E-2,9.959851E-2,-6.2996365E-2,6.4538844E-2,2.6697159E-2,1.4853638E-1,-2.422748E-3,2.038585E-3,1.0806866E-3,8.965713E-3,-6.663208E-3,1.3030416E-3,2.1401478E-3,5.945178E-3],"categories":[],"categories_nodes":[],"categories_segments":[],"categories_sizes":[],"default_left":[0,0,0,0,0,0,0,0,0,0,0,0,0,0,0],"id":54,"left_children":[1,3,5,7,9,11,13,-1,-1,-1,-1,-1,-1,-1,-1],"loss_changes":[1.4638453E0,9.4148374E-1,3.8490713E-1,5.9859395E-1,4.9036995E-1,1.9704396E-1,2.3493111E-1,0E0,0E0,0E0,0E0,0E0,0E0,0E0,0E0],"parents":[2147483647,0,0,1,1,2,2,3,3,4,4,5,5,6,6],"right_children":[2,4,6,8,10,12,14,-1,-1,-1,-1,-1,-1,-1,-1],"split_conditions":[1E0,1.5162995E0,1.3799044E-1,1.3769519E0,1E0,1E0,2.2420415E-1,-2.422748E-3,2.038585E-3,1.0806866E-3,8.965713E-3,-6.663208E-3,1.3030416E-3,2.1401478E-3,5.945178E-3],"split_indices":[5,12,7,11,3,0,11,0,0,0,0,0,0,0,0],"split_type":[0,0,0,0,0,0,0,0,0,0,0,0,0,0,0],"sum_hessian":[4.36E2,3.28E2,1.08E2,2.54E2,7.4E1,4.4E1,6.4E1,2.24E2,3E1,6.7E1,7E0,2E0,4.2E1,2.6E1,3.8E1],"tree_param":{"num_deleted":"0","num_feature":"15","num_nodes":"15","size_leaf_vector":"1"}},{"base_weights":[-2.0816096E-3,-3.4328222E-2,1.0457632E-1,-5.2971307E-2,9.306965E-2,-4.9097236E-2,1.2200305E-1,-3.5283037E-3,-6.213428E-4,-1.1270397E-3,3.7200914E-3,3.7996098E-4,-2.5859845E-3,1.729076E-3,5.011969E-3],"categories":[],"categories_nodes":[],"categories_segments":[],"categories_sizes":[],"default_left":[0,0,0,0,0,0,0,0,0,0,0,0,0,0,0],"id":55,"left_children":[1,3,5,7,9,11,13,-1,-1,-1,-1,-1,-1,-1,-1],"loss_changes":[1.4962709E0,7.982098E-1,2.7647102E-1,6.064543E-1,1.7842442E-1,2.6298597E-2,2.543211E-1,0E0,0E0,0E0,0E0,0E0,0E0,0E0,0E0],"parents":[2147483647,0,0,1,1,2,2,3,3,4,4,5,5,6,6],"right_children":[2,4,6,8,10,12,14,-1,-1,-1,-1,-1,-1,-1,-1],"split_conditions":[1E0,1.3769519E0,-1.0508724E0,1E0,-7.086732E-1,1E0,2.2420415E-1,-3.5283037E-3,-6.213428E-4,-1.1270397E-3,3.7200914E-3,3.7996098E-4,-2.5859845E-3,1.729076E-3,5.011969E-3],"split_indices":[5,11,7,6,14,6,11,0,0,0,0,0,0,0,0],"split_type":[0,0,0,0,0,0,0,0,0,0,0,0,0,0,0],"sum_hessian":[4.33E2,3.33E2,1E2,2.91E2,4.2E1,1E1,9E1,9.6E1,1.95E2,8E0,3.4E1,4E0,6E0,3.8E1,5.2E1],"tree_param":{"num_deleted":"0","num_feature":"15","num_nodes":"15","size_leaf_vector":"1"}},{"base_weights":[1.25226155E-2,-2.61708E-2,9.650023E-2,-4.99119E-2,6.653527E-2,5.594412E-2,1.6984934E-1,-2.336791E-3,1.8395431E-3,1.4867305E-3,9.009626E-3,8.2536513E-4,4.0251086E-3,3.355254E-3,9.656472E-3],"categories":[],"categories_nodes":[],"categories_segments":[],"categories_sizes":[],"default_left":[0,0,0,0,0,0,0,0,0,0,0,0,0,0,0],"id":56,"left_children":[1,3,5,7,9,11,13,-1,-1,-1,-1,-1,-1,-1,-1],"loss_changes":[1.4322531E0,6.6800606E-1,4.0398872E-1,7.5485057E-1,2.3120195E-1,1.9870383E-1,3.9613426E-1,0E0,0E0,0E0,0E0,0E0,0E0,0E0,0E0],"parents":[2147483647,0,0,1,1,2,2,3,3,4,4,5,5,6,6],"right_children":[2,4,6,8,10,12,14,-1,-1,-1,-1,-1,-1,-1,-1],"split_conditions":[1E0,1.4205067E0,2E0,1E0,1.8322095E0,1.3769519E0,9.791569E-1,-2.336791E-3,1.8395431E-3,1.4867305E-3,9.009626E-3,8.2536513E-4,4.0251086E-3,3.355254E-3,9.656472E-3],"split_indices":[4,10,6,5,8,11,8,0,0,0,0,0,0,0,0],"split_type":[0,0,0,0,0,0,0,0,0,0,0,0,0,0,0],"sum_hessian":[4.39E2,3.01E2,1.38E2,2.4E2,6.1E1,9E1,4.8E1,1.92E2,4.8E1,5.8E1,3E0,6.7E1,2.3E1,3.6E1,1.2E1],"tree_param":{"num_deleted":"0","num_feature":"15","num_nodes":"15","size_leaf_vector":"1"}},{"base_weights":[1.1561804E-3,-3.6716033E-2,8.506615E-2,-5.1998626E-2,1.7462218E-1,2.7401496E-2,1.2725131E-1,-1.9247525E-3,3.7060562E-3,2.8513833E-3,8.761575E-3,-1.27843705E-5,2.2646035E-3,1.942166E-3,5.5540614E-3],"categories":[],"categories_nodes":[],"categories_segments":[],"categories_sizes":[],"default_left":[0,0,0,0,0,0,0,0,0,0,0,0,0,0,0],"id":57,"left_children":[1,3,5,7,9,11,13,-1,-1,-1,-1,-1,-1,-1,-1],"loss_changes":[1.4204472E0,1.0038573E0,3.346436E-1,6.2264884E-1,1.6847903E-1,8.031818E-2,2.774924E-1,0E0,0E0,0E0,0E0,0E0,0E0,0E0,0E0],"parents":[2147483647,0,0,1,1,2,2,3,3,4,4,5,5,6,6],"right_children":[2,4,6,8,10,12,14,-1,-1,-1,-1,-1,-1,-1,-1],"split_conditions":[1E0,1E0,3.556489E-1,1.3769519E0,1.5162995E0,1E0,3.363172E-1,-1.9247525E-3,3.7060562E-3,2.8513833E-3,8.761575E-3,-1.27843705E-5,2.2646035E-3,1.942166E-3,5.5540614E-3],"split_indices":[4,3,12,11,12,2,14,0,0,0,0,0,0,0,0],"split_type":[0,0,0,0,0,0,0,0,0,0,0,0,0,0,0],"sum_hessian":[4.45E2,3.07E2,1.38E2,2.87E2,2E1,5.9E1,7.9E1,2.69E2,1.8E1,1.3E1,7E0,3.8E1,2.1E1,3.9E1,4E1],"tree_param":{"num_deleted":"0","num_feature":"15","num_nodes":"15","size_leaf_vector":"1"}},{"base_weights":[-9.464707E-3,-4.4856448E-2,6.626013E-2,-6.875979E-2,5.1922347E-2,1.9389912E-2,1.115142E-1,-2.7345559E-3,6.392395E-4,-1.742732E-3,2.1865973E-3,-3.8461175E-4,5.2037165E-3,1.9795028E-3,6.438318E-3],"categories":[],"categories_nodes":[],"categories_segments":[],"categories_sizes":[],"default_left":[0,0,0,0,0,0,0,0,0,0,0,0,0,0,0],"id":58,"left_children":[1,3,5,7,9,11,13,-1,-1,-1,-1,-1,-1,-1,-1],"loss_changes":[1.1607467E0,6.860044E-1,2.9054523E-1,4.7992492E-1,1.4030857E-1,3.4464008E-1,3.144232E-1,0E0,0E0,0E0,0E0,0E0,0E0,0E0,0E0],"parents":[2147483647,0,0,1,1,2,2,3,3,4,4,5,5,6,6],"right_children":[2,4,6,8,10,12,14,-1,-1,-1,-1,-1,-1,-1,-1],"split_conditions":[1E0,1E0,7.2218424E-1,1.4205067E0,-1.1522483E0,1.3769519E0,6.448699E-1,-2.7345559E-3,6.392395E-4,-1.742732E-3,2.1865973E-3,-3.8461175E-4,5.2037165E-3,1.9795028E-3,6.438318E-3],"split_indices":[4,5,13,10,7,11,7,0,0,0,0,0,0,0,0],"split_type":[0,0,0,0,0,0,0,0,0,0,0,0,0,0,0],"sum_hessian":[4.31E2,2.94E2,1.37E2,2.36E2,5.8E1,6.8E1,6.9E1,1.89E2,4.7E1,9E0,4.9E1,5.7E1,1.1E1,4.9E1,2E1],"tree_param":{"num_deleted":"0","num_feature":"15","num_nodes":"15","size_leaf_vector":"1"}},{"base_weights":[-4.0802914E-3,-8.786554E-2,3.0416789E-2,-1.4380074E-1,-4.375271E-2,-2.095268E-2,8.093813E-2,-6.7851297E-3,-2.9649413E-3,-3.7384157E-3,-4.5070058E-4,-1.6215068E-3,1.3693605E-3,1.0644529E-3,3.982741E-3],"categories":[],"categories_nodes":[],"categories_segments":[],"categories_sizes":[],"default_left":[0,0,0,0,0,0,0,0,0,0,0,0,0,0,0],"id":59,"left_children":[1,3,5,7,9,11,13,-1,-1,-1,-1,-1,-1,-1,-1],"loss_changes":[1.2686443E0,3.0954313E-1,8.088201E-1,1.8507886E-1,1.6771337E-1,3.4412298E-1,3.6510992E-1,0E0,0E0,0E0,0E0,0E0,0E0,0E0,0E0],"parents":[2147483647,0,0,1,1,2,2,3,3,4,4,5,5,6,6],"right_children":[2,4,6,8,10,12,14,-1,-1,-1,-1,-1,-1,-1,-1],"split_conditions":[-6.9144875E-1,2.2420415E-1,3.556489E-1,-9.7437966E-1,-1.0831283E0,1E0,7.2218424E-1,-6.7851297E-3,-2.9649413E-3,-3.7384157E-3,-4.5070058E-4,-1.6215068E-3,1.3693605E-3,1.0644529E-3,3.982741E-3],"split_indices":[7,11,12,7,7,2,13,0,0,0,0,0,0,0,0],"split_type":[0,0,0,0,0,0,0,0,0,0,0,0,0,0,0],"sum_hessian":[4.37E2,1.27E2,3.1E2,5.5E1,7.2E1,1.54E2,1.56E2,1.8E1,3.7E1,1.8E1,5.4E1,1.03E2,5.1E1,8.4E1,7.2E1],"tree_param":{"num_deleted":"0","num_feature":"15","num_nodes":"15","size_leaf_vector":"1"}},{"base_weights":[3.530111E-3,-2.8292151E-2,1.00716196E-1,-7.109309E-2,2.8377784E-2,6.172828E-2,1.7193761E-1,-2.7199704E-3,9.666022E-4,-2.7832247E-3,1.7526341E-3,-1.7549657E-3,2.2672738E-3,3.4003067E-3,7.626768E-3],"categories":[],"categories_nodes":[],"categories_segments":[],"categories_sizes":[],"default_left":[0,0,0,0,0,0,0,0,0,0,0,0,0,0,0],"id":60,"left_children":[1,3,5,7,9,11,13,-1,-1,-1,-1,-1,-1,-1,-1],"loss_changes":[1.366722E0,8.097178E-1,2.92055E-1,3.8712144E-1,5.295527E-1,1.2429014E-1,1.5440547E-1,0E0,0E0,0E0,0E0,0E0,0E0,0E0,0E0],"parents":[2147483647,0,0,1,1,2,2,3,3,4,4,5,5,6,6],"right_children":[2,4,6,8,10,12,14,-1,-1,-1,-1,-1,-1,-1,-1],"split_conditions":[1E0,3.556489E-1,7.2218424E-1,1.4205067E0,-7.605687E-1,-1.2674482E0,8.1997377E-1,-2.7199704E-3,9.666022E-4,-2.7832247E-3,1.7526341E-3,-1.7549657E-3,2.2672738E-3,3.4003067E-3,7.626768E-3],"split_indices":[5,12,13,10,7,7,7,0,0,0,0,0,0,0,0],"split_type":[0,0,0,0,0,0,0,0,0,0,0,0,0,0,0],"sum_hessian":[4.4E2,3.32E2,1.08E2,1.89E2,1.43E2,7.1E1,3.7E1,1.59E2,3E1,2.8E1,1.15E2,7E0,6.4E1,2.3E1,1.4E1],"tree_param":{"num_deleted":"0","num_feature":"15","num_nodes":"15","size_leaf_vector":"1"}},{"base_weights":[2.9509307E-3,-2.5016889E-2,9.402481E-2,-1.0068705E-1,6.592648E-3,-5.3864583E-2,1.07325666E-1,-3.3250884E-3,4.8897527E-3,-2.7271141E-3,9.123928E-4,-2.0306932E-3,8.5105415E-4,1.7919466E-3,4.2177914E-3],"categories":[],"categories_nodes":[],"categories_segments":[],"categories_sizes":[],"default_left":[0,0,0,0,0,0,0,0,0,0,0,0,0,0,0],"id":61,"left_children":[1,3,5,7,9,11,13,-1,-1,-1,-1,-1,-1,-1,-1],"loss_changes":[1.0950743E0,7.875985E-1,2.044537E-1,2.776509E-1,5.4388595E-1,1.2152247E-2,1.38852E-1,0E0,0E0,0E0,0E0,0E0,0E0,0E0,0E0],"parents":[2147483647,0,0,1,1,2,2,3,3,4,4,5,5,6,6],"right_children":[2,4,6,8,10,12,14,-1,-1,-1,-1,-1,-1,-1,-1],"split_conditions":[1E0,4.723492E-2,-1.2674482E0,1.543429E0,1E0,1.4021312E0,2.2420415E-1,-3.3250884E-3,4.8897527E-3,-2.7271141E-3,9.123928E-4,-2.0306932E-3,8.5105415E-4,1.7919466E-3,4.2177914E-3],"split_indices":[5,9,7,7,0,9,11,0,0,0,0,0,0,0,0],"split_type":[0,0,0,0,0,0,0,0,0,0,0,0,0,0,0],"sum_hessian":[4.28E2,3.28E2,1E2,9.6E1,2.32E2,8E0,9.2E1,9.3E1,3E0,4.5E1,1.87E2,7E0,1E0,3.9E1,5.3E1],"tree_param":{"num_deleted":"0","num_feature":"15","num_nodes":"15","size_leaf_vector":"1"}},{"base_weights":[3.1292657E-3,-2.9083155E-2,7.216648E-2,-4.2979773E-2,1.17949925E-1,5.874216E-2,2.8464687E-1,-2.375863E-3,6.749749E-4,-1.7319488E-3,4.5754854E-3,1.11613095E-4,2.9398524E-3,8.47063E-4,1.0962343E-2],"categories":[],"categories_nodes":[],"categories_segments":[],"categories_sizes":[],"default_left":[0,0,0,0,0,0,0,0,0,0,0,0,0,0,0],"id":62,"left_children":[1,3,5,7,9,11,13,-1,-1,-1,-1,-1,-1,-1,-1],"loss_changes":[9.7169995E-1,6.1396176E-1,3.797633E-1,6.4916396E-1,1.6669405E-1,2.8472418E-1,1.5535408E-1,0E0,0E0,0E0,0E0,0E0,0E0,0E0,0E0],"parents":[2147483647,0,0,1,1,2,2,3,3,4,4,5,5,6,6],"right_children":[2,4,6,8,10,12,14,-1,-1,-1,-1,-1,-1,-1,-1],"split_conditions":[7.2218424E-1,1.3769519E0,3.4106767E0,1E0,-1.0508724E0,3.556489E-1,-2.9976913E-1,-2.375863E-3,6.749749E-4,-1.7319488E-3,4.5754854E-3,1.11613095E-4,2.9398524E-3,8.47063E-4,1.0962343E-2],"split_indices":[13,11,10,2,7,12,7,0,0,0,0,0,0,0,0],"split_type":[0,0,0,0,0,0,0,0,0,0,0,0,0,0,0],"sum_hessian":[4.35E2,2.97E2,1.38E2,2.72E2,2.5E1,1.31E2,7E0,1.75E2,9.7E1,4E0,2.1E1,5.5E1,7.6E1,2E0,5E0],"tree_param":{"num_deleted":"0","num_feature":"15","num_nodes":"15","size_leaf_vector":"1"}},{"base_weights":[1.2822848E-2,-3.2823186E-2,7.016143E-2,-4.8846737E-2,6.0307607E-2,-6.6841565E-2,9.034593E-2,-2.5247259E-3,2.2419837E-4,3.2478808E-3,4.2397928E-4,-3.4988865E-3,1.7928028E-3,1.827141E-3,4.3021045E-3],"categories":[],"categories_nodes":[],"categories_segments":[],"categories_sizes":[],"default_left":[0,0,0,0,0,0,0,0,0,0,0,0,0,0,0],"id":63,"left_children":[1,3,5,7,9,11,13,-1,-1,-1,-1,-1,-1,-1,-1],"loss_changes":[1.1696094E0,3.74525E-1,5.535752E-1,4.2422307E-1,8.0399975E-2,1.7085409E-1,2.6150572E-1,0E0,0E0,0E0,0E0,0E0,0E0,0E0,0E0],"parents":[2147483647,0,0,1,1,2,2,3,3,4,4,5,5,6,6],"right_children":[2,4,6,8,10,12,14,-1,-1,-1,-1,-1,-1,-1,-1],"split_conditions":[3.556489E-1,1.3769519E0,-7.605687E-1,1E0,7.2218424E-1,7.2218424E-1,1E0,-2.5247259E-3,2.2419837E-4,3.2478808E-3,4.2397928E-4,-3.4988865E-3,1.7928028E-3,1.827141E-3,4.3021045E-3],"split_indices":[12,11,7,2,13,13,2,0,0,0,0,0,0,0,0],"split_type":[0,0,0,0,0,0,0,0,0,0,0,0,0,0,0],"sum_hessian":[4.45E2,2.48E2,1.97E2,2.12E2,3.6E1,2.5E1,1.72E2,1.3E2,8.2E1,1.7E1,1.9E1,1.8E1,7E0,1.12E2,6E1],"tree_param":{"num_deleted":"0","num_feature":"15","num_nodes":"15","size_leaf_vector":"1"}},{"base_weights":[2.9064806E-3,-8.802476E-2,2.9112162E-2,-1.2150766E-1,-1.3899065E-2,1.499774E-3,1.03648946E-1,-4.022001E-3,7.92818E-4,-6.2545487E-3,2.0129367E-4,-3.3946798E-4,5.544782E-3,2.1926863E-3,4.5549716E-3],"categories":[],"categories_nodes":[],"categories_segments":[],"categories_sizes":[],"default_left":[0,0,0,0,0,0,0,0,0,0,0,0,0,0,0],"id":64,"left_children":[1,3,5,7,9,11,13,-1,-1,-1,-1,-1,-1,-1,-1],"loss_changes":[1.0224502E0,2.3657769E-1,6.8520474E-1,1.2616593E-1,1.2571485E-1,5.753438E-1,1.2142366E-1,0E0,0E0,0E0,0E0,0E0,0E0,0E0,0E0],"parents":[2147483647,0,0,1,1,2,2,3,3,4,4,5,5,6,6],"right_children":[2,4,6,8,10,12,14,-1,-1,-1,-1,-1,-1,-1,-1],"split_conditions":[-7.605687E-1,1E0,1E0,1.3769519E0,-2.4249814E-1,1E0,7.2218424E-1,-4.022001E-3,7.92818E-4,-6.2545487E-3,2.0129367E-4,-3.3946798E-4,5.544782E-3,2.1926863E-3,4.5549716E-3],"split_indices":[7,2,5,11,13,3,13,0,0,0,0,0,0,0,0],"split_type":[0,0,0,0,0,0,0,0,0,0,0,0,0,0,0],"sum_hessian":[4.27E2,9.5E1,3.32E2,6.5E1,3E1,2.43E2,8.9E1,6E1,5E0,2E0,2.8E1,2.28E2,1.5E1,5.6E1,3.3E1],"tree_param":{"num_deleted":"0","num_feature":"15","num_nodes":"15","size_leaf_vector":"1"}},{"base_weights":[-8.337498E-4,-8.817449E-2,2.9249871E-2,-9.642056E-2,1.6269732E-1,-1.2087245E-1,5.14852E-2,-3.4088453E-3,6.3850405E-4,5.8131316E-3,1.0421419E-3,-4.555442E-3,-1.0404396E-4,-3.991505E-3,1.9052345E-3],"categories":[],"categories_nodes":[],"categories_segments":[],"categories_sizes":[],"default_left":[0,0,0,0,0,0,0,0,0,0,0,0,0,0,0],"id":65,"left_children":[1,3,5,7,9,11,13,-1,-1,-1,-1,-1,-1,-1,-1],"loss_changes":[1.1692005E0,2.5151968E-1,1.1111075E0,2.2723854E-1,9.173453E-3,1.5585017E-1,6.4962447E-1,0E0,0E0,0E0,0E0,0E0,0E0,0E0,0E0],"parents":[2147483647,0,0,1,1,2,2,3,3,4,4,5,5,6,6],"right_children":[2,4,6,8,10,12,14,-1,-1,-1,-1,-1,-1,-1,-1],"split_conditions":[4.723492E-2,2.465028E0,1E0,1E0,2.2420415E-1,3.3630937E-1,-1.0752947E0,-3.4088453E-3,6.3850405E-4,5.8131316E-3,1.0421419E-3,-4.555442E-3,-1.0404396E-4,-3.991505E-3,1.9052345E-3],"split_indices":[9,7,0,1,11,14,7,0,0,0,0,0,0,0,0],"split_type":[0,0,0,0,0,0,0,0,0,0,0,0,0,0,0],"sum_hessian":[4.43E2,1.13E2,3.3E2,1.1E2,3E0,4.2E1,2.88E2,9.6E1,1.4E1,2E0,1E0,3.3E1,9E0,1.7E1,2.71E2],"tree_param":{"num_deleted":"0","num_feature":"15","num_nodes":"15","size_leaf_vector":"1"}},{"base_weights":[6.3210647E-3,-2.1968106E-2,9.606172E-2,-3.9297882E-2,9.482212E-2,3.992771E-2,1.2932006E-1,-2.2820437E-3,2.9811374E-4,5.3926213E-3,1.6410362E-3,-1.2498792E-3,1.8105243E-3,1.9899064E-3,5.1526404E-3],"categories":[],"categories_nodes":[],"categories_segments":[],"categories_sizes":[],"default_left":[0,0,0,0,0,0,0,0,0,0,0,0,0,0,0],"id":66,"left_children":[1,3,5,7,9,11,13,-1,-1,-1,-1,-1,-1,-1,-1],"loss_changes":[1.1546751E0,7.0401245E-1,1.9833112E-1,5.4749167E-1,1.4350682E-1,7.2500154E-2,1.703682E-1,0E0,0E0,0E0,0E0,0E0,0E0,0E0,0E0],"parents":[2147483647,0,0,1,1,2,2,3,3,4,4,5,5,6,6],"right_children":[2,4,6,8,10,12,14,-1,-1,-1,-1,-1,-1,-1,-1],"split_conditions":[1E0,1.3769519E0,3.6417022E-1,3.556489E-1,7.2218424E-1,-1.4667975E0,2.2420415E-1,-2.2820437E-3,2.9811374E-4,5.3926213E-3,1.6410362E-3,-1.2498792E-3,1.8105243E-3,1.9899064E-3,5.1526404E-3],"split_indices":[5,11,8,12,13,8,11,0,0,0,0,0,0,0,0],"split_type":[0,0,0,0,0,0,0,0,0,0,0,0,0,0,0],"sum_hessian":[4.53E2,3.45E2,1.08E2,3.01E2,4.4E1,4.1E1,6.7E1,1.72E2,1.29E2,1.3E1,3.1E1,8E0,3.3E1,2.8E1,3.9E1],"tree_param":{"num_deleted":"0","num_feature":"15","num_nodes":"15","size_leaf_vector":"1"}},{"base_weights":[2.674006E-3,-3.897089E-2,5.466233E-2,-5.8083627E-2,4.331317E-2,-2.7644192E-3,9.53429E-2,-2.3902203E-3,5.493632E-4,-1.9306099E-3,1.8321612E-3,-9.7586884E-4,4.26011E-3,2.4213993E-3,6.7098425E-3],"categories":[],"categories_nodes":[],"categories_segments":[],"categories_sizes":[],"default_left":[0,0,0,0,0,0,0,0,0,0,0,0,0,0,0],"id":67,"left_children":[1,3,5,7,9,11,13,-1,-1,-1,-1,-1,-1,-1,-1],"loss_changes":[9.395962E-1,3.8153008E-1,4.51141E-1,3.2474393E-1,9.1884114E-2,3.5364467E-1,1.9407642E-1,0E0,0E0,0E0,0E0,0E0,0E0,0E0,0E0],"parents":[2147483647,0,0,1,1,2,2,3,3,4,4,5,5,6,6],"right_children":[2,4,6,8,10,12,14,-1,-1,-1,-1,-1,-1,-1,-1],"split_conditions":[3.556489E-1,1E0,2.2420415E-1,1E0,-1.1522483E0,1.543429E0,1E0,-2.3902203E-3,5.493632E-4,-1.9306099E-3,1.8321612E-3,-9.7586884E-4,4.26011E-3,2.4213993E-3,6.7098425E-3],"split_indices":[12,5,11,4,7,7,3,0,0,0,0,0,0,0,0],"split_type":[0,0,0,0,0,0,0,0,0,0,0,0,0,0,0],"sum_hessian":[4.32E2,2.4E2,1.92E2,1.95E2,4.5E1,8E1,1.12E2,1.52E2,4.3E1,6E0,3.9E1,6.7E1,1.3E1,1.02E2,1E1],"tree_param":{"num_deleted":"0","num_feature":"15","num_nodes":"15","size_leaf_vector":"1"}},{"base_weights":[4.537046E-3,-3.109037E-2,7.600778E-2,-8.5157216E-2,-6.995647E-3,4.3788172E-2,1.3953476E-1,-3.4545644E-3,5.235808E-4,-4.0651925E-4,6.249003E-3,6.705994E-4,3.2416345E-3,1.9918827E-3,5.220876E-3],"categories":[],"categories_nodes":[],"categories_segments":[],"categories_sizes":[],"default_left":[0,0,0,0,0,0,0,0,0,0,0,0,0,0,0],"id":68,"left_children":[1,3,5,7,9,11,13,-1,-1,-1,-1,-1,-1,-1,-1],"loss_changes":[1.1023723E0,3.7589192E-1,2.8863126E-1,2.7593195E-1,2.8648636E-1,1.312059E-1,1.0954332E-1,0E0,0E0,0E0,0E0,0E0,0E0,0E0,0E0],"parents":[2147483647,0,0,1,1,2,2,3,3,4,4,5,5,6,6],"right_children":[2,4,6,8,10,12,14,-1,-1,-1,-1,-1,-1,-1,-1],"split_conditions":[1E0,4.723492E-2,1E0,1E0,3.4106767E0,1E0,2.2420415E-1,-3.4545644E-3,5.235808E-4,-4.0651925E-4,6.249003E-3,6.705994E-4,3.2416345E-3,1.9918827E-3,5.220876E-3],"split_indices":[4,9,5,2,10,1,11,0,0,0,0,0,0,0,0],"split_type":[0,0,0,0,0,0,0,0,0,0,0,0,0,0,0],"sum_hessian":[4.31E2,2.88E2,1.43E2,8.8E1,2E2,9.6E1,4.7E1,6.8E1,2E1,1.95E2,5E0,7.3E1,2.3E1,1.6E1,3.1E1],"tree_param":{"num_deleted":"0","num_feature":"15","num_nodes":"15","size_leaf_vector":"1"}},{"base_weights":[-2.4887132E-3,-3.330266E-2,5.8535475E-2,-4.648426E-2,7.275986E-2,-7.2308496E-2,8.056697E-2,-1.6945681E-3,1.8100038E-3,-2.4798831E-3,2.911437E-3,-7.1139475E-3,-2.9646594E-4,2.1048218E-3,7.5126984E-3],"categories":[],"categories_nodes":[],"categories_segments":[],"categories_sizes":[],"default_left":[0,0,0,0,0,0,0,0,0,0,0,0,0,0,0],"id":69,"left_children":[1,3,5,7,9,11,13,-1,-1,-1,-1,-1,-1,-1,-1],"loss_changes":[8.3496493E-1,4.158139E-1,4.3534636E-1,2.8437626E-1,1.3259436E-1,2.2402114E-1,2.0867848E-1,0E0,0E0,0E0,0E0,0E0,0E0,0E0,0E0],"parents":[2147483647,0,0,1,1,2,2,3,3,4,4,5,5,6,6],"right_children":[2,4,6,8,10,12,14,-1,-1,-1,-1,-1,-1,-1,-1],"split_conditions":[3.6746863E-1,1E0,-2.4249814E-1,1.3769519E0,1E0,1E0,3.4106767E0,-1.6945681E-3,1.8100038E-3,-2.4798831E-3,2.911437E-3,-7.1139475E-3,-2.9646594E-4,2.1048218E-3,7.5126984E-3],"split_indices":[7,1,13,11,0,6,10,0,0,0,0,0,0,0,0],"split_type":[0,0,0,0,0,0,0,0,0,0,0,0,0,0,0],"sum_hessian":[4.42E2,2.94E2,1.48E2,2.62E2,3.2E1,2.1E1,1.27E2,2.4E2,2.2E1,4E0,2.8E1,5E0,1.6E1,1.21E2,6E0],"tree_param":{"num_deleted":"0","num_feature":"15","num_nodes":"15","size_leaf_vector":"1"}},{"base_weights":[7.1530025E-3,-2.214887E-2,7.330055E-2,-5.531923E-2,4.4408996E-2,4.8100855E-2,1.7231779E-1,-5.2667037E-3,-1.031729E-3,7.549089E-4,6.5684994E-3,9.5575687E-4,3.439402E-3,9.165741E-3,3.5912963E-3],"categories":[],"categories_nodes":[],"categories_segments":[],"categories_sizes":[],"default_left":[0,0,0,0,0,0,0,0,0,0,0,0,0,0,0],"id":70,"left_children":[1,3,5,7,9,11,13,-1,-1,-1,-1,-1,-1,-1,-1],"loss_changes":[8.525139E-1,6.758199E-1,3.285638E-1,5.073005E-1,3.371191E-1,1.14161015E-1,1.5263462E-1,0E0,0E0,0E0,0E0,0E0,0E0,0E0,0E0],"parents":[2147483647,0,0,1,1,2,2,3,3,4,4,5,5,6,6],"right_children":[2,4,6,8,10,12,14,-1,-1,-1,-1,-1,-1,-1,-1],"split_conditions":[1E0,1E0,1.0635674E0,-1.1254246E0,1E0,2.5296998E0,1.1784915E0,-5.2667037E-3,-1.031729E-3,7.549089E-4,6.5684994E-3,9.5575687E-4,3.439402E-3,9.165741E-3,3.5912963E-3],"split_indices":[4,2,8,8,3,11,8,0,0,0,0,0,0,0,0],"split_type":[0,0,0,0,0,0,0,0,0,0,0,0,0,0,0],"sum_hessian":[4.38E2,3.04E2,1.34E2,2.03E2,1.01E2,1.08E2,2.6E1,2.9E1,1.74E2,9.2E1,9E0,8.8E1,2E1,6E0,2E1],"tree_param":{"num_deleted":"0","num_feature":"15","num_nodes":"15","size_leaf_vector":"1"}},{"base_weights":[3.6902404E-3,-9.8870695E-2,2.09127E-2,-1.3506784E-1,-1.6103316E-2,-4.8188012E-2,4.5046844E-2,-4.580028E-3,-3.273964E-5,-1.4443803E-3,2.689619E-3,-1.6938183E-3,4.685905E-3,-1.9593326E-4,2.7702674E-3],"categories":[],"categories_nodes":[],"categories_segments":[],"categories_sizes":[],"default_left":[0,0,0,0,0,0,0,0,0,0,0,0,0,0,0],"id":71,"left_children":[1,3,5,7,9,11,13,-1,-1,-1,-1,-1,-1,-1,-1],"loss_changes":[7.615988E-1,1.8357337E-1,6.1754704E-1,1.01225495E-1,7.2091445E-2,1.7113514E-1,6.689988E-1,0E0,0E0,0E0,0E0,0E0,0E0,0E0,0E0],"parents":[2147483647,0,0,1,1,2,2,3,3,4,4,5,5,6,6],"right_children":[2,4,6,8,10,12,14,-1,-1,-1,-1,-1,-1,-1,-1],"split_conditions":[1E0,1E0,4.723492E-2,1.4205067E0,1E0,2.465028E0,3.556489E-1,-4.580028E-3,-3.273964E-5,-1.4443803E-3,2.689619E-3,-1.6938183E-3,4.685905E-3,-1.9593326E-4,2.7702674E-3],"split_indices":[0,2,9,10,1,7,12,0,0,0,0,0,0,0,0],"split_type":[0,0,0,0,0,0,0,0,0,0,0,0,0,0,0],"sum_hessian":[4.29E2,6.1E1,3.68E2,4.2E1,1.9E1,9.5E1,2.73E2,3.7E1,5E0,1.5E1,4E0,9.2E1,3E0,1.31E2,1.42E2],"tree_param":{"num_deleted":"0","num_feature":"15","num_nodes":"15","size_leaf_vector":"1"}},{"base_weights":[-1.8785623E-3,-2.6898766E-2,6.747301E-2,-3.955816E-2,8.3358906E-2,5.567195E-2,1.7720404E-1,-2.0876122E-3,5.818142E-4,3.118145E-3,-1.7036533E-3,1.8408636E-3,-4.918146E-3,-1.6142749E-3,7.035573E-3],"categories":[],"categories_nodes":[],"categories_segments":[],"categories_sizes":[],"default_left":[0,0,0,0,0,0,0,0,0,0,0,0,0,0,0],"id":72,"left_children":[1,3,5,7,9,11,13,-1,-1,-1,-1,-1,-1,-1,-1],"loss_changes":[7.722395E-1,4.5972258E-1,1.429379E-1,5.21807E-1,1.0396287E-1,1.450186E-1,1.582652E-1,0E0,0E0,0E0,0E0,0E0,0E0,0E0,0E0],"parents":[2147483647,0,0,1,1,2,2,3,3,4,4,5,5,6,6],"right_children":[2,4,6,8,10,12,14,-1,-1,-1,-1,-1,-1,-1,-1],"split_conditions":[1.4205067E0,1.3769519E0,3.4106767E0,1E0,8.614457E-1,2.67695E0,1E0,-2.0876122E-3,5.818142E-4,3.118145E-3,-1.7036533E-3,1.8408636E-3,-4.918146E-3,-1.6142749E-3,7.035573E-3],"split_indices":[10,11,10,2,7,12,0,0,0,0,0,0,0,0,0],"split_type":[0,0,0,0,0,0,0,0,0,0,0,0,0,0,0],"sum_hessian":[4.43E2,3.26E2,1.17E2,2.93E2,3.3E1,1.07E2,1E1,1.94E2,9.9E1,2.9E1,4E0,1.05E2,2E0,2E0,8E0],"tree_param":{"num_deleted":"0","num_feature":"15","num_nodes":"15","size_leaf_vector":"1"}},{"base_weights":[-6.727142E-3,-3.6211617E-2,5.7064835E-2,-4.8531454E-2,1.2559228E-1,3.3634014E-2,1.2264868E-1,-2.0537167E-3,8.298964E-4,-5.056009E-3,4.9029468E-3,3.471094E-4,4.0216073E-3,1.4848744E-3,5.1082745E-3],"categories":[],"categories_nodes":[],"categories_segments":[],"categories_sizes":[],"default_left":[0,0,0,0,0,0,0,0,0,0,0,0,0,0,0],"id":73,"left_children":[1,3,5,7,9,11,13,-1,-1,-1,-1,-1,-1,-1,-1],"loss_changes":[8.446975E-1,6.1806834E-1,2.1408382E-1,4.3610966E-1,2.7239302E-1,2.3330545E-1,1.20482385E-1,0E0,0E0,0E0,0E0,0E0,0E0,0E0,0E0],"parents":[2147483647,0,0,1,1,2,2,3,3,4,4,5,5,6,6],"right_children":[2,4,6,8,10,12,14,-1,-1,-1,-1,-1,-1,-1,-1],"split_conditions":[1E0,1E0,1E0,1E0,1E0,1.6868666E0,7.2218424E-1,-2.0537167E-3,8.298964E-4,-5.056009E-3,4.9029468E-3,3.471094E-4,4.0216073E-3,1.4848744E-3,5.1082745E-3],"split_indices":[4,3,1,5,0,13,13,0,0,0,0,0,0,0,0],"split_type":[0,0,0,0,0,0,0,0,0,0,0,0,0,0,0],"sum_hessian":[4.47E2,3.06E2,1.41E2,2.85E2,2.1E1,1.05E2,3.6E1,2.26E2,5.9E1,2E0,1.9E1,8.7E1,1.8E1,1.5E1,2.1E1],"tree_param":{"num_deleted":"0","num_feature":"15","num_nodes":"15","size_leaf_vector":"1"}},{"base_weights":[4.789291E-3,-4.876439E-2,3.7478186E-2,-1.0403398E-1,-2.373874E-2,3.0652225E-2,2.1871385E-1,-6.0579083E-3,-1.3016426E-3,-1.0237981E-3,3.739761E-3,1.9853866E-4,2.6084161E-3,4.6119723E-3,9.572792E-3],"categories":[],"categories_nodes":[],"categories_segments":[],"categories_sizes":[],"default_left":[0,0,0,0,0,0,0,0,0,0,0,0,0,0,0],"id":74,"left_children":[1,3,5,7,9,11,13,-1,-1,-1,-1,-1,-1,-1,-1],"loss_changes":[7.8960234E-1,2.3405027E-1,3.3968598E-1,3.059001E-1,1.8769655E-1,3.6608994E-1,1.6172945E-2,0E0,0E0,0E0,0E0,0E0,0E0,0E0,0E0],"parents":[2147483647,0,0,1,1,2,2,3,3,4,4,5,5,6,6],"right_children":[2,4,6,8,10,12,14,-1,-1,-1,-1,-1,-1,-1,-1],"split_conditions":[-5.154233E-1,-9.7437966E-1,2.651549E0,2.2420415E-1,1E0,1E0,1.7185329E0,-6.0579083E-3,-1.3016426E-3,-1.0237981E-3,3.739761E-3,1.9853866E-4,2.6084161E-3,4.6119723E-3,9.572792E-3],"split_indices":[7,7,13,11,3,5,7,0,0,0,0,0,0,0,0],"split_type":[0,0,0,0,0,0,0,0,0,0,0,0,0,0,0],"sum_hessian":[4.49E2,1.7E2,2.79E2,5.2E1,1.18E2,2.7E2,9E0,1.9E1,3.3E1,1.11E2,7E0,1.9E2,8E1,7E0,2E0],"tree_param":{"num_deleted":"0","num_feature":"15","num_nodes":"15","size_leaf_vector":"1"}},{"base_weights":[-3.4365708E-3,-1.0079371E-1,1.2291501E-2,-1.13223195E-1,3.4085274E-2,-5.7767205E-2,3.617116E-2,-3.944423E-3,-4.2793466E-4,4.28931E-3,-3.6739635E-3,-1.9401964E-3,5.4744245E-3,-1.416359E-4,2.1307822E-3],"categories":[],"categories_nodes":[],"categories_segments":[],"categories_sizes":[],"default_left":[0,0,0,0,0,0,0,0,0,0,0,0,0,0,0],"id":75,"left_children":[1,3,5,7,9,11,13,-1,-1,-1,-1,-1,-1,-1,-1],"loss_changes":[6.826408E-1,1.0780072E-1,6.445131E-1,1.0110903E-1,1.1979221E-1,1.7439875E-1,4.0939632E-1,0E0,0E0,0E0,0E0,0E0,0E0,0E0,0E0],"parents":[2147483647,0,0,1,1,2,2,3,3,4,4,5,5,6,6],"right_children":[2,4,6,8,10,12,14,-1,-1,-1,-1,-1,-1,-1,-1],"split_conditions":[1E0,1E0,4.723492E-2,1.4205067E0,9.633123E-1,2.465028E0,3.556489E-1,-3.944423E-3,-4.2793466E-4,4.28931E-3,-3.6739635E-3,-1.9401964E-3,5.4744245E-3,-1.416359E-4,2.1307822E-3],"split_indices":[0,1,9,10,14,7,12,0,0,0,0,0,0,0,0],"split_type":[0,0,0,0,0,0,0,0,0,0,0,0,0,0,0],"sum_hessian":[4.44E2,6.1E1,3.83E2,5.6E1,5E0,9.7E1,2.86E2,4.7E1,9E0,3E0,2E0,9.5E1,2E0,1.32E2,1.54E2],"tree_param":{"num_deleted":"0","num_feature":"15","num_nodes":"15","size_leaf_vector":"1"}},{"base_weights":[-3.3856677E-3,-4.1756928E-2,4.310106E-2,-6.8412855E-2,1.0763866E-2,-5.8534086E-2,6.745305E-2,-2.2342028E-3,8.207445E-3,-2.6138627E-3,6.318668E-4,-3.26779E-3,1.9177698E-3,-2.1953133E-3,2.3781026E-3],"categories":[],"categories_nodes":[],"categories_segments":[],"categories_sizes":[],"default_left":[0,0,0,0,0,0,0,0,0,0,0,0,0,0,0],"id":76,"left_children":[1,3,5,7,9,11,13,-1,-1,-1,-1,-1,-1,-1,-1],"loss_changes":[7.8486794E-1,3.3813405E-1,4.964768E-1,3.5200346E-1,8.4502086E-2,2.4763303E-1,2.7335572E-1,0E0,0E0,0E0,0E0,0E0,0E0,0E0,0E0],"parents":[2147483647,0,0,1,1,2,2,3,3,4,4,5,5,6,6],"right_children":[2,4,6,8,10,12,14,-1,-1,-1,-1,-1,-1,-1,-1],"split_conditions":[3.556489E-1,1E0,4.723492E-2,3.6162314E0,-1.9626557E0,7.469811E-1,1E0,-2.2342028E-3,8.207445E-3,-2.6138627E-3,6.318668E-4,-3.26779E-3,1.9177698E-3,-2.1953133E-3,2.3781026E-3],"split_indices":[12,2,9,13,8,8,0,0,0,0,0,0,0,0,0],"split_type":[0,0,0,0,0,0,0,0,0,0,0,0,0,0,0],"sum_hessian":[4.38E2,2.4E2,1.98E2,1.59E2,8.1E1,3.8E1,1.6E2,1.57E2,2E0,7E0,7.4E1,2.7E1,1.1E1,1.2E1,1.48E2],"tree_param":{"num_deleted":"0","num_feature":"15","num_nodes":"15","size_leaf_vector":"1"}},{"base_weights":[-9.208701E-4,-2.6674345E-2,5.1121566E-2,-3.6156066E-2,7.717449E-2,3.9918803E-2,8.036213E-3,-2.208348E-3,-3.494278E-4,-1.6216793E-3,3.142346E-3,-4.779722E-4,2.1050284E-3],"categories":[],"categories_nodes":[],"categories_segments":[],"categories_sizes":[],"default_left":[0,0,0,0,0,0,0,0,0,0,0,0,0],"id":77,"left_children":[1,3,5,7,9,11,-1,-1,-1,-1,-1,-1,-1],"loss_changes":[5.91084E-1,2.9326677E-1,3.438275E-1,2.4791455E-1,9.6113905E-2,2.3763852E-1,0E0,0E0,0E0,0E0,0E0,0E0,0E0],"parents":[2147483647,0,0,1,1,2,2,3,3,4,4,5,5],"right_children":[2,4,6,8,10,12,-1,-1,-1,-1,-1,-1,-1],"split_conditions":[3.6746863E-1,1.3769519E0,3.4106767E0,1E0,-7.086732E-1,3.556489E-1,8.036213E-3,-2.208348E-3,-3.494278E-4,-1.6216793E-3,3.142346E-3,-4.779722E-4,2.1050284E-3],"split_indices":[7,11,10,6,14,12,0,0,0,0,0,0,0],"split_type":[0,0,0,0,0,0,0,0,0,0,0,0,0],"sum_hessian":[4.39E2,2.94E2,1.45E2,2.7E2,2.4E1,1.39E2,6E0,1.06E2,1.64E2,4E0,2E1,4.9E1,9E1],"tree_param":{"num_deleted":"0","num_feature":"15","num_nodes":"13","size_leaf_vector":"1"}},{"base_weights":[-3.9364947E-3,-5.6471907E-2,2.3162859E-2,-8.315173E-2,9.330239E-2,7.948409E-3,1.0133197E-1,-3.0502463E-3,8.246718E-4,-2.8979492E-3,3.4796428E-3,-5.1071896E-5,4.349268E-3,1.076433E-2,2.07108E-3],"categories":[],"categories_nodes":[],"categories_segments":[],"categories_sizes":[],"default_left":[0,0,0,0,0,0,0,0,0,0,0,0,0,0,0],"id":78,"left_children":[1,3,5,7,9,11,13,-1,-1,-1,-1,-1,-1,-1,-1],"loss_changes":[6.2345433E-1,6.03155E-1,3.4290233E-1,2.6307076E-1,1.1028896E-1,3.2159552E-1,3.6605936E-1,0E0,0E0,0E0,0E0,0E0,0E0,0E0,0E0],"parents":[2147483647,0,0,1,1,2,2,3,3,4,4,5,5,6,6],"right_children":[2,4,6,8,10,12,14,-1,-1,-1,-1,-1,-1,-1,-1],"split_conditions":[1E0,1.3769519E0,1.0411576E0,1.4205067E0,-7.086732E-1,1E0,1.1287094E0,-3.0502463E-3,8.246718E-4,-2.8979492E-3,3.4796428E-3,-5.1071896E-5,4.349268E-3,1.076433E-2,2.07108E-3],"split_indices":[6,11,7,10,14,3,7,0,0,0,0,0,0,0,0],"split_type":[0,0,0,0,0,0,0,0,0,0,0,0,0,0,0],"sum_hessian":[4.36E2,1.48E2,2.88E2,1.26E2,2.2E1,2.42E2,4.6E1,1.08E2,1.8E1,2E0,2E1,2.27E2,1.5E1,4E0,4.2E1],"tree_param":{"num_deleted":"0","num_feature":"15","num_nodes":"15","size_leaf_vector":"1"}},{"base_weights":[7.7607958E-3,-6.386141E-2,3.035564E-2,-7.120667E-2,1.4491701E-1,-2.0034684E-2,5.0676487E-2,-2.5586179E-3,1.3507581E-3,5.2430625E-3,8.304262E-4,-9.155138E-4,3.6628246E-3,1.3205876E-3,6.5881344E-3],"categories":[],"categories_nodes":[],"categories_segments":[],"categories_sizes":[],"default_left":[0,0,0,0,0,0,0,0,0,0,0,0,0,0,0],"id":79,"left_children":[1,3,5,7,9,11,13,-1,-1,-1,-1,-1,-1,-1,-1],"loss_changes":[7.2855186E-1,1.7594045E-1,3.5121438E-1,1.7568475E-1,9.16107E-3,1.5122186E-1,2.6472008E-1,0E0,0E0,0E0,0E0,0E0,0E0,0E0,0E0],"parents":[2147483647,0,0,1,1,2,2,3,3,4,4,5,5,6,6],"right_children":[2,4,6,8,10,12,14,-1,-1,-1,-1,-1,-1,-1,-1],"split_conditions":[4.723492E-2,1.990129E0,-4.9668175E-1,1E0,1E0,1E0,3.4106767E0,-2.5586179E-3,1.3507581E-3,5.2430625E-3,8.304262E-4,-9.155138E-4,3.6628246E-3,1.3205876E-3,6.5881344E-3],"split_indices":[9,8,8,1,5,1,10,0,0,0,0,0,0,0,0],"split_type":[0,0,0,0,0,0,0,0,0,0,0,0,0,0,0],"sum_hessian":[4.48E2,1.07E2,3.41E2,1.04E2,3E0,9.8E1,2.43E2,9.3E1,1.1E1,2E0,1E0,9.2E1,6E0,2.35E2,8E0],"tree_param":{"num_deleted":"0","num_feature":"15","num_nodes":"15","size_leaf_vector":"1"}},{"base_weights":[-5.23379E-4,-3.35944E-2,4.077687E-2,-4.665187E-2,4.5683596E-2,-5.7557315E-2,6.556522E-2,-1.4758529E-3,7.502131E-3,2.7575279E-3,1.230154E-4,-6.897789E-3,-9.812582E-4,-2.5996799E-3,2.2544528E-3],"categories":[],"categories_nodes":[],"categories_segments":[],"categories_sizes":[],"default_left":[0,0,0,0,0,0,0,0,0,0,0,0,0,0,0],"id":80,"left_children":[1,3,5,7,9,11,13,-1,-1,-1,-1,-1,-1,-1,-1],"loss_changes":[6.1736435E-1,2.619589E-1,4.9371982E-1,1.7530322E-1,6.883498E-2,1.6808844E-1,2.4137354E-1,0E0,0E0,0E0,0E0,0E0,0E0,0E0,0E0],"parents":[2147483647,0,0,1,1,2,2,3,3,4,4,5,5,6,6],"right_children":[2,4,6,8,10,12,14,-1,-1,-1,-1,-1,-1,-1,-1],"split_conditions":[3.556489E-1,1.3769519E0,4.723492E-2,3.709187E0,7.2218424E-1,-9.7437966E-1,1E0,-1.4758529E-3,7.502131E-3,2.7575279E-3,1.230154E-4,-6.897789E-3,-9.812582E-4,-2.5996799E-3,2.2544528E-3],"split_indices":[12,11,9,7,13,7,0,0,0,0,0,0,0,0,0],"split_type":[0,0,0,0,0,0,0,0,0,0,0,0,0,0,0],"sum_hessian":[4.5E2,2.5E2,2E2,2.15E2,3.5E1,4E1,1.6E2,2.14E2,1E0,1.6E1,1.9E1,4E0,3.6E1,9E0,1.51E2],"tree_param":{"num_deleted":"0","num_feature":"15","num_nodes":"15","size_leaf_vector":"1"}},{"base_weights":[2.3740877E-3,-5.292354E-2,2.6963813E-2,-7.815823E-2,5.51791E-2,-3.5191614E-2,4.3674175E-2,-2.772355E-3,1.9947654E-3,6.857326E-4,6.574552E-3,-1.599098E-3,4.2820307E-3,-6.3644856E-4,1.8299865E-3],"categories":[],"categories_nodes":[],"categories_segments":[],"categories_sizes":[],"default_left":[0,0,0,0,0,0,0,0,0,0,0,0,0,0,0],"id":81,"left_children":[1,3,5,7,9,11,13,-1,-1,-1,-1,-1,-1,-1,-1],"loss_changes":[5.6980395E-1,3.5621655E-1,3.0274248E-1,2.2263259E-1,1.2748608E-1,2.074053E-1,2.5874245E-1,0E0,0E0,0E0,0E0,0E0,0E0,0E0,0E0],"parents":[2147483647,0,0,1,1,2,2,3,3,4,4,5,5,6,6],"right_children":[2,4,6,8,10,12,14,-1,-1,-1,-1,-1,-1,-1,-1],"split_conditions":[1E0,1.4205067E0,-7.605687E-1,1.3769519E0,2.7570276E0,1E0,4.723492E-2,-2.772355E-3,1.9947654E-3,6.857326E-4,6.574552E-3,-1.599098E-3,4.2820307E-3,-6.3644856E-4,1.8299865E-3],"split_indices":[6,10,7,11,9,1,9,0,0,0,0,0,0,0,0],"split_type":[0,0,0,0,0,0,0,0,0,0,0,0,0,0,0],"sum_hessian":[4.17E2,1.28E2,2.89E2,1.04E2,2.4E1,6.1E1,2.28E2,9.5E1,9E0,2.1E1,3E0,5.6E1,5E0,4.8E1,1.8E2],"tree_param":{"num_deleted":"0","num_feature":"15","num_nodes":"15","size_leaf_vector":"1"}},{"base_weights":[1.8814176E-3,-6.286285E-2,2.7730975E-2,-1.3972937E-1,-4.658072E-2,-8.88996E-3,6.393674E-2,-5.019151E-3,2.4447916E-3,-2.909472E-3,-1.2612694E-4,-9.845663E-4,2.0299244E-3,2.1833067E-3,-2.1456957E-3],"categories":[],"categories_nodes":[],"categories_segments":[],"categories_sizes":[],"default_left":[0,0,0,0,0,0,0,0,0,0,0,0,0,0,0],"id":82,"left_children":[1,3,5,7,9,11,13,-1,-1,-1,-1,-1,-1,-1,-1],"loss_changes":[7.213959E-1,1.4743197E-1,4.0894222E-1,1.4174172E-1,2.1958447E-1,2.843266E-1,1.9081569E-1,0E0,0E0,0E0,0E0,0E0,0E0,0E0,0E0],"parents":[2147483647,0,0,1,1,2,2,3,3,4,4,5,5,6,6],"right_children":[2,4,6,8,10,12,14,-1,-1,-1,-1,-1,-1,-1,-1],"split_conditions":[-6.9144875E-1,-1.2213682E0,3.556489E-1,1.4021312E0,4.723492E-2,1E0,2.67695E0,-5.019151E-3,2.4447916E-3,-2.909472E-3,-1.2612694E-4,-9.845663E-4,2.0299244E-3,2.1833067E-3,-2.1456957E-3],"split_indices":[7,7,12,9,9,5,12,0,0,0,0,0,0,0,0],"split_type":[0,0,0,0,0,0,0,0,0,0,0,0,0,0,0],"sum_hessian":[4.29E2,1.22E2,3.07E2,2E1,1.02E2,1.53E2,1.54E2,1.8E1,2E0,4.6E1,5.6E1,1.17E2,3.6E1,1.45E2,9E0],"tree_param":{"num_deleted":"0","num_feature":"15","num_nodes":"15","size_leaf_vector":"1"}},{"base_weights":[-1.7511264E-3,-5.753748E-2,1.4661775E-2,-1.00533836E-1,-2.719768E-2,-1.8975627E-2,5.262245E-2,-3.466977E-3,2.022128E-3,5.503949E-4,-1.6214448E-3,-7.0560095E-4,7.754974E-3,-2.6940412E-3,1.9748595E-3],"categories":[],"categories_nodes":[],"categories_segments":[],"categories_sizes":[],"default_left":[0,0,0,0,0,0,0,0,0,0,0,0,0,0,0],"id":83,"left_children":[1,3,5,7,9,11,13,-1,-1,-1,-1,-1,-1,-1,-1],"loss_changes":[4.0279898E-1,1.277158E-1,4.35144E-1,1.1129236E-1,7.436459E-2,2.3431331E-1,3.068519E-1,0E0,0E0,0E0,0E0,0E0,0E0,0E0,0E0],"parents":[2147483647,0,0,1,1,2,2,3,3,4,4,5,5,6,6],"right_children":[2,4,6,8,10,12,14,-1,-1,-1,-1,-1,-1,-1,-1],"split_conditions":[4.723492E-2,-6.636995E-1,3.556489E-1,1E0,-2.2135907E-1,3.6162314E0,1E0,-3.466977E-3,2.022128E-3,5.503949E-4,-1.6214448E-3,-7.0560095E-4,7.754974E-3,-2.6940412E-3,1.9748595E-3],"split_indices":[9,8,12,5,8,13,0,0,0,0,0,0,0,0,0],"split_type":[0,0,0,0,0,0,0,0,0,0,0,0,0,0,0],"sum_hessian":[4.38E2,9.9E1,3.39E2,4E1,5.9E1,1.8E2,1.59E2,3.7E1,3E0,2.2E1,3.7E1,1.78E2,2E0,1.3E1,1.46E2],"tree_param":{"num_deleted":"0","num_feature":"15","num_nodes":"15","size_leaf_vector":"1"}},{"base_weights":[1.9145594E-3,-4.7659572E-2,2.4616534E-2,-8.02071E-2,3.4474768E-2,-1.3710506E-1,3.1588897E-2,-3.2478636E-3,5.199644E-5,-2.8314602E-3,1.7778339E-3,-2.2071446E-3,-7.849881E-3,5.259051E-4,2.932811E-3],"categories":[],"categories_nodes":[],"categories_segments":[],"categories_sizes":[],"default_left":[0,0,0,0,0,0,0,0,0,0,0,0,0,0,0],"id":84,"left_children":[1,3,5,7,9,11,13,-1,-1,-1,-1,-1,-1,-1,-1],"loss_changes":[5.0874245E-1,3.8236946E-1,3.538813E-1,2.3466909E-1,1.3654271E-1,8.362576E-2,2.7551162E-1,0E0,0E0,0E0,0E0,0E0,0E0,0E0,0E0],"parents":[2147483647,0,0,1,1,2,2,3,3,4,4,5,5,6,6],"right_children":[2,4,6,8,10,12,14,-1,-1,-1,-1,-1,-1,-1,-1],"split_conditions":[1E0,1E0,-1.1983283E0,1E0,4.723492E-2,-1.2674482E0,1.0411576E0,-3.2478636E-3,5.199644E-5,-2.8314602E-3,1.7778339E-3,-2.2071446E-3,-7.849881E-3,5.259051E-4,2.932811E-3],"split_indices":[6,2,7,4,9,7,7,0,0,0,0,0,0,0,0],"split_type":[0,0,0,0,0,0,0,0,0,0,0,0,0,0,0],"sum_hessian":[4.5E2,1.41E2,3.09E2,1.01E2,4E1,1.2E1,2.97E2,7.5E1,2.6E1,6E0,3.4E1,9E0,3E0,2.46E2,5.1E1],"tree_param":{"num_deleted":"0","num_feature":"15","num_nodes":"15","size_leaf_vector":"1"}},{"base_weights":[-3.2197407E-3,-2.5619294E-2,4.6580892E-2,-3.282063E-2,7.161849E-2,2.3318378E-2,1.07564904E-1,-2.0601714E-3,-3.56717E-4,-1.0490156E-3,2.7397615E-3,-3.572114E-5,3.4322643E-3,3.6150657E-3,-2.3767566E-3],"categories":[],"categories_nodes":[],"categories_segments":[],"categories_sizes":[],"default_left":[0,0,0,0,0,0,0,0,0,0,0,0,0,0,0],"id":85,"left_children":[1,3,5,7,9,11,13,-1,-1,-1,-1,-1,-1,-1,-1],"loss_changes":[4.8532555E-1,2.1242316E-1,1.8900836E-1,2.092897E-1,4.730332E-2,2.2115797E-1,9.8959535E-2,0E0,0E0,0E0,0E0,0E0,0E0,0E0,0E0],"parents":[2147483647,0,0,1,1,2,2,3,3,4,4,5,5,6,6],"right_children":[2,4,6,8,10,12,14,-1,-1,-1,-1,-1,-1,-1,-1],"split_conditions":[1E0,1.3769519E0,1E0,1E0,-7.086732E-1,1.6868666E0,1.3821492E0,-2.0601714E-3,-3.56717E-4,-1.0490156E-3,2.7397615E-3,-3.572114E-5,3.4322643E-3,3.6150657E-3,-2.3767566E-3],"split_indices":[4,11,1,6,14,13,7,0,0,0,0,0,0,0,0],"split_type":[0,0,0,0,0,0,0,0,0,0,0,0,0,0,0],"sum_hessian":[4.33E2,2.99E2,1.34E2,2.79E2,2E1,9.8E1,3.6E1,1.02E2,1.77E2,3E0,1.7E1,7.8E1,2E1,3.4E1,2E0],"tree_param":{"num_deleted":"0","num_feature":"15","num_nodes":"15","size_leaf_vector":"1"}},{"base_weights":[1.2097794E-3,-1.6522694E-2,5.7351414E-2,-3.0895831E-2,6.609453E-2,3.1074256E-2,1.0493896E-1,-1.3174488E-3,2.1784618E-3,2.50254E-3,-3.2989483E-3,-1.3409837E-3,1.2421749E-3,9.713059E-4,