{"learner":{"attributes":{"scikit_learn":"{\"_estimator_type\": \"classifier\"}"},"feature_names":["TitleCode","DeckCode","SexCode","EmbarkedCode","Pclass","Age","Fare","LogFare","LogFarePerPerson","FamilySize","IsAlone","TicketGroupSize","AgeClass"],"feature_types":["int","int","int","int","int","float","float","float","float","float","float","float","float"],"gradient_booster":{"model":{"cats":{"enc":[],"feature_segments":[],"sorted_idx":[]},"gbtree_model_param":{"num_parallel_tree":"1","num_trees":"150"},"iteration_indptr":[0,1,2,3,4,5,6,7,8,9,10,11,12,13,14,15,16,17,18,19,20,21,22,23,24,25,26,27,28,29,30,31,32,33,34,35,36,37,38,39,40,41,42,43,44,45,46,47,48,49,50,51,52,53,54,55,56,57,58,59,60,61,62,63,64,65,66,67,68,69,70,71,72,73,74,75,76,77,78,79,80,81,82,83,84,85,86,87,88,89,90,91,92,93,94,95,96,97,98,99,100,101,102,103,104,105,106,107,108,109,110,111,112,113,114,115,116,117,118,119,120,121,122,123,124,125,126,127,128,129,130,131,132,133,134,135,136,137,138,139,140,141,142,143,144,145,146,147,148,149,150],"tree_info":[0,0,0,0,0,0,0,0,0,0,0,0,0,0,0,0,0,0,0,0,0,0,0,0,0,0,0,0,0,0,0,0,0,0,0,0,0,0,0,0,0,0,0,0,0,0,0,0,0,0,0,0,0,0,0,0,0,0,0,0,0,0,0,0,0,0,0,0,0,0,0,0,0,0,0,0,0,0,0,0,0,0,0,0,0,0,0,0,0,0,0,0,0,0,0,0,0,0,0,0,0,0,0,0,0,0,0,0,0,0,0,0,0,0,0,0,0,0,0,0,0,0,0,0,0,0,0,0,0,0,0,0,0,0,0,0,0,0,0,0,0,0,0,0,0,0,0,0,0,0],"trees":[{"base_weights":[5.373728E-4,-8.271275E-1,1.4699471E0,-1.0629591E0,3.1163922E-1,6.914325E-2,3.2491377E-1,4.9291766E-1,-1.1410857E0,7.9877985E-1,-3.3739975E-1,6.4860517E-1,-9.9068755E-1,-1.9056749E-2,3.710136E-2,-3.5348166E-2,-9.113949E-3,-2.8561307E-2,3.4286153E-2,5.3839907E-3,-2.2307426E-2,6.255729E-3,3.2594416E-2,-3.600287E-2,-1.1106721E-2],"categories":[],"categories_nodes":[],"categories_segments":[],"categories_sizes":[],"default_left":[0,0,0,0,0,0,0,0,0,0,0,0,0,0,0,0,0,0,0,0,0,0,0,0,0],"id":0,"left_children":[1,3,5,7,9,-1,11,13,15,17,19,21,23,-1,-1,-1,-1,-1,-1,-1,-1,-1,-1,-1,-1],"loss_changes":[2.0693993E2,2.9562881E1,5.7856888E1,1.1551025E1,6.4182897E0,0E0,1.2147175E1,4.998415E0,2.3314972E0,7.9597125E0,2.0315728E0,4.0678864E0,3.002119E-1,0E0,0E0,0E0,0E0,0E0,0E0,0E0,0E0,0E0,0E0,0E0,0E0],"parents":[2147483647,0,0,1,1,2,2,3,3,4,4,6,6,7,7,8,8,9,9,10,10,11,11,12,12],"right_children":[2,4,6,8,10,-1,12,14,16,18,20,22,24,-1,-1,-1,-1,-1,-1,-1,-1,-1,-1,-1,-1],"split_conditions":[1E0,1E0,3E0,-1.4323957E0,1.1858808E0,6.914325E-2,-1.9477843E-1,-7.2250986E-1,4.0951073E-1,-4.9159837E-1,7.312025E-1,1E0,-5.5192244E-1,-1.9056749E-2,3.710136E-2,-3.5348166E-2,-9.113949E-3,-2.8561307E-2,3.4286153E-2,5.3839907E-3,-2.2307426E-2,6.255729E-3,3.2594416E-2,-3.600287E-2,-1.1106721E-2],"split_indices":[2,1,4,12,8,0,6,8,6,6,5,3,8,0,0,0,0,0,0,0,0,0,0,0,0],"split_type":[0,0,0,0,0,0,0,0,0,0,0,0,0,0,0,0,0,0,0,0,0,0,0,0,0],"sum_hessian":[1.681561E2,1.0784695E2,6.0309147E1,8.9399445E1,1.8447504E1,3.4293438E1,2.601571E1,4.02061E0,8.537883E1,1.0406284E1,8.04122E0,2.1285582E1,4.7301292E0,1.6555452E0,2.3650646E0,8.135822E1,4.02061E0,1.4190388E0,8.987246E0,3.7841034E0,4.2571163E0,1.135231E1,9.933271E0,2.8380775E0,1.8920517E0],"tree_param":{"num_deleted":"0","num_feature":"13","num_nodes":"25","size_leaf_vector":"1"}},{"base_weights":[3.4334242E-2,-8.956315E-1,1.2774975E0,-1.1417959E0,3.312902E-2,1.5546573E0,-6.290574E-1,-3.5159778E-2,3.7846533E-3,3.9213625E-1,-9.864586E-1,1.8061956E0,1.4080535E-1,-3.606203E-2,3.667854E-1,3.3549007E-2,-1.5589272E-2,-3.5021033E-2,-1.3888181E-2,5.6821037E-2,1.1336468E-2,-1.8062638E-2,3.1885535E-2,3.3246927E-2,-1.1380318E-2],"categories":[],"categories_nodes":[],"categories_segments":[],"categories_sizes":[],"default_left":[0,0,0,0,0,0,0,0,0,0,0,0,0,0,0,0,0,0,0,0,0,0,0,0,0],"id":1,"left_children":[1,3,5,7,9,11,13,-1,-1,15,17,19,21,-1,23,-1,-1,-1,-1,-1,-1,-1,-1,-1,-1],"loss_changes":[1.9196628E2,2.1759865E1,3.85203E1,3.0245361E0,8.02897E0,2.1908005E1,5.992669E0,0E0,0E0,1.1278382E1,1.4481544E-3,5.911194E0,7.8300743E0,0E0,2.8101337E0,0E0,0E0,0E0,0E0,0E0,0E0,0E0,0E0,0E0,0E0],"parents":[2147483647,0,0,1,1,2,2,3,3,4,4,5,5,6,6,9,9,10,10,11,11,12,12,14,14],"right_children":[2,4,6,8,10,12,14,-1,-1,16,18,20,22,-1,24,-1,-1,-1,-1,-1,-1,-1,-1,-1,-1],"split_conditions":[1E0,7.5653476E-1,1.9184865E0,3.8292274E0,-3.3261025E-1,6.729079E-1,-5.5192244E-1,-3.5159778E-2,3.7846533E-3,1.1858808E0,1.0914161E0,4E0,-3.462069E-1,-3.606203E-2,2.3462262E-3,3.3549007E-2,-1.5589272E-2,-3.5021033E-2,-1.3888181E-2,5.6821037E-2,1.1336468E-2,-1.8062638E-2,3.1885535E-2,3.3246927E-2,-1.1380318E-2],"split_indices":[0,8,9,11,12,12,8,0,0,8,8,0,6,0,6,0,0,0,0,0,0,0,0,0,0],"split_type":[0,0,0,0,0,0,0,0,0,0,0,0,0,0,0,0,0,0,0,0,0,0,0,0,0],"sum_hessian":[1.6405687E2,9.401052E1,7.004634E1,7.413259E1,1.987793E1,6.1317116E1,8.729223E0,7.248208E1,1.6505127E0,1.515655E1,4.7213793E0,5.1820274E1,9.4968405E0,5.4094996E0,3.319724E0,8.310973E0,6.8455772E0,2.5948472E0,2.126532E0,4.8510868E1,3.3094068E0,5.451539E0,4.045302E0,1.4216709E0,1.8980532E0],"tree_param":{"num_deleted":"0","num_feature":"13","num_nodes":"25","size_leaf_vector":"1"}},{"base_weights":[-2.290212E-2,-9.1571397E-1,1.1488922E0,2.0877111E-1,-1.0643946E0,1.4749935E0,-7.7266526E-1,-2.403984E-2,7.010813E-1,-1.0999457E0,-4.6853966E-1,1.6928955E0,1.2130098E-1,4.0933784E-2,-1.1520554E0,5.8765663E-3,4.983501E-2,-3.437414E-2,-1.5702246E-2,3.356502E-2,-3.3359785E-2,5.4519657E-2,2.4923815E-3,-1.4510776E-2,3.066988E-2,-4.1615315E-2,-7.5635924E-3],"categories":[],"categories_nodes":[],"categories_segments":[],"categories_sizes":[],"default_left":[0,0,0,0,0,0,0,0,0,0,0,0,0,0,0,0,0,0,0,0,0,0,0,0,0,0,0],"id":2,"left_children":[1,3,5,7,9,11,13,-1,15,17,19,21,23,-1,25,-1,-1,-1,-1,-1,-1,-1,-1,-1,-1,-1,-1],"loss_changes":[1.8169533E2,1.6699738E1,4.82061E1,6.70096E0,1.3320389E0,1.8837326E1,1.093976E1,0E0,3.9590955E0,1.5566254E0,8.038928E0,1.0971771E1,5.960977E0,0E0,1.8411388E0,0E0,0E0,0E0,0E0,0E0,0E0,0E0,0E0,0E0,0E0,0E0,0E0],"parents":[2147483647,0,0,1,1,2,2,3,3,4,4,5,5,6,6,8,8,9,9,10,10,11,11,12,12,14,14],"right_children":[2,4,6,8,10,12,14,-1,16,18,20,22,24,-1,26,-1,-1,-1,-1,-1,-1,-1,-1,-1,-1,-1,-1],"split_conditions":[1E0,-7.41102E-1,1.9184865E0,-4.5478353E-1,4.8882905E-1,6.729079E-1,3E0,-2.403984E-2,4E0,9.240108E-1,4.9755055E-1,4E0,-3.3513904E-1,4.0933784E-2,-5.5192244E-1,5.8765663E-3,4.983501E-2,-3.437414E-2,-1.5702246E-2,3.356502E-2,-3.3359785E-2,5.4519657E-2,2.4923815E-3,-1.4510776E-2,3.066988E-2,-4.1615315E-2,-7.5635924E-3],"split_indices":[0,12,9,5,6,12,4,0,1,8,6,0,6,0,8,0,0,0,0,0,0,0,0,0,0,0,0],"split_type":[0,0,0,0,0,0,0,0,0,0,0,0,0,0,0,0,0,0,0,0,0,0,0,0,0,0,0],"sum_hessian":[1.7166743E2,9.7556145E1,7.41113E1,1.1345437E1,8.62107E1,6.355755E1,1.055375E1,3.5119965E0,7.8334403E0,8.055828E1,5.652427E0,5.452944E1,9.028107E0,1.1996427E0,9.354108E0,5.9215555E0,1.9118848E0,7.370801E1,6.850272E0,1.4172734E0,4.2351537E0,5.0497475E1,4.0319667E0,5.67848E0,3.349626E0,6.9871817E0,2.3669257E0],"tree_param":{"num_deleted":"0","num_feature":"13","num_nodes":"27","size_leaf_vector":"1"}},{"base_weights":[2.9538058E-2,-9.18975E-1,1.2574068E0,-3.3913773E-2,-2.184035E-1,1.4893382E0,-4.0073503E-2,3.362586E-2,-4.5121872E-1,1.6137513E0,-3.5926154E-1,-2.7575774E-2,-1.6450924E-3,6.3603535E-2,2.5085323E-2,-3.4748964E-2,2.5488479E-2],"categories":[],"categories_nodes":[],"categories_segments":[],"categories_sizes":[],"default_left":[0,0,0,0,0,0,0,0,0,0,0,0,0,0,0,0,0],"id":3,"left_children":[1,3,5,-1,7,9,-1,-1,11,13,15,-1,-1,-1,-1,-1,-1],"loss_changes":[2.032604E2,1.4344063E1,4.7730034E1,0E0,8.012355E0,1.6743637E1,0E0,0E0,3.8863096E0,2.422612E1,6.0549345E0,0E0,0E0,0E0,0E0,0E0,0E0],"parents":[2147483647,0,0,1,1,2,2,4,4,5,5,8,8,9,9,10,10],"right_children":[2,4,6,-1,8,10,-1,-1,12,14,16,-1,-1,-1,-1,-1,-1],"split_conditions":[1E0,3.5501745E-1,2.3598726E0,-3.3913773E-2,3.8177538E-1,4E0,-4.0073503E-2,3.362586E-2,1.0509781E0,3E0,9.9149513E-1,-2.7575774E-2,-1.6450924E-3,6.3603535E-2,2.5085323E-2,-3.4748964E-2,2.5488479E-2],"split_indices":[0,7,11,0,7,0,0,0,7,4,8,0,0,0,0,0,0],"split_type":[0,0,0,0,0,0,0,0,0,0,0,0,0,0,0,0,0],"sum_hessian":[1.725328E2,9.74813E1,7.5051506E1,7.440636E1,2.3074945E1,6.928079E1,5.7707067E0,2.8523674E0,2.0222578E1,6.503116E1,4.2496367E0,8.668953E0,1.1553626E1,3.8338215E1,2.6692945E1,2.5837095E0,1.665927E0],"tree_param":{"num_deleted":"0","num_feature":"13","num_nodes":"17","size_leaf_vector":"1"}},{"base_weights":[4.854369E-2,-7.089497E-1,1.3021873E0,1.9638227E-1,-9.7894967E-1,5.959772E-2,3.9738747E-1,-4.7055446E-2,1.2862258E0,-1.0577024E0,2.513337E-1,7.047056E-1,-8.470731E-1,2.6094131E-2,-1.0857704E-2,1.44133E-2,4.73309E-2,-3.262852E-2,-8.954628E-3,3.2936938E-2,-8.637961E-3,2.5098616E-2,-1.9319415E-2,-3.2137293E-2,-1.3089669E-2],"categories":[],"categories_nodes":[],"categories_segments":[],"categories_sizes":[],"default_left":[0,0,0,0,0,0,0,0,0,0,0,0,0,0,0,0,0,0,0,0,0,0,0,0,0],"id":4,"left_children":[1,3,5,7,9,-1,11,13,15,17,19,21,23,-1,-1,-1,-1,-1,-1,-1,-1,-1,-1,-1,-1],"loss_changes":[1.6048647E2,2.5953106E1,3.8619453E1,6.7045946E0,8.147194E0,0E0,1.1556711E1,6.502877E0,3.241892E-1,1.416069E0,2.9191096E0,4.724617E0,9.698057E-2,0E0,0E0,0E0,0E0,0E0,0E0,0E0,0E0,0E0,0E0,0E0,0E0],"parents":[2147483647,0,0,1,1,2,2,3,3,4,4,6,6,7,7,8,8,9,9,10,10,11,11,12,12],"right_children":[2,4,6,8,10,-1,12,14,16,18,20,22,24,-1,-1,-1,-1,-1,-1,-1,-1,-1,-1,-1,-1],"split_conditions":[1E0,-6.1541224E-1,3E0,4E0,3.9835835E-1,5.959772E-2,-1.761643E-1,-1.4009732E0,5E0,3E0,4.9755055E-1,5.088301E-1,-5.5192244E-1,2.6094131E-2,-1.0857704E-2,1.44133E-2,4.73309E-2,-3.262852E-2,-8.954628E-3,3.2936938E-2,-8.637961E-3,2.5098616E-2,-1.9319415E-2,-3.2137293E-2,-1.3089669E-2],"split_indices":[2,12,4,1,6,0,6,12,1,1,6,5,8,0,0,0,0,0,0,0,0,0,0,0,0],"split_type":[0,0,0,0,0,0,0,0,0,0,0,0,0,0,0,0,0,0,0,0,0,0,0,0,0],"sum_hessian":[1.6702736E2,1.0438746E2,6.2639904E1,2.4042763E1,8.0344696E1,3.49828E1,2.7657103E1,2.0435026E1,3.6077366E0,7.564292E1,4.70177E0,2.252765E1,5.1294527E0,4.773295E0,1.5661732E1,1.6618445E0,1.9458921E0,7.235923E1,3.2836895E0,1.4264889E0,3.2752807E0,2.0866386E1,1.6612633E0,2.278133E0,2.8513196E0],"tree_param":{"num_deleted":"0","num_feature":"13","num_nodes":"25","size_leaf_vector":"1"}},{"base_weights":[-6.0635146E-2,-9.342939E-1,1.0959768E0,-1.105214E0,-2.3438859E-1,1.3705442E0,-7.3949605E-1,-1.1440339E0,5.1647876E-3,9.21139E-2,-2.9837737E-2,1.5025138E0,-1.5813354E-1,3.766051E-2,-1.1602621E0,-3.0663174E-2,-4.0420007E-2,2.514325E-2,-7.922591E-3,5.8644626E-2,2.5413629E-2,-2.694628E-2,2.3464786E-2,-3.9742816E-2,-1.0875267E-2],"categories":[],"categories_nodes":[],"categories_segments":[],"categories_sizes":[],"default_left":[0,0,0,0,0,0,0,0,0,0,0,0,0,0,0,0,0,0,0,0,0,0,0,0,0],"id":5,"left_children":[1,3,5,7,9,11,13,15,-1,17,-1,19,21,-1,23,-1,-1,-1,-1,-1,-1,-1,-1,-1,-1],"loss_changes":[1.696706E2,1.117955E1,3.743911E1,3.994461E0,5.0648346E0,1.2992325E1,9.896116E0,4.684372E-1,0E0,4.1890426E0,0E0,1.5624863E1,4.828534E0,0E0,6.775999E-1,0E0,0E0,0E0,0E0,0E0,0E0,0E0,0E0,0E0,0E0],"parents":[2147483647,0,0,1,1,2,2,3,3,4,4,5,5,6,6,7,7,9,9,11,11,12,12,14,14],"right_children":[2,4,6,8,10,12,14,16,-1,18,-1,20,22,-1,24,-1,-1,-1,-1,-1,-1,-1,-1,-1,-1],"split_conditions":[1E0,7.5653476E-1,1.9184865E0,3.8292274E0,-3.9545512E-1,4E0,3E0,-6.21818E-1,5.1647876E-3,9.8139584E-1,-2.9837737E-2,3E0,4.090529E-1,3.766051E-2,-5.5192244E-1,-3.0663174E-2,-4.0420007E-2,2.514325E-2,-7.922591E-3,5.8644626E-2,2.5413629E-2,-2.694628E-2,2.3464786E-2,-3.9742816E-2,-1.0875267E-2],"split_indices":[0,8,9,11,12,0,4,7,0,8,0,4,7,0,8,0,0,0,0,0,0,0,0,0,0],"split_type":[0,0,0,0,0,0,0,0,0,0,0,0,0,0,0,0,0,0,0,0,0,0,0,0,0],"sum_hessian":[1.6589684E2,9.461822E1,7.1278625E1,7.5581726E1,1.9036493E1,6.2223892E1,9.054733E0,7.345381E1,2.1279097E0,1.3931728E1,5.104764E0,5.7294792E1,4.929101E0,1.2317127E0,7.8230205E0,4.9683765E1,2.3770048E1,4.065141E0,9.866588E0,3.272652E1,2.4568272E1,2.783248E0,2.1458528E0,5.937981E0,1.8850392E0],"tree_param":{"num_deleted":"0","num_feature":"13","num_nodes":"25","size_leaf_vector":"1"}},{"base_weights":[4.2124718E-4,-8.1168026E-1,1.0656345E0,-9.590981E-1,-1.0812684E-2,1.2521769E0,-3.767392E-2,-9.928103E-1,4.7998307E-3,3.9078128E-1,-3.030815E-2,1.6582439E0,6.299418E-1,4.938846E-4,-3.0554093E-2,3.4038987E-2,-1.2113346E-2,5.7724543E-2,-4.629038E-3,2.3269726E-2,-3.0612445E-2],"categories":[],"categories_nodes":[],"categories_segments":[],"categories_sizes":[],"default_left":[0,0,0,0,0,0,0,0,0,0,0,0,0,0,0,0,0,0,0,0,0],"id":6,"left_children":[1,3,5,7,9,11,-1,13,-1,15,-1,17,19,-1,-1,-1,-1,-1,-1,-1,-1],"loss_changes":[1.4045872E2,1.0866737E1,3.1988861E1,3.0938873E0,6.549398E0,1.5508934E1,0E0,1.976181E0,0E0,7.3493614E0,0E0,1.9108643E1,7.4008694E0,0E0,0E0,0E0,0E0,0E0,0E0,0E0,0E0],"parents":[2147483647,0,0,1,1,2,2,3,3,4,4,5,5,7,7,9,9,11,11,12,12],"right_children":[2,4,6,8,10,12,-1,14,-1,16,-1,18,20,-1,-1,-1,-1,-1,-1,-1,-1],"split_conditions":[1E0,2E0,2.3598726E0,3.8292274E0,-3.3261025E-1,3E0,-3.767392E-2,-8.353693E-1,4.7998307E-3,1.1204603E0,-3.030815E-2,4E0,5.458922E-1,4.938846E-4,-3.0554093E-2,3.4038987E-2,-1.2113346E-2,5.7724543E-2,-4.629038E-3,2.3269726E-2,-3.0612445E-2],"split_indices":[0,1,11,11,12,4,0,12,0,8,0,0,5,0,0,0,0,0,0,0,0],"split_type":[0,0,0,0,0,0,0,0,0,0,0,0,0,0,0,0,0,0,0,0,0],"sum_hessian":[1.6036865E2,9.113035E1,6.9238304E1,7.6796616E1,1.4333733E1,6.451472E1,4.723581E0,7.466035E1,2.136272E0,1.0659594E1,3.6741388E0,3.803096E1,2.648376E1,1.8599697E0,7.280038E1,5.284418E0,5.375176E0,3.311176E1,4.919201E0,2.4822134E1,1.6616266E0],"tree_param":{"num_deleted":"0","num_feature":"13","num_nodes":"21","size_leaf_vector":"1"}},{"base_weights":[-6.4404807E-3,-8.025413E-1,1.008395E0,-3.0069228E-2,-2.366425E-1,1.2077265E0,-3.7981033E-2,4.922874E-1,-4.814378E-1,1.5487742E0,6.452953E-1,3.4686603E-2,-2.1545757E-2,-2.9195862E-2,-4.1780774E-3,5.302863E-2,-6.313251E-3,4.455718E-2,1.2842406E-2],"categories":[],"categories_nodes":[],"categories_segments":[],"categories_sizes":[],"default_left":[0,0,0,0,0,0,0,0,0,0,0,0,0,0,0,0,0,0,0],"id":7,"left_children":[1,3,5,-1,7,9,-1,11,13,15,17,-1,-1,-1,-1,-1,-1,-1,-1],"loss_changes":[1.3338351E2,1.0221344E1,3.443454E1,0E0,4.777665E0,1.1899025E1,0E0,6.369111E0,3.1548476E0,1.6213226E1,4.3081245E0,0E0,0E0,0E0,0E0,0E0,0E0,0E0,0E0],"parents":[2147483647,0,0,1,1,2,2,4,4,5,5,7,7,8,8,9,9,10,10],"right_children":[2,4,6,-1,8,10,-1,12,14,16,18,-1,-1,-1,-1,-1,-1,-1,-1],"split_conditions":[1E0,-1.1914871E-1,2.3598726E0,-3.0069228E-2,-3.0354274E-2,3E0,-3.7981033E-2,-5.368561E-1,4.0951073E-1,4E0,-1.6407696E0,3.4686603E-2,-2.1545757E-2,-2.9195862E-2,-4.1780774E-3,5.302863E-2,-6.313251E-3,4.455718E-2,1.2842406E-2],"split_indices":[0,6,11,0,6,4,0,12,6,0,5,0,0,0,0,0,0,0,0],"split_type":[0,0,0,0,0,0,0,0,0,0,0,0,0,0,0,0,0,0,0],"sum_hessian":[1.6309502E2,9.151448E1,7.1580536E1,6.706786E1,2.4446619E1,6.6243904E1,5.3366323E0,5.8917294E0,1.855489E1,4.0146248E1,2.6097652E1,3.8337762E0,2.0579534E0,6.8565693E0,1.169832E1,3.5700344E1,4.4459043E0,4.162836E0,2.1934816E1],"tree_param":{"num_deleted":"0","num_feature":"13","num_nodes":"19","size_leaf_vector":"1"}},{"base_weights":[-5.218265E-3,-8.0278397E-1,9.810866E-1,-9.8102885E-1,-6.272433E-4,1.1680925E0,-3.744799E-2,-1.0279286E0,9.838662E-3,3.407705E-1,-6.065323E-1,1.520122E0,6.032596E-1,-3.1639043E-2,-1.329856E-2,-3.2245729E-3,2.8178617E-2,3.0642317E-3,-2.5703892E-2,5.1686864E-2,-2.631621E-3,2.8022753E-2,-3.668904E-3],"categories":[],"categories_nodes":[],"categories_segments":[],"categories_sizes":[],"default_left":[0,0,0,0,0,0,0,0,0,0,0,0,0,0,0,0,0,0,0,0,0,0,0],"id":8,"left_children":[1,3,5,7,9,11,-1,13,-1,15,17,19,21,-1,-1,-1,-1,-1,-1,-1,-1,-1,-1],"loss_changes":[1.3155028E2,1.3219078E1,3.263012E1,4.981209E0,3.8908246E0,1.2902336E1,0E0,6.765518E-1,0E0,3.328988E0,1.2896929E0,1.3895775E1,6.917553E0,0E0,0E0,0E0,0E0,0E0,0E0,0E0,0E0,0E0,0E0],"parents":[2147483647,0,0,1,1,2,2,3,3,4,4,5,5,7,7,9,9,10,10,11,11,12,12],"right_children":[2,4,6,8,10,12,-1,14,-1,16,18,20,22,-1,-1,-1,-1,-1,-1,-1,-1,-1,-1],"split_conditions":[1E0,1E0,2.3598726E0,3.8292274E0,1.027699E0,3E0,-3.744799E-2,9.240108E-1,9.838662E-3,4E0,9.8139584E-1,4E0,-5.196027E-1,-3.1639043E-2,-1.329856E-2,-3.2245729E-3,2.8178617E-2,3.0642317E-3,-2.5703892E-2,5.1686864E-2,-2.631621E-3,2.8022753E-2,-3.668904E-3],"split_indices":[0,1,11,11,5,4,0,8,0,1,8,0,8,0,0,0,0,0,0,0,0,0,0],"split_type":[0,0,0,0,0,0,0,0,0,0,0,0,0,0,0,0,0,0,0,0,0,0,0],"sum_hessian":[1.6522874E2,9.1458115E1,7.377064E1,7.464785E1,1.6810268E1,6.85006E1,5.2700295E0,7.227308E1,2.3747659E0,1.1031911E1,5.778356E0,4.1157867E1,2.7342737E1,6.834712E1,3.925963E0,6.7768416E0,4.2550697E0,1.6625053E0,4.115851E0,3.6484997E1,4.672872E0,1.8582333E1,8.760405E0],"tree_param":{"num_deleted":"0","num_feature":"13","num_nodes":"23","size_leaf_vector":"1"}},{"base_weights":[1.5882077E-2,-7.752312E-1,9.9185264E-1,-9.921371E-1,1.7548083E-1,1.1458454E0,-3.5631076E-2,-1.0285915E0,4.6358285E-3,4.7978947E-1,-4.1451707E-1,7.4953616E-1,1.5912215E0,-3.151268E-2,-1.0707539E-2,-2.078143E-2,2.3565171E-2,-1.9482484E-2,5.672224E-3,2.54501E-2,-2.8262276E-2,5.0895568E-2,1.4092149E-2],"categories":[],"categories_nodes":[],"categories_segments":[],"categories_sizes":[],"default_left":[0,0,0,0,0,0,0,0,0,0,0,0,0,0,0,0,0,0,0,0,0,0,0],"id":9,"left_children":[1,3,5,7,9,11,-1,13,-1,15,17,19,21,-1,-1,-1,-1,-1,-1,-1,-1,-1,-1],"loss_changes":[1.2622252E2,1.8795635E1,2.5923203E1,3.2387009E0,3.36327E0,1.0961761E1,0E0,6.740875E-1,0E0,4.878221E0,1.0491636E0,7.2050705E0,2.926773E0,0E0,0E0,0E0,0E0,0E0,0E0,0E0,0E0,0E0,0E0],"parents":[2147483647,0,0,1,1,2,2,3,3,4,4,5,5,7,7,9,9,10,10,11,11,12,12],"right_children":[2,4,6,8,10,12,-1,14,-1,16,18,20,22,-1,-1,-1,-1,-1,-1,-1,-1,-1,-1],"split_conditions":[1E0,1E0,2.3598726E0,3.8292274E0,1.027699E0,-1.3315056E-1,-3.5631076E-2,9.240108E-1,4.6358285E-3,5.1273454E-2,1E0,4E0,4E0,-3.151268E-2,-1.0707539E-2,-2.078143E-2,2.3565171E-2,-1.9482484E-2,5.672224E-3,2.54501E-2,-2.8262276E-2,5.0895568E-2,1.4092149E-2],"split_indices":[0,1,11,11,5,6,0,8,0,8,3,0,0,0,0,0,0,0,0,0,0,0,0],"split_type":[0,0,0,0,0,0,0,0,0,0,0,0,0,0,0,0,0,0,0,0,0,0,0],"sum_hessian":[1.6148294E2,8.930155E1,7.218138E1,7.267672E1,1.6624838E1,6.786105E1,4.3203297E0,7.053719E1,2.1395264E0,1.1091083E1,5.533755E0,3.73282E1,3.0532846E1,6.777056E1,2.766628E0,2.0319884E0,9.059094E0,3.9288478E0,1.6049068E0,3.573931E1,1.5888902E0,2.7443401E1,3.089445E0],"tree_param":{"num_deleted":"0","num_feature":"13","num_nodes":"23","size_leaf_vector":"1"}},{"base_weights":[1.2027571E-3,-7.8421193E-1,9.4601625E-1,-9.7160226E-1,-4.111387E-2,1.1004082E0,-3.545712E-2,-1.0087993E0,4.5378874E-3,4.22185E-1,-8.137595E-1,1.5737976E0,6.525211E-1,-3.084678E-2,-6.827202E-4,2.5371581E-2,-2.4748351E-2,-3.6471676E-2,-3.128111E-3,4.9204566E-2,9.459666E-3,1.1467939E-2,4.4128317E-2],"categories":[],"categories_nodes":[],"categories_segments":[],"categories_sizes":[],"default_left":[0,0,0,0,0,0,0,0,0,0,0,0,0,0,0,0,0,0,0,0,0,0,0],"id":10,"left_children":[1,3,5,7,9,11,-1,13,-1,15,17,19,21,-1,-1,-1,-1,-1,-1,-1,-1,-1,-1],"loss_changes":[1.20650276E2,1.2323044E1,2.5547432E1,3.1121902E0,7.1177497E0,1.3672455E1,0E0,1.2929077E0,0E0,7.294263E0,1.99372E0,2.2382126E0,7.694977E0,0E0,0E0,0E0,0E0,0E0,0E0,0E0,0E0,0E0,0E0],"parents":[2147483647,0,0,1,1,2,2,3,3,4,4,5,5,7,7,9,9,10,10,11,11,12,12],"right_children":[2,4,6,8,10,12,-1,14,-1,16,18,20,22,-1,-1,-1,-1,-1,-1,-1,-1,-1,-1],"split_conditions":[1E0,7.022682E-1,2.3598726E0,3.8292274E0,1.3836744E0,-3.640327E-1,-3.545712E-2,3E0,4.5378874E-3,-3.3261025E-1,1.0926151E0,4E0,2.0122866E-1,-3.084678E-2,-6.827202E-4,2.5371581E-2,-2.4748351E-2,-3.6471676E-2,-3.128111E-3,4.9204566E-2,9.459666E-3,1.1467939E-2,4.4128317E-2],"split_indices":[0,8,11,11,8,12,0,1,0,12,6,0,8,0,0,0,0,0,0,0,0,0,0],"split_type":[0,0,0,0,0,0,0,0,0,0,0,0,0,0,0,0,0,0,0,0,0,0,0],"sum_hessian":[1.605863E2,8.778305E1,7.280325E1,6.985892E1,1.7924131E1,6.832853E1,4.4747252E0,6.771723E1,2.1416821E0,1.1488754E1,6.435377E0,3.1996424E1,3.6332104E1,6.636691E1,1.3503187E0,8.816481E0,2.6722732E0,3.652516E0,2.782861E0,3.0105776E1,1.8906479E0,2.8415817E1,7.9162865E0],"tree_param":{"num_deleted":"0","num_feature":"13","num_nodes":"23","size_leaf_vector":"1"}},{"base_weights":[1.4068389E-2,-7.672981E-1,9.8334134E-1,-9.475551E-1,1.3034142E-2,1.5293303E0,2.1543324E-1,-1.000641E0,1.603424E-1,7.1502006E-1,-5.5919176E-1,4.898841E-2,3.6178827E-1,5.809795E-1,-9.502131E-1,-3.2216135E-2,-2.3764573E-2,2.6954576E-2,-1.26376E-2,3.4622114E-2,-1.8451001E-2,-1.9360563E-2,2.2931104E-3,-1.4994223E-2,2.577912E-2,2.1525638E-2,-2.9279351E-2,-6.4965244E-3,-3.5579845E-2],"categories":[],"categories_nodes":[],"categories_segments":[],"categories_sizes":[],"default_left":[0,0,0,0,0,0,0,0,0,0,0,0,0,0,0,0,0,0,0,0,0,0,0,0,0,0,0,0,0],"id":11,"left_children":[1,3,5,7,9,11,13,15,17,19,21,-1,23,25,27,-1,-1,-1,-1,-1,-1,-1,-1,-1,-1,-1,-1,-1,-1],"loss_changes":[1.2571741E2,1.2941311E1,3.0731033E1,4.5527344E0,7.724624E0,4.6273804E0,1.4165395E1,2.3950958E-1,2.2144783E0,5.7480545E0,6.302304E-1,0E0,2.487293E0,6.002742E0,1.1282005E0,0E0,0E0,0E0,0E0,0E0,0E0,0E0,0E0,0E0,0E0,0E0,0E0,0E0,0E0],"parents":[2147483647,0,0,1,1,2,2,3,3,4,4,5,5,6,6,7,7,8,8,9,9,10,10,12,12,13,13,14,14],"right_children":[2,4,6,8,10,12,14,16,18,20,22,-1,24,26,28,-1,-1,-1,-1,-1,-1,-1,-1,-1,-1,-1,-1,-1,-1],"split_conditions":[1E0,9.240108E-1,3E0,1.0509781E0,1.1204603E0,4E0,2.4187079E-1,5.472181E-1,1.1320136E0,-3.3261025E-1,2.1158752E0,4.898841E-2,4.090529E-1,5.458922E-1,2.3598726E0,-3.2216135E-2,-2.3764573E-2,2.6954576E-2,-1.26376E-2,3.4622114E-2,-1.8451001E-2,-1.9360563E-2,2.2931104E-3,-1.4994223E-2,2.577912E-2,2.1525638E-2,-2.9279351E-2,-6.4965244E-3,-3.5579845E-2],"split_indices":[0,8,4,7,8,0,7,12,7,12,8,0,7,5,11,0,0,0,0,0,0,0,0,0,0,0,0,0,0],"split_type":[0,0,0,0,0,0,0,0,0,0,0,0,0,0,0,0,0,0,0,0,0,0,0,0,0,0,0,0,0],"sum_hessian":[1.6399858E2,9.091613E1,7.308245E1,7.36814E1,1.7234728E1,4.2133575E1,3.0948874E1,7.040471E1,3.276691E0,7.6277456E0,9.606982E0,3.833299E1,3.8005848E0,2.3942192E1,7.006681E0,4.903184E1,2.1372868E1,1.2038888E0,2.0728023E0,5.8341928E0,1.7935532E0,8.446721E0,1.1602615E0,1.3895543E0,2.4110305E0,2.2507486E1,1.4347055E0,2.1707082E0,4.835973E0],"tree_param":{"num_deleted":"0","num_feature":"13","num_nodes":"29","size_leaf_vector":"1"}},{"base_weights":[1.3261222E-2,5.118081E-1,-4.486766E-1,6.5447396E-1,-3.634054E-2,-7.5214344E-1,-4.2199045E-2,1.155804E0,2.718048E-1,-6.488668E-1,-1.0474921E0,6.76467E-2,-8.966695E-1,3.771668E-2,1.0577292E-3,-2.2653285E-3,2.4634184E-2,-2.5606366E-2,6.996062E-4,-3.3054292E-2,-8.336787E-3,-3.3924187E-4,3.0226167E-2,-7.0923325E-3,-3.0945621E-2],"categories":[],"categories_nodes":[],"categories_segments":[],"categories_sizes":[],"default_left":[0,0,0,0,0,0,0,0,0,0,0,0,0,0,0,0,0,0,0,0,0,0,0,0,0],"id":12,"left_children":[1,3,5,7,-1,9,11,13,15,17,19,21,23,-1,-1,-1,-1,-1,-1,-1,-1,-1,-1,-1,-1],"loss_changes":[3.8325264E1,2.0465618E1,1.0625282E1,1.3988661E1,0E0,8.273239E-1,3.626309E0,3.5884209E0,8.37838E0,5.417734E0,1.6085243E-1,2.5783978E0,1.4767647E-1,0E0,0E0,0E0,0E0,0E0,0E0,0E0,0E0,0E0,0E0,0E0,0E0],"parents":[2147483647,0,0,1,1,2,2,3,3,5,5,6,6,7,7,8,8,9,9,10,10,11,11,12,12],"right_children":[2,4,6,8,-1,10,12,14,16,18,20,22,24,-1,-1,-1,-1,-1,-1,-1,-1,-1,-1,-1,-1],"split_conditions":[-1.7549804E-1,2.3598726E0,-4.3676212E-1,-8.0394685E-1,-3.634054E-2,2.4939565E-1,1.7098484E0,1.9184865E0,1E0,5.472181E-1,2.2878091E0,4E0,-3.5828093E-1,3.771668E-2,1.0577292E-3,-2.2653285E-3,2.4634184E-2,-2.5606366E-2,6.996062E-4,-3.3054292E-2,-8.336787E-3,-3.3924187E-4,3.0226167E-2,-7.0923325E-3,-3.0945621E-2],"split_indices":[12,11,6,12,0,5,12,9,3,12,5,1,6,0,0,0,0,0,0,0,0,0,0,0,0],"split_type":[0,0,0,0,0,0,0,0,0,0,0,0,0,0,0,0,0,0,0,0,0,0,0,0,0],"sum_hessian":[1.6441908E2,7.9024185E1,8.53949E1,7.355456E1,5.469626E0,4.8405823E1,3.698908E1,3.0966005E1,4.2588554E1,3.8233425E1,1.0172398E1,3.359157E1,3.3975046E0,2.8284092E1,2.6819131E0,2.66204E1,1.5968153E1,2.910212E1,9.131305E0,9.098562E0,1.073835E0,3.1899826E1,1.691746E0,1.0431519E0,2.3543527E0],"tree_param":{"num_deleted":"0","num_feature":"13","num_nodes":"25","size_leaf_vector":"1"}},{"base_weights":[-4.578969E-2,-6.5520644E-1,9.52434E-1,2.5888345E-1,-8.2637393E-1,1.6135598E0,7.7131875E-2,5.7736665E-1,-3.1072758E-2,-8.924226E-1,-1.2398785E-1,4.9795143E-2,2.1174623E-2,3.448578E-1,-2.8552165E-2,3.3399306E-2,-1.672602E-2,-2.7951123E-2,5.466364E-3,2.8598754E-2,-1.7225692E-2,1.349703E-2,-1.88846E-2],"categories":[],"categories_nodes":[],"categories_segments":[],"categories_sizes":[],"default_left":[0,0,0,0,0,0,0,0,0,0,0,0,0,0,0,0,0,0,0,0,0,0,0],"id":13,"left_children":[1,3,5,7,9,11,13,15,-1,17,19,-1,-1,21,-1,-1,-1,-1,-1,-1,-1,-1,-1],"loss_changes":[1.0049377E2,1.6255905E1,3.612438E1,7.579616E0,3.9067192E0,3.2546234E-1,8.042136E0,9.27691E0,0E0,3.50428E0,4.7205143E0,0E0,0E0,2.6326988E0,0E0,0E0,0E0,0E0,0E0,0E0,0E0,0E0,0E0],"parents":[2147483647,0,0,1,1,2,2,3,3,4,4,5,5,6,6,7,7,9,9,10,10,13,13],"right_children":[2,4,6,8,10,12,14,16,-1,18,20,-1,-1,22,-1,-1,-1,-1,-1,-1,-1,-1,-1],"split_conditions":[1E0,-8.0394685E-1,3E0,2.3598726E0,1.0249488E0,1.6251954E0,-1.761643E-1,1.1204603E0,-3.1072758E-2,3.8292274E0,1.1204603E0,4.9795143E-2,2.1174623E-2,5.458922E-1,-2.8552165E-2,3.3399306E-2,-1.672602E-2,-2.7951123E-2,5.466364E-3,2.8598754E-2,-1.7225692E-2,1.349703E-2,-1.88846E-2],"split_indices":[2,12,4,11,8,11,6,8,0,11,8,0,0,5,0,0,0,0,0,0,0,0,0],"split_type":[0,0,0,0,0,0,0,0,0,0,0,0,0,0,0,0,0,0,0,0,0,0,0],"sum_hessian":[1.6316919E2,1.0152915E2,6.164004E1,1.5932419E1,8.559673E1,3.463579E1,2.700425E1,1.3231492E1,2.700926E0,7.7992195E1,7.6045394E0,3.2167297E1,2.4684954E0,2.195586E1,5.048389E0,9.000253E0,4.23124E0,7.537017E1,2.6220243E0,1.9119627E0,5.692577E0,2.0305044E1,1.6508162E0],"tree_param":{"num_deleted":"0","num_feature":"13","num_nodes":"23","size_leaf_vector":"1"}},{"base_weights":[2.6918922E-2,-7.029654E-1,8.9243823E-1,-8.874037E-1,6.617607E-2,1.1193407E0,-6.0815275E-1,-9.208806E-1,4.133205E-3,4.320451E-1,-3.6211026E-1,1.3150384E0,1.3051221E-1,-9.4012034E-1,3.1093432E-2,-3.103256E-2,-2.2657752E-2,-1.2806336E-2,1.7721325E-2,-2.8824536E-2,-2.9975118E-3,4.1602697E-2,6.7565623E-3,-1.0782735E-2,1.3971201E-2,-3.4458186E-2,-4.756702E-3],"categories":[],"categories_nodes":[],"categories_segments":[],"categories_sizes":[],"default_left":[0,0,0,0,0,0,0,0,0,0,0,0,0,0,0,0,0,0,0,0,0,0,0,0,0,0,0],"id":14,"left_children":[1,3,5,7,9,11,13,15,-1,17,19,21,23,25,-1,-1,-1,-1,-1,-1,-1,-1,-1,-1,-1,-1,-1],"loss_changes":[1.03887596E2,1.2717651E1,2.6292458E1,2.5994644E0,3.0068111E0,1.2540657E1,6.722207E0,5.33123E-1,0E0,1.651225E0,1.3049161E0,3.9653091E0,2.132062E0,1.3306942E0,0E0,0E0,0E0,0E0,0E0,0E0,0E0,0E0,0E0,0E0,0E0,0E0,0E0],"parents":[2147483647,0,0,1,1,2,2,3,3,4,4,5,5,6,6,7,7,9,9,10,10,11,11,12,12,13,13],"right_children":[2,4,6,8,10,12,14,16,-1,18,20,22,24,26,-1,-1,-1,-1,-1,-1,-1,-1,-1,-1,-1,-1,-1],"split_conditions":[1E0,1E0,1.9184865E0,3.8292274E0,-6.1541224E-1,3.2726103E-1,-2.517021E-1,-1.5828703E-1,4.133205E-3,-5.2890766E-1,-4.583E-1,4E0,-4.333499E-1,-5.5192244E-1,3.1093432E-2,-3.103256E-2,-2.2657752E-2,-1.2806336E-2,1.7721325E-2,-2.8824536E-2,-2.9975118E-3,4.1602697E-2,6.7565623E-3,-1.0782735E-2,1.3971201E-2,-3.4458186E-2,-4.756702E-3],"split_indices":[0,1,9,11,12,12,8,5,0,5,12,0,8,8,0,0,0,0,0,0,0,0,0,0,0,0,0],"split_type":[0,0,0,0,0,0,0,0,0,0,0,0,0,0,0,0,0,0,0,0,0,0,0,0,0,0,0],"sum_hessian":[1.6245656E2,8.8235886E1,7.422068E1,7.104556E1,1.7190321E1,6.469265E1,9.5280285E0,6.889747E1,2.1480935E0,9.265971E0,7.9243493E0,5.372927E1,1.0963382E1,8.284197E0,1.243831E0,3.77638E1,3.1133667E1,1.1812043E0,8.084766E0,1.6019102E0,6.322439E0,5.015616E1,3.5731106E0,4.424309E0,6.539073E0,6.168968E0,2.115229E0],"tree_param":{"num_deleted":"0","num_feature":"13","num_nodes":"27","size_leaf_vector":"1"}},{"base_weights":[-3.4210477E-2,-7.590831E-1,8.1048244E-1,7.224143E-2,-8.6677665E-1,1.369269E0,1.3125063E-1,-1.8924023E-1,3.469862E-2,-8.909657E-1,6.854573E-3,4.7219124E-2,-2.3378567E-1,5.459751E-1,-1.0169504E0,-1.15226E-2,1.3804294E-2,-2.8295495E-2,-9.140078E-3,-3.2001358E-2,2.0804232E-2,3.1104801E-2,-7.071785E-5,-3.758426E-2,-3.5192862E-3],"categories":[],"categories_nodes":[],"categories_segments":[],"categories_sizes":[],"default_left":[0,0,0,0,0,0,0,0,0,0,0,0,0,0,0,0,0,0,0,0,0,0,0,0,0],"id":15,"left_children":[1,3,5,7,9,11,13,15,-1,17,-1,-1,19,21,23,-1,-1,-1,-1,-1,-1,-1,-1,-1,-1],"loss_changes":[9.811951E1,7.7814445E0,2.7917019E1,3.284298E0,2.2278137E0,1.3660812E1,1.6992569E1,1.3876271E0,0E0,2.0074997E0,0E0,0E0,4.9549217E0,7.002965E0,1.8707075E0,0E0,0E0,0E0,0E0,0E0,0E0,0E0,0E0,0E0,0E0],"parents":[2147483647,0,0,1,1,2,2,3,3,4,4,5,5,6,6,7,7,9,9,12,12,13,13,14,14],"right_children":[2,4,6,8,10,12,14,16,-1,18,-1,-1,20,22,24,-1,-1,-1,-1,-1,-1,-1,-1,-1,-1],"split_conditions":[1E0,-7.41102E-1,3E0,5E0,3.8292274E0,4E0,1.9184865E0,8.90518E-1,3.469862E-2,3E0,6.854573E-3,4.7219124E-2,9.8139584E-1,-1.440756E-1,-5.5192244E-1,-1.15226E-2,1.3804294E-2,-2.8295495E-2,-9.140078E-3,-3.2001358E-2,2.0804232E-2,3.1104801E-2,-7.071785E-5,-3.758426E-2,-3.5192862E-3],"split_indices":[0,12,4,1,11,0,9,11,0,1,0,0,8,12,8,0,0,0,0,0,0,0,0,0,0],"split_type":[0,0,0,0,0,0,0,0,0,0,0,0,0,0,0,0,0,0,0,0,0,0,0,0,0],"sum_hessian":[1.5824402E2,8.5216705E1,7.3027306E1,9.811037E0,7.540567E1,3.9508648E1,3.3518658E1,8.569997E0,1.24104E0,7.395881E1,1.4468634E0,3.5050964E1,4.457685E0,2.5009756E1,8.5089035E0,6.9063067E0,1.6636903E0,6.735154E1,6.607268E0,2.2690675E0,2.1886177E0,1.2726489E1,1.2283267E1,6.430466E0,2.078437E0],"tree_param":{"num_deleted":"0","num_feature":"13","num_nodes":"25","size_leaf_vector":"1"}},{"base_weights":[5.500233E-2,-6.277941E-1,8.661295E-1,-8.378368E-1,-6.461579E-2,1.0638087E0,-5.27443E-1,-7.2519886E-1,-3.281272E-2,1.6331914E-1,-2.637507E-2,1.1389751E0,-2.4096722E-2,-3.2842882E-2,5.293799E-1,-2.6342224E-2,-6.1969943E-3,-2.7843926E-2,1.2839549E-2,4.5216747E-2,2.6302837E-2,3.2921292E-2,-2.7576217E-3],"categories":[],"categories_nodes":[],"categories_segments":[],"categories_sizes":[],"default_left":[0,0,0,0,0,0,0,0,0,0,0,0,0,0,0,0,0,0,0,0,0,0,0],"id":16,"left_children":[1,3,5,7,9,11,13,15,-1,17,-1,19,-1,-1,21,-1,-1,-1,-1,-1,-1,-1,-1],"loss_changes":[8.997533E1,1.038554E1,2.1008106E1,1.0573616E0,4.7958736E0,1.0083702E1,6.5086718E0,3.5882397E0,0E0,6.2965407E0,0E0,4.782959E0,0E0,0E0,1.5577661E0,0E0,0E0,0E0,0E0,0E0,0E0,0E0,0E0],"parents":[2147483647,0,0,1,1,2,2,3,3,4,4,5,5,6,6,7,7,9,9,11,11,14,14],"right_children":[2,4,6,8,10,12,14,16,-1,18,-1,20,-1,-1,22,-1,-1,-1,-1,-1,-1,-1,-1],"split_conditions":[1E0,-1.1914871E-1,1.9184865E0,2.4939565E-1,1.4353817E0,1.5213138E0,-5.5192244E-1,-1.5828703E-1,-3.281272E-2,-3.4359735E-1,-2.637507E-2,-6.468347E-1,-2.4096722E-2,-3.2842882E-2,-1.2124386E0,-2.6342224E-2,-6.1969943E-3,-2.7843926E-2,1.2839549E-2,4.5216747E-2,2.6302837E-2,3.2921292E-2,-2.7576217E-3],"split_indices":[0,6,9,5,5,12,8,5,0,5,0,12,0,0,12,0,0,0,0,0,0,0,0],"split_type":[0,0,0,0,0,0,0,0,0,0,0,0,0,0,0,0,0,0,0,0,0,0,0],"sum_hessian":[1.6047702E2,8.725386E1,7.322315E1,6.319645E1,2.4057415E1,6.433397E1,8.889183E0,4.6544548E1,1.66519E1,1.9422071E1,4.635344E0,6.2218998E1,2.114972E0,5.760794E0,3.1283884E0,3.541295E1,1.1131599E1,3.3012621E0,1.612081E1,2.390252E1,3.831648E1,1.234001E0,1.8943874E0],"tree_param":{"num_deleted":"0","num_feature":"13","num_nodes":"23","size_leaf_vector":"1"}},{"base_weights":[2.4036618E-2,-6.4003116E-1,8.116352E-1,-7.9275584E-1,1.2917096E-3,1.0051693E0,-5.8747315E-1,-8.2913786E-1,8.849982E-3,6.216497E-1,-4.6626285E-1,4.9421686E-1,1.3658277E0,3.0013267E-2,-9.419303E-1,-2.1105804E-2,-3.4290876E-2,3.1475373E-2,-1.7540365E-2,-3.687152E-3,-2.755679E-2,1.7776864E-2,-2.5827786E-2,4.214832E-2,1.680316E-2,-3.5589606E-2,-6.206796E-3],"categories":[],"categories_nodes":[],"categories_segments":[],"categories_sizes":[],"default_left":[0,0,0,0,0,0,0,0,0,0,0,0,0,0,0,0,0,0,0,0,0,0,0,0,0,0,0],"id":17,"left_children":[1,3,5,7,9,11,13,15,-1,17,19,21,23,-1,25,-1,-1,-1,-1,-1,-1,-1,-1,-1,-1,-1,-1],"loss_changes":[8.428276E1,8.566395E0,2.054757E1,3.039833E0,5.4580574E0,1.1324516E1,6.338594E0,1.9009476E0,0E0,4.783907E0,1.553761E0,4.3098655E0,3.982849E-1,0E0,1.2550354E0,0E0,0E0,0E0,0E0,0E0,0E0,0E0,0E0,0E0,0E0,0E0,0E0],"parents":[2147483647,0,0,1,1,2,2,3,3,4,4,5,5,6,6,7,7,9,9,10,10,11,11,12,12,14,14],"right_children":[2,4,6,8,10,12,14,16,-1,18,20,22,24,-1,26,-1,-1,-1,-1,-1,-1,-1,-1,-1,-1,-1,-1],"split_conditions":[1E0,9.240108E-1,1.9184865E0,3E0,1.1204603E0,-1.6396022E-1,3E0,2.4939565E-1,8.849982E-3,1.6948161E0,1.027699E0,4E0,4E0,3.0013267E-2,-5.5192244E-1,-2.1105804E-2,-3.4290876E-2,3.1475373E-2,-1.7540365E-2,-3.687152E-3,-2.755679E-2,1.7776864E-2,-2.5827786E-2,4.214832E-2,1.680316E-2,-3.5589606E-2,-6.206796E-3],"split_indices":[0,8,9,1,8,7,4,5,0,5,5,0,0,0,8,0,0,0,0,0,0,0,0,0,0,0,0],"split_type":[0,0,0,0,0,0,0,0,0,0,0,0,0,0,0,0,0,0,0,0,0,0,0,0,0,0,0],"sum_hessian":[1.5915349E2,8.645005E1,7.270344E1,6.96318E1,1.681825E1,6.4116035E1,8.587399E0,6.760826E1,2.023533E0,7.086374E0,9.731877E0,2.751097E1,3.660507E1,1.2345105E0,7.3528876E0,5.060055E1,1.7007711E1,5.3282747E0,1.7580988E0,6.2551E0,3.4767773E0,2.6174189E1,1.3367795E0,3.4200966E1,2.4040997E0,5.0574083E0,2.2954793E0],"tree_param":{"num_deleted":"0","num_feature":"13","num_nodes":"27","size_leaf_vector":"1"}},{"base_weights":[-4.0881056E-2,-6.982113E-1,7.382585E-1,-8.448494E-1,-2.8671405E-1,8.783933E-1,-3.340572E-2,-7.513993E-1,-1.061492E0,6.650645E-1,-4.50433E-1,5.409038E-1,1.372432E0,-2.6734395E-2,-1.9460999E-3,-3.7642203E-2,-1.8981248E-2,3.428617E-2,-9.680214E-3,-2.2390787E-2,-4.391162E-3,1.8823469E-2,-2.8841969E-2,1.6244357E-2,4.391818E-2],"categories":[],"categories_nodes":[],"categories_segments":[],"categories_sizes":[],"default_left":[0,0,0,0,0,0,0,0,0,0,0,0,0,0,0,0,0,0,0,0,0,0,0,0,0],"id":18,"left_children":[1,3,5,7,9,11,-1,13,15,17,19,21,23,-1,-1,-1,-1,-1,-1,-1,-1,-1,-1,-1,-1],"loss_changes":[8.4575516E1,5.1606216E0,2.0594334E1,5.284653E-1,4.2010927E0,1.1067928E1,0E0,4.6609554E0,6.409645E-1,2.2936502E0,1.8666573E0,6.2895374E0,1.3438644E0,0E0,0E0,0E0,0E0,0E0,0E0,0E0,0E0,0E0,0E0,0E0,0E0],"parents":[2147483647,0,0,1,1,2,2,3,3,4,4,5,5,7,7,8,8,9,9,10,10,11,11,12,12],"right_children":[2,4,6,8,10,12,-1,14,16,18,20,22,24,-1,-1,-1,-1,-1,-1,-1,-1,-1,-1,-1,-1],"split_conditions":[1E0,-1.1914871E-1,2.3598726E0,2.4939565E-1,-1.04726285E-1,1.8445316E-1,-3.340572E-2,-1.0038786E-2,1.7098484E0,1.4353817E0,4.0951073E-1,4E0,1E0,-2.6734395E-2,-1.9460999E-3,-3.7642203E-2,-1.8981248E-2,3.428617E-2,-9.680214E-3,-2.2390787E-2,-4.391162E-3,1.8823469E-2,-2.8841969E-2,1.6244357E-2,4.391818E-2],"split_indices":[0,6,11,5,6,8,0,5,12,5,6,0,2,0,0,0,0,0,0,0,0,0,0,0,0],"split_type":[0,0,0,0,0,0,0,0,0,0,0,0,0,0,0,0,0,0,0,0,0,0,0,0,0],"sum_hessian":[1.6313107E2,8.853844E1,7.459263E1,6.4500435E1,2.4038002E1,6.983358E1,4.7590494E0,4.818425E1,1.6316189E1,3.078564E0,2.0959438E1,4.2735092E1,2.7098484E1,3.978726E1,8.396989E0,9.919363E0,6.396826E0,1.9690143E0,1.1095498E0,9.884618E0,1.10748205E1,4.0957916E1,1.7771761E0,3.374342E0,2.3724144E1],"tree_param":{"num_deleted":"0","num_feature":"13","num_nodes":"25","size_leaf_vector":"1"}},{"base_weights":[-3.1819828E-2,-6.014041E-1,8.5663795E-1,2.6992473E-1,-7.7324396E-1,1.4105041E0,1.4917007E-1,5.6845367E-1,-2.563026E-2,-8.4635216E-1,-1.21820584E-1,1.4544467E0,7.407957E-3,-2.7333143E-1,7.142691E-1,2.1025161E-3,4.0015493E-2,-2.6434563E-2,-2.3818808E-3,4.081423E-3,-2.6428895E-2,1.2429399E-2,4.438995E-2,-3.5037444E-4,-2.3032162E-2,1.250684E-2,3.7232228E-2],"categories":[],"categories_nodes":[],"categories_segments":[],"categories_sizes":[],"default_left":[0,0,0,0,0,0,0,0,0,0,0,0,0,0,0,0,0,0,0,0,0,0,0,0,0,0,0],"id":19,"left_children":[1,3,5,7,9,11,13,15,-1,17,19,21,-1,23,25,-1,-1,-1,-1,-1,-1,-1,-1,-1,-1,-1,-1],"loss_changes":[8.070347E1,1.4754044E1,2.4207031E1,6.105281E0,3.773552E0,1.4218826E0,6.995271E0,5.1823716E0,0E0,1.8789101E0,1.9564193E0,2.6203156E-1,0E0,2.1927905E0,1.4347548E0,0E0,0E0,0E0,0E0,0E0,0E0,0E0,0E0,0E0,0E0,0E0,0E0],"parents":[2147483647,0,0,1,1,2,2,3,3,4,4,5,5,6,6,7,7,9,9,10,10,11,11,13,13,14,14],"right_children":[2,4,6,8,10,12,14,16,-1,18,20,22,-1,24,26,-1,-1,-1,-1,-1,-1,-1,-1,-1,-1,-1,-1],"split_conditions":[1E0,-7.725244E-1,3E0,1.9184865E0,3E0,7.200415E-1,1E0,6.789133E-1,-2.563026E-2,1.0509781E0,1.7689402E0,-1.7890178E0,7.407957E-3,1.12780236E-1,-1.6396022E-1,2.1025161E-3,4.0015493E-2,-2.6434563E-2,-2.3818808E-3,4.081423E-3,-2.6428895E-2,1.2429399E-2,4.438995E-2,-3.5037444E-4,-2.3032162E-2,1.250684E-2,3.7232228E-2],"split_indices":[2,12,4,9,1,12,3,9,0,7,5,5,0,7,7,0,0,0,0,0,0,0,0,0,0,0,0],"split_type":[0,0,0,0,0,0,0,0,0,0,0,0,0,0,0,0,0,0,0,0,0,0,0,0,0,0,0],"sum_hessian":[1.5745871E2,9.6144325E1,6.1314384E1,1.574371E1,8.040062E1,3.3833164E1,2.7481218E1,1.2831036E1,2.9126737E0,7.201883E1,8.381792E0,3.2361057E1,1.4721094E0,1.6020018E1,1.1461201E1,8.432182E0,4.3988533E0,6.875044E1,3.2683868E0,6.8692207E0,1.5125713E0,1.1785972E0,3.1182459E1,1.1145287E1,4.8747315E0,8.470872E0,2.990329E0],"tree_param":{"num_deleted":"0","num_feature":"13","num_nodes":"27","size_leaf_vector":"1"}},{"base_weights":[5.7867352E-2,-4.404102E-1,8.1049436E-1,4.7025657E-1,-6.9712174E-1,1.3655962E0,1.1309475E-1,7.445098E-1,-2.5236214E-2,-7.720375E-1,-4.7494646E-2,4.206172E-2,1.8067708E-2,3.7608072E-1,-2.7006261E-2,3.6666982E-2,7.7653965E-3,-2.4358444E-2,-8.2531E-3,1.5396267E-2,-2.118232E-2,4.6407497E-3,2.919283E-2],"categories":[],"categories_nodes":[],"categories_segments":[],"categories_sizes":[],"default_left":[0,0,0,0,0,0,0,0,0,0,0,0,0,0,0,0,0,0,0,0,0,0,0],"id":20,"left_children":[1,3,5,7,9,11,13,15,-1,17,19,-1,-1,21,-1,-1,-1,-1,-1,-1,-1,-1,-1],"loss_changes":[5.424193E1,2.0689802E1,2.2139221E1,7.7300835E0,3.2896767E0,4.5532227E-2,7.430424E0,3.5965796E0,0E0,9.907265E-1,3.365494E0,0E0,0E0,2.7353654E0,0E0,0E0,0E0,0E0,0E0,0E0,0E0,0E0,0E0],"parents":[2147483647,0,0,1,1,2,2,3,3,4,4,5,5,6,6,7,7,9,9,10,10,13,13],"right_children":[2,4,6,8,10,12,14,16,-1,18,20,-1,-1,22,-1,-1,-1,-1,-1,-1,-1,-1,-1],"split_conditions":[1E0,-6.782571E-1,3E0,1.9184865E0,3.9835835E-1,7.200415E-1,-1.9477843E-1,-1.0553263E0,-2.5236214E-2,1E0,6.789133E-1,4.206172E-2,1.8067708E-2,-3.3614522E-1,-2.7006261E-2,3.6666982E-2,7.7653965E-3,-2.4358444E-2,-8.2531E-3,1.5396267E-2,-2.118232E-2,4.6407497E-3,2.919283E-2],"split_indices":[2,12,4,9,6,12,6,12,0,1,9,0,0,6,0,0,0,0,0,0,0,0,0],"split_type":[0,0,0,0,0,0,0,0,0,0,0,0,0,0,0,0,0,0,0,0,0,0,0],"sum_hessian":[1.4268672E2,8.609937E1,5.658735E1,1.8750698E1,6.734867E1,3.0974653E1,2.5612694E1,1.5865261E1,2.8854368E0,6.0216057E1,7.1326165E0,2.8763985E1,2.2106695E0,2.0834345E1,4.778349E0,7.23345E0,8.631811E0,5.5152626E1,5.0634303E0,3.9718251E0,3.1607914E0,1.6116873E1,4.7174706E0],"tree_param":{"num_deleted":"0","num_feature":"13","num_nodes":"23","size_leaf_vector":"1"}},{"base_weights":[1.2064027E-2,-5.251704E-1,8.56638E-1,3.3382937E-1,-7.2359335E-1,1.3246342E0,2.6235327E-1,6.30724E-1,-2.5220986E-2,-8.0682003E-1,-2.160654E-1,1.1544632E-2,1.3464361E0,4.9697968E-1,-8.3555317E-1,4.1854985E-2,6.0815355E-3,-2.5101755E-2,1.32262325E-2,8.430521E-3,-1.6520336E-2,4.1467287E-2,1.7672515E-2,2.0684656E-2,-5.8091083E-3,-8.087447E-3,-2.7743166E-2],"categories":[],"categories_nodes":[],"categories_segments":[],"categories_sizes":[],"default_left":[0,0,0,0,0,0,0,0,0,0,0,0,0,0,0,0,0,0,0,0,0,0,0,0,0,0,0],"id":21,"left_children":[1,3,5,7,9,11,13,15,-1,17,19,-1,21,23,25,-1,-1,-1,-1,-1,-1,-1,-1,-1,-1,-1,-1],"loss_changes":[7.0482475E1,1.6426764E1,1.6448002E1,6.9824605E0,3.097374E0,1.6903305E-1,7.589801E0,4.7365165E0,0E0,2.8381386E0,2.1969187E0,0E0,6.373596E-2,3.2677722E0,1.716137E-2,0E0,0E0,0E0,0E0,0E0,0E0,0E0,0E0,0E0,0E0,0E0,0E0],"parents":[2147483647,0,0,1,1,2,2,3,3,4,4,5,5,6,6,7,7,9,9,10,10,12,12,13,13,14,14],"right_children":[2,4,6,8,10,12,14,16,-1,18,20,-1,22,24,26,-1,-1,-1,-1,-1,-1,-1,-1,-1,-1,-1,-1],"split_conditions":[1E0,-7.41102E-1,3E0,1.9184865E0,9.240108E-1,-1.6209303E0,-1.9477843E-1,-1.3695508E0,-2.5220986E-2,3.8292274E0,-3.0354274E-2,1.1544632E-2,7.200415E-1,-4.7518328E-1,-1.0867488E0,4.1854985E-2,6.0815355E-3,-2.5101755E-2,1.32262325E-2,8.430521E-3,-1.6520336E-2,4.1467287E-2,1.7672515E-2,2.0684656E-2,-5.8091083E-3,-8.087447E-3,-2.7743166E-2],"split_indices":[2,12,4,9,8,12,6,12,0,11,6,0,12,8,12,0,0,0,0,0,0,0,0,0,0,0,0],"split_type":[0,0,0,0,0,0,0,0,0,0,0,0,0,0,0,0,0,0,0,0,0,0,0,0,0,0,0],"sum_hessian":[1.5334717E2,9.395835E1,5.9388824E1,1.7503014E1,7.645533E1,3.2537083E1,2.685174E1,1.4340943E1,3.1620712E0,6.517753E1,1.1277805E1,1.1605415E0,3.1376541E1,2.2574772E1,4.2769685E0,4.3363323E0,1.0004611E1,6.397357E1,1.2039572E0,4.6017933E0,6.676012E0,2.9172213E1,2.2043293E0,1.7655067E1,4.919703E0,1.130034E0,3.1469343E0],"tree_param":{"num_deleted":"0","num_feature":"13","num_nodes":"27","size_leaf_vector":"1"}},{"base_weights":[-1.6587717E-2,4.173468E-1,-4.6922374E-1,5.2523607E-1,-3.281401E-2,-7.2946596E-1,-1.2471106E-1,9.2391884E-1,1.7947458E-1,-5.964915E-1,-9.863593E-1,1.3811554E-1,-5.503372E-1,3.0217988E-2,-1.404604E-3,-4.5428295E-3,2.1097692E-2,-2.1557234E-2,1.15044E-2,-3.0978516E-2,-8.39151E-3,1.9723822E-4,3.4787234E-2,-2.1287983E-2,1.373023E-2],"categories":[],"categories_nodes":[],"categories_segments":[],"categories_sizes":[],"default_left":[0,0,0,0,0,0,0,0,0,0,0,0,0,0,0,0,0,0,0,0,0,0,0,0,0],"id":22,"left_children":[1,3,5,7,-1,9,11,13,15,17,19,21,23,-1,-1,-1,-1,-1,-1,-1,-1,-1,-1,-1,-1],"loss_changes":[2.980698E1,1.3209609E1,6.5669327E0,9.898523E0,0E0,8.497124E-1,3.785736E0,2.7712517E0,7.098431E0,3.8968954E0,1.3049698E-1,2.8545218E0,2.3894122E0,0E0,0E0,0E0,0E0,0E0,0E0,0E0,0E0,0E0,0E0,0E0,0E0],"parents":[2147483647,0,0,1,1,2,2,3,3,5,5,6,6,7,7,8,8,9,9,10,10,11,11,12,12],"right_children":[2,4,6,8,-1,10,12,14,16,18,20,22,24,-1,-1,-1,-1,-1,-1,-1,-1,-1,-1,-1,-1],"split_conditions":[-8.1230715E-2,2.3598726E0,-4.5000935E-1,-7.0967954E-1,-3.281401E-2,-4.86483E-1,5.458922E-1,1.9184865E0,1E0,-4.8857984E-1,1.1018231E0,1E0,6.2692577E-1,3.0217988E-2,-1.404604E-3,-4.5428295E-3,2.1097692E-2,-2.1557234E-2,1.15044E-2,-3.0978516E-2,-8.39151E-3,1.9723822E-4,3.4787234E-2,-2.1287983E-2,1.373023E-2],"split_indices":[12,11,6,12,0,6,5,9,3,6,5,1,6,0,0,0,0,0,0,0,0,0,0,0,0],"split_type":[0,0,0,0,0,0,0,0,0,0,0,0,0,0,0,0,0,0,0,0,0,0,0,0,0],"sum_hessian":[1.4975856E2,7.64986E1,7.325996E1,7.2009834E1,4.48876E0,4.1097687E1,3.216227E1,3.2668762E1,3.9341076E1,2.9269169E1,1.1828518E1,2.0301485E1,1.1860784E1,3.0050964E1,2.6177962E0,2.4545322E1,1.4795755E1,2.6263992E1,3.005177E0,1.0668819E1,1.1596986E0,1.887699E1,1.4244949E0,1.0498153E1,1.3626306E0],"tree_param":{"num_deleted":"0","num_feature":"13","num_nodes":"25","size_leaf_vector":"1"}},{"base_weights":[6.1530923E-3,-5.5685675E-1,6.844872E-1,-7.477881E-1,2.3713797E-1,8.1687444E-1,-3.1700697E-2,-7.82745E-1,8.694435E-3,4.6941453E-1,-4.7672328E-1,4.3364334E-1,1.1722338E0,3.8825038E-3,-2.4248162E-2,3.3012268E-4,3.4020808E-2,-2.2751613E-2,7.3443973E-3,5.490436E-3,2.6355997E-2,3.8996782E-2,4.3998924E-3],"categories":[],"categories_nodes":[],"categories_segments":[],"categories_sizes":[],"default_left":[0,0,0,0,0,0,0,0,0,0,0,0,0,0,0,0,0,0,0,0,0,0,0],"id":23,"left_children":[1,3,5,7,9,11,-1,13,-1,15,17,19,21,-1,-1,-1,-1,-1,-1,-1,-1,-1,-1],"loss_changes":[5.758996E1,1.2670292E1,1.6627464E1,2.6452026E0,2.998557E0,8.223892E0,0E0,1.6127853E0,0E0,3.9877546E0,1.1214218E0,3.4560685E0,4.0883102E0,0E0,0E0,0E0,0E0,0E0,0E0,0E0,0E0,0E0,0E0],"parents":[2147483647,0,0,1,1,2,2,3,3,4,4,5,5,7,7,9,9,10,10,11,11,12,12],"right_children":[2,4,6,8,10,12,-1,14,-1,16,18,20,22,-1,-1,-1,-1,-1,-1,-1,-1,-1,-1],"split_conditions":[1E0,1E0,2.3598726E0,3.8292274E0,-3.3261025E-1,-1.3103823E-1,-3.1700697E-2,-8.353693E-1,8.694435E-3,4E0,1.0730393E-1,1E0,4E0,3.8825038E-3,-2.4248162E-2,3.3012268E-4,3.4020808E-2,-2.2751613E-2,7.3443973E-3,5.490436E-3,2.6355997E-2,3.8996782E-2,4.3998924E-3],"split_indices":[0,1,11,11,12,8,0,12,0,1,12,3,0,0,0,0,0,0,0,0,0,0,0],"split_type":[0,0,0,0,0,0,0,0,0,0,0,0,0,0,0,0,0,0,0,0,0,0,0],"sum_hessian":[1.4879701E2,8.1408195E1,6.738882E1,6.567384E1,1.5734346E1,6.3120422E1,4.2683964E0,6.3771015E1,1.9028304E0,1.2129931E1,3.6044147E0,3.1437494E1,3.1682928E1,1.6252735E0,6.2145744E1,7.7801795E0,4.3497524E0,2.5556872E0,1.0487275E0,2.101184E1,1.04256525E1,2.793785E1,3.745077E0],"tree_param":{"num_deleted":"0","num_feature":"13","num_nodes":"23","size_leaf_vector":"1"}},{"base_weights":[1.1662947E-2,-5.774728E-1,6.895724E-1,-6.8400115E-1,4.9803984E-1,8.6789364E-1,-6.15675E-1,-7.6388633E-1,-2.4054426E-1,9.785281E-1,-2.2458825E-1,9.1556944E-2,1.0848316E0,-3.1097349E-2,1.9229406E-1,-1.953673E-2,-3.180621E-2,4.3685255E-3,-2.9311651E-2,-7.819723E-3,4.1464273E-2,1.1516286E-2,-2.5206039E-2,-1.792884E-2,2.567816E-2,3.5264418E-2,-8.2936E-4,2.8145045E-2,-1.8306056E-2],"categories":[],"categories_nodes":[],"categories_segments":[],"categories_sizes":[],"default_left":[0,0,0,0,0,0,0,0,0,0,0,0,0,0,0,0,0,0,0,0,0,0,0,0,0,0,0,0,0],"id":24,"left_children":[1,3,5,7,9,11,13,15,17,19,21,23,25,-1,27,-1,-1,-1,-1,-1,-1,-1,-1,-1,-1,-1,-1,-1,-1],"loss_changes":[6.124569E1,9.742348E0,1.7128681E1,2.4761734E0,2.98845E0,1.0534725E1,3.312589E0,1.4182396E0,3.8171377E0,2.849074E0,1.8200612E0,8.351721E0,4.9999733E0,0E0,2.9541893E0,0E0,0E0,0E0,0E0,0E0,0E0,0E0,0E0,0E0,0E0,0E0,0E0,0E0,0E0],"parents":[2147483647,0,0,1,1,2,2,3,3,4,4,5,5,6,6,7,7,8,8,9,9,10,10,11,11,12,12,14,14],"right_children":[2,4,6,8,10,12,14,16,18,20,22,24,26,-1,28,-1,-1,-1,-1,-1,-1,-1,-1,-1,-1,-1,-1,-1,-1],"split_conditions":[1E0,4E0,1.9184865E0,9.240108E-1,9.8139584E-1,-4.3676212E-1,-5.5192244E-1,2.4939565E-1,1.656665E0,5.1273454E-2,1.027699E0,1E0,4E0,-3.1097349E-2,2.3462262E-3,-1.953673E-2,-3.180621E-2,4.3685255E-3,-2.9311651E-2,-7.819723E-3,4.1464273E-2,1.1516286E-2,-2.5206039E-2,-1.792884E-2,2.567816E-2,3.5264418E-2,-8.2936E-4,2.8145045E-2,-1.8306056E-2],"split_indices":[0,1,9,8,8,6,8,5,8,8,5,3,0,0,6,0,0,0,0,0,0,0,0,0,0,0,0,0,0],"split_type":[0,0,0,0,0,0,0,0,0,0,0,0,0,0,0,0,0,0,0,0,0,0,0,0,0,0,0,0,0],"sum_hessian":[1.5135458E2,8.1058784E1,7.029581E1,7.408479E1,6.9739923E0,6.2141224E1,8.154582E0,6.21639E1,1.1920894E1,3.9760933E0,2.9978988E0,1.3882653E1,4.825857E1,5.1755095E0,2.9790723E0,4.7356514E1,1.4807382E1,8.346833E0,3.574061E0,1.063894E0,2.9121993E0,1.6970189E0,1.3008801E0,7.4151397E0,6.4675136E0,4.4570183E1,3.6883874E0,1.456384E0,1.5226884E0],"tree_param":{"num_deleted":"0","num_feature":"13","num_nodes":"29","size_leaf_vector":"1"}},{"base_weights":[-4.8999693E-2,-6.140644E-1,6.1692077E-1,-7.2446054E-1,-1.9830939E-1,7.9715323E-1,-7.472997E-1,-7.69311E-1,9.172379E-3,1.3796936E-1,-8.472635E-1,3.10094E-1,1.0902764E0,-3.0092468E-2,-7.137546E-2,-2.1386128E-2,-3.5128716E-2,1.0913333E-2,-1.6338518E-2,-3.3457257E-2,-1.0772634E-2,2.12551E-2,-9.1486104E-4,3.472296E-2,1.0600432E-2,5.714202E-4,-3.8288739E-3],"categories":[],"categories_nodes":[],"categories_segments":[],"categories_sizes":[],"default_left":[0,0,0,0,0,0,0,0,0,0,0,0,0,0,0,0,0,0,0,0,0,0,0,0,0,0,0],"id":25,"left_children":[1,3,5,7,9,11,13,15,-1,17,19,21,23,-1,25,-1,-1,-1,-1,-1,-1,-1,-1,-1,-1,-1,-1],"loss_changes":[5.664722E1,3.592163E0,1.7595821E1,3.1895638E0,4.1443195E0,8.45018E0,1.4125981E0,5.606766E-1,0E0,2.2043123E0,4.4189405E-1,3.3494713E0,1.4731522E0,0E0,1.9895157E-2,0E0,0E0,0E0,0E0,0E0,0E0,0E0,0E0,0E0,0E0,0E0,0E0],"parents":[2147483647,0,0,1,1,2,2,3,3,4,4,5,5,6,6,7,7,9,9,10,10,11,11,12,12,14,14],"right_children":[2,4,6,8,10,12,14,16,-1,18,20,22,24,-1,26,-1,-1,-1,-1,-1,-1,-1,-1,-1,-1,-1,-1],"split_conditions":[1E0,1E0,1.9184865E0,3.8292274E0,1.3836744E0,-3.462069E-1,-5.5192244E-1,-1.04726285E-1,9.172379E-3,1.4353817E0,1.0926151E0,-6.771559E-1,4E0,-3.0092468E-2,4.9302135E-2,-2.1386128E-2,-3.5128716E-2,1.0913333E-2,-1.6338518E-2,-3.3457257E-2,-1.0772634E-2,2.12551E-2,-9.1486104E-4,3.472296E-2,1.0600432E-2,5.714202E-4,-3.8288739E-3],"split_indices":[0,1,9,11,8,6,8,6,0,5,6,5,0,0,6,0,0,0,0,0,0,0,0,0,0,0,0],"split_type":[0,0,0,0,0,0,0,0,0,0,0,0,0,0,0,0,0,0,0,0,0,0,0,0,0,0,0],"sum_hessian":[1.485354E2,8.0394646E1,6.8140755E1,6.293965E1,1.7454992E1,6.0556118E1,7.584634E0,6.055654E1,2.3831072E0,1.2015914E1,5.4390774E0,2.3524776E1,3.703134E1,5.151277E0,2.4333568E0,5.5528454E1,5.0280886E0,9.379962E0,2.635952E0,2.6822033E0,2.7568743E0,1.0344233E1,1.3180545E1,3.3415592E1,3.6157496E0,1.1869087E0,1.2464482E0],"tree_param":{"num_deleted":"0","num_feature":"13","num_nodes":"27","size_leaf_vector":"1"}},{"base_weights":[-3.751313E-3,-4.6110347E-1,7.2917444E-1,2.666143E-1,-6.3488054E-1,1.3293664E-1,1.2091184E0,5.6783485E-1,-2.5208093E-2,-7.218193E-1,-1.435566E-1,6.95086E-1,-2.4292107E-1,8.307802E-1,1.3230895E0,2.6773693E-2,-6.337079E-3,-2.3012884E-2,8.966621E-3,2.6598296E-3,-2.9373517E-2,2.6158653E-2,-7.850006E-3,7.5774323E-3,-1.402632E-2,3.0653592E-2,4.9096174E-3,4.163445E-2,1.734356E-2],"categories":[],"categories_nodes":[],"categories_segments":[],"categories_sizes":[],"default_left":[0,0,0,0,0,0,0,0,0,0,0,0,0,0,0,0,0,0,0,0,0,0,0,0,0,0,0,0,0],"id":26,"left_children":[1,3,5,7,9,11,13,15,-1,17,19,21,23,25,27,-1,-1,-1,-1,-1,-1,-1,-1,-1,-1,-1,-1,-1,-1],"loss_changes":[4.985483E1,1.1750107E1,1.619326E1,6.597675E0,3.0666676E0,5.7913423E0,2.6076508E-1,3.988863E0,0E0,3.1321335E0,2.4941173E0,2.076344E0,1.9755719E0,1.1056223E0,2.8501892E-1,0E0,0E0,0E0,0E0,0E0,0E0,0E0,0E0,0E0,0E0,0E0,0E0,0E0,0E0],"parents":[2147483647,0,0,1,1,2,2,3,3,4,4,5,5,6,6,7,7,9,9,10,10,11,11,12,12,13,13,14,14],"right_children":[2,4,6,8,10,12,14,16,-1,18,20,22,24,26,28,-1,-1,-1,-1,-1,-1,-1,-1,-1,-1,-1,-1,-1,-1],"split_conditions":[1E0,-7.41102E-1,-2.4949497E-1,1.9184865E0,1E0,-4.8606443E-1,-2.2395734E-1,1.4084764E0,-2.5208093E-2,3.8292274E0,9.5476997E-1,5.472181E-1,-4.4258878E-1,-3.6909726E-1,1.2986999E0,2.6773693E-2,-6.337079E-3,-2.3012884E-2,8.966621E-3,2.6598296E-3,-2.9373517E-2,2.6158653E-2,-7.850006E-3,7.5774323E-3,-1.402632E-2,3.0653592E-2,4.9096174E-3,4.163445E-2,1.734356E-2],"split_indices":[2,12,8,9,1,6,6,8,0,11,6,12,12,6,9,0,0,0,0,0,0,0,0,0,0,0,0,0,0],"split_type":[0,0,0,0,0,0,0,0,0,0,0,0,0,0,0,0,0,0,0,0,0,0,0,0,0,0,0,0,0],"sum_hessian":[1.4672627E2,9.057657E1,5.6149704E1,1.7357056E1,7.321951E1,2.5610537E1,3.053917E1,1.4026868E1,3.3301876E0,6.1812748E1,1.1406764E1,9.921769E0,1.5688767E1,8.98893E0,2.155024E1,9.798507E0,4.228361E0,5.9425205E1,2.3875396E0,9.625541E0,1.7812232E0,8.448565E0,1.473204E0,4.8548493E0,1.0833919E1,6.5748487E0,2.4140809E0,1.903362E1,2.5166194E0],"tree_param":{"num_deleted":"0","num_feature":"13","num_nodes":"29","size_leaf_vector":"1"}},{"base_weights":[-1.8354964E-3,-5.7261366E-1,6.3567895E-1,-7.5480837E-1,1.4345093E-1,7.533712E-1,-3.0649211E-2,-7.828938E-1,7.72492E-3,4.6155724E-1,-4.5806202E-1,1.1467596E0,3.4665698E-1,3.779512E-3,-2.430283E-2,-2.1795912E-2,1.9560928E-2,1.0380126E-2,-2.266887E-2,3.628267E-2,7.346804E-3,2.3922559E-2,1.5290802E-3],"categories":[],"categories_nodes":[],"categories_segments":[],"categories_sizes":[],"default_left":[0,0,0,0,0,0,0,0,0,0,0,0,0,0,0,0,0,0,0,0,0,0,0],"id":27,"left_children":[1,3,5,7,9,11,-1,13,-1,15,17,19,21,-1,-1,-1,-1,-1,-1,-1,-1,-1,-1],"loss_changes":[5.3520622E1,1.0232466E1,1.4322248E1,1.9649277E0,3.3839915E0,1.0074223E1,0E0,1.6000824E0,0E0,3.0406644E0,1.7537915E0,1.5595322E0,4.439474E0,0E0,0E0,0E0,0E0,0E0,0E0,0E0,0E0,0E0,0E0],"parents":[2147483647,0,0,1,1,2,2,3,3,4,4,5,5,7,7,9,9,10,10,11,11,12,12],"right_children":[2,4,6,8,10,12,-1,14,-1,16,18,20,22,-1,-1,-1,-1,-1,-1,-1,-1,-1,-1],"split_conditions":[1E0,1E0,2.3598726E0,3.8292274E0,1.027699E0,-3.3261025E-1,-3.0649211E-2,-8.353693E-1,7.72492E-3,-8.214795E-1,4.891632E-1,4E0,3E0,3.779512E-3,-2.430283E-2,-2.1795912E-2,1.9560928E-2,1.0380126E-2,-2.266887E-2,3.628267E-2,7.346804E-3,2.3922559E-2,1.5290802E-3],"split_indices":[0,1,11,11,5,12,0,12,0,7,7,0,4,0,0,0,0,0,0,0,0,0,0],"split_type":[0,0,0,0,0,0,0,0,0,0,0,0,0,0,0,0,0,0,0,0,0,0,0],"sum_hessian":[1.4508311E2,7.6601875E1,6.848124E1,6.102152E1,1.5580357E1,6.444985E1,4.0313907E0,5.9594746E1,1.4267743E0,1.034313E1,5.2372265E0,3.1836697E1,3.261315E1,1.6261758E0,5.796857E1,1.0402422E0,9.302888E0,1.3706816E0,3.8665447E0,2.944949E1,2.3872073E0,1.2246745E1,2.0366405E1],"tree_param":{"num_deleted":"0","num_feature":"13","num_nodes":"23","size_leaf_vector":"1"}},{"base_weights":[-5.1586226E-2,-5.9129E-1,5.8836496E-1,-6.816642E-1,2.6701644E-1,6.949997E-1,-2.9993916E-2,3.076397E-2,-7.111583E-1,6.692704E-1,-4.699668E-1,7.845429E-1,-4.2648098E-1,2.1730686E-2,-2.5517026E-2,-2.2219205E-2,3.431891E-3,3.6504418E-2,-5.8073546E-3,6.5424237E-3,-2.5652979E-2,1.10559575E-2,3.3513553E-2,-3.194415E-2,1.3672323E-2],"categories":[],"categories_nodes":[],"categories_segments":[],"categories_sizes":[],"default_left":[0,0,0,0,0,0,0,0,0,0,0,0,0,0,0,0,0,0,0,0,0,0,0,0,0],"id":28,"left_children":[1,3,5,7,9,11,-1,13,15,17,19,21,23,-1,-1,-1,-1,-1,-1,-1,-1,-1,-1,-1,-1],"loss_changes":[5.106196E1,6.3995247E0,1.2156544E1,1.5515823E0,2.7912102E0,6.762621E0,0E0,2.9711518E0,1.7871819E0,2.9837828E0,1.1238291E0,7.838421E0,3.515452E0,0E0,0E0,0E0,0E0,0E0,0E0,0E0,0E0,0E0,0E0,0E0,0E0],"parents":[2147483647,0,0,1,1,2,2,3,3,4,4,5,5,7,7,8,8,9,9,10,10,11,11,12,12],"right_children":[2,4,6,8,10,12,-1,14,16,18,20,22,24,-1,-1,-1,-1,-1,-1,-1,-1,-1,-1,-1,-1],"split_conditions":[1E0,4E0,2.3598726E0,-1.0553263E0,-3.3261025E-1,4E0,-2.9993916E-2,1.656665E0,1.0926151E0,9.8139584E-1,3.976439E-1,-2.83247E-1,1E0,2.1730686E-2,-2.5517026E-2,-2.2219205E-2,3.431891E-3,3.6504418E-2,-5.8073546E-3,6.5424237E-3,-2.5652979E-2,1.10559575E-2,3.3513553E-2,-3.194415E-2,1.3672323E-2],"split_indices":[0,1,11,12,12,0,0,8,6,8,5,8,1,0,0,0,0,0,0,0,0,0,0,0,0],"split_type":[0,0,0,0,0,0,0,0,0,0,0,0,0,0,0,0,0,0,0,0,0,0,0,0,0],"sum_hessian":[1.4583383E2,7.915467E1,6.667917E1,7.180035E1,7.354321E0,6.301079E1,3.6683764E0,2.852604E0,6.894775E1,4.817016E0,2.5373044E0,5.8629993E1,4.3808007E0,1.6959964E0,1.1566075E0,6.666971E1,2.278033E0,2.6959815E0,2.1210346E0,1.0662239E0,1.4710807E0,2.6984198E1,3.1645794E1,2.421673E0,1.9591279E0],"tree_param":{"num_deleted":"0","num_feature":"13","num_nodes":"25","size_leaf_vector":"1"}},{"base_weights":[1.9468319E-2,-4.8821208E-1,5.8079684E-1,-6.230245E-1,1.314782E-2,1.0165843E0,7.828387E-2,-7.310107E-1,-3.5768625E-1,-2.4865389E-2,1.4274439E-1,1.1889862E0,-2.2244135E-1,3.777978E-1,-8.0583274E-1,-1.0929244E-2,-2.3414724E-2,6.8985773E-3,-2.2452386E-2,1.33092655E-2,-5.31246E-3,3.671191E-2,1.2524101E-2,-2.421883E-2,1.9185066E-2,3.3387335E-3,2.5896799E-2,-3.4520715E-2,-5.830757E-3],"categories":[],"categories_nodes":[],"categories_segments":[],"categories_sizes":[],"default_left":[0,0,0,0,0,0,0,0,0,0,0,0,0,0,0,0,0,0,0,0,0,0,0,0,0,0,0,0,0],"id":29,"left_children":[1,3,5,7,9,11,13,15,17,-1,19,21,23,25,27,-1,-1,-1,-1,-1,-1,-1,-1,-1,-1,-1,-1,-1,-1],"loss_changes":[4.1366306E1,5.1613483E0,1.5013243E1,1.4607372E0,1.9881746E0,8.131199E0,9.067671E0,4.7341156E-1,4.6136236E0,0E0,1.5897682E0,3.5995483E-1,3.2086005E0,3.189906E0,1.6095209E0,0E0,0E0,0E0,0E0,0E0,0E0,0E0,0E0,0E0,0E0,0E0,0E0,0E0,0E0],"parents":[2147483647,0,0,1,1,2,2,3,3,4,4,5,5,6,6,7,7,8,8,10,10,11,11,12,12,13,13,14,14],"right_children":[2,4,6,8,10,12,14,16,18,-1,20,22,24,26,28,-1,-1,-1,-1,-1,-1,-1,-1,-1,-1,-1,-1,-1,-1],"split_conditions":[1E0,1E0,3E0,5.472181E-1,-4.9159837E-1,4E0,1.9184865E0,-5.021631E-1,2.4939565E-1,-2.4865389E-2,7.312025E-1,7.200415E-1,1E0,2E0,3.1580598E0,-1.0929244E-2,-2.3414724E-2,6.8985773E-3,-2.2452386E-2,1.33092655E-2,-5.31246E-3,3.671191E-2,1.2524101E-2,-2.421883E-2,1.9185066E-2,3.3387335E-3,2.5896799E-2,-3.4520715E-2,-5.830757E-3],"split_indices":[0,1,4,12,6,0,9,6,5,0,5,12,1,0,9,0,0,0,0,0,0,0,0,0,0,0,0,0,0],"split_type":[0,0,0,0,0,0,0,0,0,0,0,0,0,0,0,0,0,0,0,0,0,0,0,0,0,0,0,0,0],"sum_hessian":[1.4316241E2,7.52419E1,6.792051E1,5.9106003E1,1.6135897E1,3.5827404E1,3.209311E1,4.07619E1,1.83441E1,1.4326063E0,1.4703291E1,3.1486639E1,4.3407645E0,2.4399817E1,7.693291E0,5.840449E0,3.492145E1,7.4903536E0,1.0853747E1,7.376359E0,7.3269315E0,2.9568907E1,1.9177324E0,2.6238267E0,1.7169378E0,1.6545427E1,7.854389E0,4.355216E0,3.3380752E0],"tree_param":{"num_deleted":"0","num_feature":"13","num_nodes":"29","size_leaf_vector":"1"}},{"base_weights":[1.8644419E-2,-5.101182E-1,5.97101E-1,-7.196798E-1,1.9279145E-2,1.0147035E0,1.2157939E-1,-8.8300127E-1,-5.570853E-1,3.478943E-2,-2.0389524E-1,1.2010401E0,-1.9061846E-1,3.688821E-1,-7.60079E-1,-2.7136588E-2,-7.2023016E-3,2.6218018E-2,-2.0535087E-2,1.2296986E-2,-1.4561233E-2,3.7318204E-2,1.7501093E-2,-3.0120488E-2,1.6721854E-2,1.677315E-2,-5.665202E-3,-2.9394329E-2,-8.910653E-3],"categories":[],"categories_nodes":[],"categories_segments":[],"categories_sizes":[],"default_left":[0,0,0,0,0,0,0,0,0,0,0,0,0,0,0,0,0,0,0,0,0,0,0,0,0,0,0,0,0],"id":30,"left_children":[1,3,5,7,9,11,13,15,17,-1,19,21,23,25,27,-1,-1,-1,-1,-1,-1,-1,-1,-1,-1,-1,-1,-1,-1],"loss_changes":[4.4790718E1,8.503626E0,1.3760956E1,9.646206E-1,6.007403E0,8.559235E0,7.656167E0,1.3830566E-1,6.103883E0,0E0,3.6223445E0,1.2917328E-1,4.106328E0,2.9797387E0,4.961958E-1,0E0,0E0,0E0,0E0,0E0,0E0,0E0,0E0,0E0,0E0,0E0,0E0,0E0,0E0],"parents":[2147483647,0,0,1,1,2,2,3,3,4,4,5,5,6,6,7,7,8,8,10,10,11,11,12,12,13,13,14,14],"right_children":[2,4,6,8,10,12,14,16,18,-1,20,22,24,26,28,-1,-1,-1,-1,-1,-1,-1,-1,-1,-1,-1,-1,-1,-1],"split_conditions":[1E0,-1.1914871E-1,3E0,-4.8857984E-1,-1.04726285E-1,4E0,-1.9477843E-1,1.5584065E-1,-4.86483E-1,3.478943E-2,-8.0394685E-1,1.6251954E0,-8.963374E-2,6.10063E-1,3.1580598E0,-2.7136588E-2,-7.2023016E-3,2.6218018E-2,-2.0535087E-2,1.2296986E-2,-1.4561233E-2,3.7318204E-2,1.7501093E-2,-3.0120488E-2,1.6721854E-2,1.677315E-2,-5.665202E-3,-2.9394329E-2,-8.910653E-3],"split_indices":[0,6,4,6,6,0,6,11,6,0,12,11,6,12,9,0,0,0,0,0,0,0,0,0,0,0,0,0,0],"split_type":[0,0,0,0,0,0,0,0,0,0,0,0,0,0,0,0,0,0,0,0,0,0,0,0,0,0,0,0,0],"sum_hessian":[1.4444308E2,7.552469E1,6.8918396E1,5.3849125E1,2.1675568E1,3.609017E1,3.2828224E1,2.4654093E1,2.919503E1,2.8608985E0,1.8814669E1,3.126094E1,4.829231E0,2.6091293E1,6.73693E0,2.3460722E1,1.1933708E0,1.9079664E0,2.7287064E1,5.771996E0,1.3042672E1,2.828266E1,2.9782815E0,2.1495473E0,2.6796834E0,1.9453714E1,6.63758E0,3.812056E0,2.9248738E0],"tree_param":{"num_deleted":"0","num_feature":"13","num_nodes":"29","size_leaf_vector":"1"}},{"base_weights":[-6.978872E-3,-5.3640515E-1,5.8342457E-1,-6.4837426E-1,-4.234645E-2,7.5724274E-1,-5.9462816E-1,-6.762451E-1,1.2266008E-3,3.5051337E-1,-3.6824077E-1,9.0765357E-1,1.376486E-1,2.7668884E-2,-2.9243907E-2,1.38898E-3,-2.0743728E-2,-1.2284001E-2,2.0632798E-2,2.1052198E-3,-1.7517054E-2,2.8942736E-2,4.491065E-3,9.517895E-3,-2.0528968E-2],"categories":[],"categories_nodes":[],"categories_segments":[],"categories_sizes":[],"default_left":[0,0,0,0,0,0,0,0,0,0,0,0,0,0,0,0,0,0,0,0,0,0,0,0,0],"id":31,"left_children":[1,3,5,7,9,11,13,15,-1,17,19,21,23,-1,-1,-1,-1,-1,-1,-1,-1,-1,-1,-1,-1],"loss_changes":[4.527695E1,4.196869E0,1.4474285E1,1.2222195E0,2.072396E0,5.4780197E0,6.3003097E0,6.8958664E-1,0E0,2.1768367E0,8.714961E-1,1.9417267E0,2.1249402E0,0E0,0E0,0E0,0E0,0E0,0E0,0E0,0E0,0E0,0E0,0E0,0E0],"parents":[2147483647,0,0,1,1,2,2,3,3,4,4,5,5,6,6,7,7,9,9,10,10,11,11,12,12],"right_children":[2,4,6,8,10,12,14,16,-1,18,20,22,24,-1,-1,-1,-1,-1,-1,-1,-1,-1,-1,-1,-1],"split_conditions":[1E0,2E0,1.9184865E0,3.8292274E0,5.458922E-1,3.2726103E-1,3E0,-1.0553263E0,1.2266008E-3,-3.4359735E-1,-6.1541224E-1,4E0,1.5213138E0,2.7668884E-2,-2.9243907E-2,1.38898E-3,-2.0743728E-2,-1.2284001E-2,2.0632798E-2,2.1052198E-3,-1.7517054E-2,2.8942736E-2,4.491065E-3,9.517895E-3,-2.0528968E-2],"split_indices":[0,1,9,11,5,12,4,12,0,5,12,0,12,0,0,0,0,0,0,0,0,0,0,0,0],"split_type":[0,0,0,0,0,0,0,0,0,0,0,0,0,0,0,0,0,0,0,0,0,0,0,0,0],"sum_hessian":[1.4285023E2,7.536259E1,6.748764E1,6.1184032E1,1.4178558E1,5.9121628E1,8.366012E0,5.882431E1,2.3597212E0,6.3945265E0,7.7840314E0,4.7198856E1,1.19227705E1,1.3907429E0,6.975269E0,1.17082E0,5.7653492E1,1.8996184E0,4.4949083E0,2.7889724E0,4.995059E0,4.363829E1,3.5605679E0,1.0288505E1,1.6342661E0],"tree_param":{"num_deleted":"0","num_feature":"13","num_nodes":"25","size_leaf_vector":"1"}},{"base_weights":[-1.4542202E-2,-4.810977E-1,5.2365553E-1,3.022606E-1,-5.198646E-1,1.029514E0,-1.43216215E-2,-1.7450811E-2,2.9427228E-2,-6.927821E-1,-3.6454508E-1,1.1155301E0,2.7970806E-1,2.781863E-1,-8.861112E-1,-6.461586E-3,-2.3116803E-2,-5.1162746E-3,-2.6326546E-2,3.5188764E-2,1.4742754E-2,-1.5644467E-2,2.4674146E-2,2.9090406E-2,1.0198948E-3,-8.278463E-3,-2.8419098E-2],"categories":[],"categories_nodes":[],"categories_segments":[],"categories_sizes":[],"default_left":[0,0,0,0,0,0,0,0,0,0,0,0,0,0,0,0,0,0,0,0,0,0,0,0,0,0,0],"id":32,"left_children":[1,3,5,7,9,11,13,-1,-1,15,17,19,21,23,25,-1,-1,-1,-1,-1,-1,-1,-1,-1,-1,-1,-1],"loss_changes":[3.497065E1,2.4221325E0,1.761755E1,3.059736E0,1.6660061E0,1.8389282E0,8.491481E0,0E0,0E0,1.0479107E0,3.8057404E0,4.8389435E-1,2.5017805E0,4.1834784E0,5.0801277E-2,0E0,0E0,0E0,0E0,0E0,0E0,0E0,0E0,0E0,0E0,0E0,0E0],"parents":[2147483647,0,0,1,1,2,2,3,3,4,4,5,5,6,6,9,9,10,10,11,11,12,12,13,13,14,14],"right_children":[2,4,6,8,10,12,14,-1,-1,16,18,20,22,24,26,-1,-1,-1,-1,-1,-1,-1,-1,-1,-1,-1,-1],"split_conditions":[1E0,-1.0867488E0,3E0,-3.4359735E-1,-1.5828703E-1,4E0,-1.761643E-1,-1.7450811E-2,2.9427228E-2,-5.021631E-1,1.2130092E0,3.2726103E-1,1E0,-1.1219007E0,-1.8631419E0,-6.461586E-3,-2.3116803E-2,-5.1162746E-3,-2.6326546E-2,3.5188764E-2,1.4742754E-2,-1.5644467E-2,2.4674146E-2,2.9090406E-2,1.0198948E-3,-8.278463E-3,-2.8419098E-2],"split_indices":[0,12,4,5,5,0,6,0,0,6,5,12,1,5,5,0,0,0,0,0,0,0,0,0,0,0,0],"split_type":[0,0,0,0,0,0,0,0,0,0,0,0,0,0,0,0,0,0,0,0,0,0,0,0,0,0,0],"sum_hessian":[1.3726698E2,7.358412E1,6.3682865E1,3.1493204E0,7.04348E1,3.23503E1,3.1332565E1,1.4298146E0,1.7195058E0,3.1691847E1,3.8742954E1,2.8583496E1,3.7668016E0,2.3970684E1,7.3618813E0,4.967981E0,2.6723866E1,2.9078743E1,9.66421E0,2.536962E1,3.2138772E0,1.5370795E0,2.229722E0,5.480384E0,1.8490301E1,1.1731951E0,6.1886864E0],"tree_param":{"num_deleted":"0","num_feature":"13","num_nodes":"27","size_leaf_vector":"1"}},{"base_weights":[-4.49291E-2,-4.3733773E-1,6.002456E-1,3.3042142E-1,-6.074645E-1,1.0992677E0,2.3291098E-2,7.103791E-1,-6.173535E-1,-6.6250056E-1,-1.0761478E-1,1.1487451E0,3.668691E-1,6.625765E-1,-3.4404156E-1,3.196552E-2,-2.4352694E-2,-2.1348416E-3,-3.126299E-2,-2.0522382E-2,2.7142854E-3,2.236255E-2,-1.15137445E-2,3.6529746E-2,1.6169129E-2,2.2584394E-2,-6.6850306E-3,9.856961E-3,2.4543302E-2,-1.6501302E-2,1.608909E-2],"categories":[],"categories_nodes":[],"categories_segments":[],"categories_sizes":[],"default_left":[0,0,0,0,0,0,0,0,0,0,0,0,0,0,0,0,0,0,0,0,0,0,0,0,0,0,0,0,0,0,0],"id":33,"left_children":[1,3,5,7,9,11,13,15,17,19,21,23,25,27,29,-1,-1,-1,-1,-1,-1,-1,-1,-1,-1,-1,-1,-1,-1,-1,-1],"loss_changes":[3.532511E1,1.1524408E1,1.5175888E1,6.3348875E0,1.8907204E0,6.0370255E-1,6.218241E0,7.434394E0,1.1369958E0,1.1026497E0,2.2338917E0,4.3756104E-1,9.0956974E-1,2.3253822E-1,3.3523278E0,0E0,0E0,0E0,0E0,0E0,0E0,0E0,0E0,0E0,0E0,0E0,0E0,0E0,0E0,0E0,0E0],"parents":[2147483647,0,0,1,1,2,2,3,3,4,4,5,5,6,6,7,7,8,8,9,9,10,10,11,11,12,12,13,13,14,14],"right_children":[2,4,6,8,10,12,14,16,18,20,22,24,26,28,30,-1,-1,-1,-1,-1,-1,-1,-1,-1,-1,-1,-1,-1,-1,-1,-1],"split_conditions":[1E0,-7.725244E-1,3E0,1.1204603E0,1.0359117E0,1.6251954E0,-4.8606443E-1,2.3598726E0,-2.3241116E-1,3.8292274E0,-3.0354274E-2,3.2726103E-1,1.2986999E0,1E0,-2.4949497E-1,3.196552E-2,-2.4352694E-2,-2.1348416E-3,-3.126299E-2,-2.0522382E-2,2.7142854E-3,2.236255E-2,-1.15137445E-2,3.6529746E-2,1.6169129E-2,2.2584394E-2,-6.6850306E-3,9.856961E-3,2.4543302E-2,-1.6501302E-2,1.608909E-2],"split_indices":[2,12,4,8,8,11,6,11,5,11,6,12,9,3,8,0,0,0,0,0,0,0,0,0,0,0,0,0,0,0,0],"split_type":[0,0,0,0,0,0,0,0,0,0,0,0,0,0,0,0,0,0,0,0,0,0,0,0,0,0,0,0,0,0,0],"sum_hessian":[1.3749313E2,8.569426E1,5.179888E1,1.5373502E1,7.0320755E1,2.728989E1,2.4508991E1,1.115286E1,4.2206426E0,6.3052902E1,7.267855E0,2.5030483E1,2.2594082E0,8.650459E0,1.5858531E1,9.286222E0,1.8666366E0,2.3571112E0,1.8635312E0,6.138522E1,1.6676825E0,1.3619883E0,5.9058666E0,2.1593235E1,3.4372478E0,1.1984565E0,1.0609517E0,3.7372198E0,4.91324E0,1.3155355E1,2.703176E0],"tree_param":{"num_deleted":"0","num_feature":"13","num_nodes":"31","size_leaf_vector":"1"}},{"base_weights":[1.7733205E-2,-4.7474334E-1,6.098742E-1,-6.0677314E-1,-6.8239756E-2,7.056223E-1,-2.8138312E-2,-8.6656266E-1,-5.0159377E-1,3.0422273E-1,-5.155096E-1,9.685445E-1,3.842265E-1,-1.7534452E-2,-3.317405E-2,-1.9737702E-2,-6.7312187E-3,1.8388515E-2,-1.5610592E-2,-2.3423998E-2,3.8996097E-4,3.364506E-2,-6.337195E-3,1.7283896E-2,-2.1378684E-3],"categories":[],"categories_nodes":[],"categories_segments":[],"categories_sizes":[],"default_left":[0,0,0,0,0,0,0,0,0,0,0,0,0,0,0,0,0,0,0,0,0,0,0,0,0],"id":34,"left_children":[1,3,5,7,9,11,-1,13,15,17,19,21,23,-1,-1,-1,-1,-1,-1,-1,-1,-1,-1,-1,-1],"loss_changes":[4.138013E1,4.117504E0,1.0208506E1,1.1601334E0,3.5093918E0,4.8023567E0,0E0,3.9603043E-1,1.7557421E0,3.2743437E0,1.3442442E0,6.196306E0,2.5944014E0,0E0,0E0,0E0,0E0,0E0,0E0,0E0,0E0,0E0,0E0,0E0,0E0],"parents":[2147483647,0,0,1,1,2,2,3,3,4,4,5,5,7,7,8,8,9,9,10,10,11,11,12,12],"right_children":[2,4,6,8,10,12,-1,14,16,18,20,22,24,-1,-1,-1,-1,-1,-1,-1,-1,-1,-1,-1,-1],"split_conditions":[1E0,7.5653476E-1,2.3598726E0,-5.6371266E-1,1.1858808E0,3E0,-2.8138312E-2,-8.416291E-2,-1.0038786E-2,1.4353817E0,1.5576036E0,4E0,-5.196027E-1,-1.7534452E-2,-3.317405E-2,-1.9737702E-2,-6.7312187E-3,1.8388515E-2,-1.5610592E-2,-2.3423998E-2,3.8996097E-4,3.364506E-2,-6.337195E-3,1.7283896E-2,-2.1378684E-3],"split_indices":[0,8,11,8,8,4,0,5,5,5,7,0,8,0,0,0,0,0,0,0,0,0,0,0,0],"split_type":[0,0,0,0,0,0,0,0,0,0,0,0,0,0,0,0,0,0,0,0,0,0,0,0,0],"sum_hessian":[1.3990675E2,7.648956E1,6.341719E1,5.736508E1,1.912448E1,6.0235157E1,3.1820326E0,1.444572E1,4.291936E1,1.0609378E1,8.515102E0,3.2023964E1,2.8211195E1,8.209355E0,6.236365E0,2.6565353E1,1.635401E1,7.905968E0,2.70341E0,5.351496E0,3.1636062E0,2.8392334E1,3.6316304E0,1.9662336E1,8.548858E0],"tree_param":{"num_deleted":"0","num_feature":"13","num_nodes":"25","size_leaf_vector":"1"}},{"base_weights":[-6.44761E-3,-4.9747717E-1,5.206322E-1,1.9144315E-1,-6.057574E-1,9.326093E-2,9.3488395E-1,-2.0216526E-1,7.850929E-1,-4.434764E-1,-8.469113E-1,3.4293672E-1,-7.5596905E-1,1.0612365E0,-2.717412E-1,1.4973878E-2,-2.66885E-2,3.3003468E-2,7.4786367E-3,-1.754305E-2,2.3263829E-2,-3.0264068E-2,-5.5035774E-4,1.7222326E-2,-6.4531732E-3,-2.945398E-2,-1.530717E-3,3.6066122E-2,2.2662617E-2,-2.666763E-2,1.3917152E-2],"categories":[],"categories_nodes":[],"categories_segments":[],"categories_sizes":[],"default_left":[0,0,0,0,0,0,0,0,0,0,0,0,0,0,0,0,0,0,0,0,0,0,0,0,0,0,0,0,0,0,0],"id":35,"left_children":[1,3,5,7,9,11,13,15,17,19,21,23,25,27,29,-1,-1,-1,-1,-1,-1,-1,-1,-1,-1,-1,-1,-1,-1,-1,-1],"loss_changes":[3.5629917E1,5.4320316E0,1.1668631E1,2.5980394E0,2.043913E0,7.424751E0,5.412243E0,3.8537471E0,4.628353E-1,7.1797843E0,3.169901E0,3.580854E0,1.2219439E0,4.1212463E-1,2.2202258E0,0E0,0E0,0E0,0E0,0E0,0E0,0E0,0E0,0E0,0E0,0E0,0E0,0E0,0E0,0E0,0E0],"parents":[2147483647,0,0,1,1,2,2,3,3,4,4,5,5,6,6,7,7,8,8,9,9,10,10,11,11,12,12,13,13,14,14],"right_children":[2,4,6,8,10,12,14,16,18,20,22,24,26,28,30,-1,-1,-1,-1,-1,-1,-1,-1,-1,-1,-1,-1,-1,-1,-1,-1],"split_conditions":[1E0,-7.41102E-1,-2.4949497E-1,3.6058185E-1,2.4939565E-1,1.9184865E0,4E0,-1.0553263E0,9.8139584E-1,1.3820946E-1,4E0,-5.196027E-1,-5.5192244E-1,-3.9545512E-1,1E0,1.4973878E-2,-2.66885E-2,3.3003468E-2,7.4786367E-3,-1.754305E-2,2.3263829E-2,-3.0264068E-2,-5.5035774E-4,1.7222326E-2,-6.4531732E-3,-2.945398E-2,-1.530717E-3,3.6066122E-2,2.2662617E-2,-2.666763E-2,1.3917152E-2],"split_indices":[0,12,8,5,5,9,0,12,8,5,1,8,8,12,1,0,0,0,0,0,0,0,0,0,0,0,0,0,0,0,0],"split_type":[0,0,0,0,0,0,0,0,0,0,0,0,0,0,0,0,0,0,0,0,0,0,0,0,0,0,0,0,0,0,0],"sum_hessian":[1.3566656E2,7.026427E1,6.54023E1,9.43937E0,6.0824898E1,3.2794407E1,3.2607887E1,6.07254E0,3.3668306E0,3.8055183E1,2.2769714E1,2.5804111E1,6.9902954E0,2.9626068E1,2.9818213E0,3.1416101E0,2.9309297E0,1.4569976E0,1.909833E0,3.4568478E1,3.4867084E0,1.8866013E1,3.9037008E0,1.8226126E1,7.5779843E0,4.9968233E0,1.9934717E0,1.8272242E1,1.1353826E1,1.5081694E0,1.4736519E0],"tree_param":{"num_deleted":"0","num_feature":"13","num_nodes":"31","size_leaf_vector":"1"}},{"base_weights":[7.4795433E-3,-4.3409288E-1,5.2911E-1,-5.6909037E-1,4.8452616E-2,9.569116E-1,1.12626344E-1,-6.2966645E-1,3.085892E-1,4.7354135E-1,-3.3150697E-1,1.0851362E0,4.5357615E-2,3.497394E-1,-7.961959E-1,-1.6603911E-2,-3.3260927E-2,2.844509E-2,-2.3524316E-2,2.1031952E-2,-1.2145421E-2,-1.6635133E-2,1.2874122E-2,3.4159448E-2,8.174109E-3,-1.7973408E-2,1.7361077E-2,3.750531E-2,4.660868E-3,-3.1619515E-2,-5.3079687E-3],"categories":[],"categories_nodes":[],"categories_segments":[],"categories_sizes":[],"default_left":[0,0,0,0,0,0,0,0,0,0,0,0,0,0,0,0,0,0,0,0,0,0,0,0,0,0,0,0,0,0,0],"id":36,"left_children":[1,3,5,7,9,11,13,15,17,19,21,23,25,27,29,-1,-1,-1,-1,-1,-1,-1,-1,-1,-1,-1,-1,-1,-1,-1,-1],"loss_changes":[3.222624E1,4.9639387E0,1.1319048E1,3.3466053E0,2.981411E0,3.6330261E0,7.525517E0,1.4229794E0,3.8878696E0,2.015584E0,1.9039531E0,8.88916E-1,2.040796E0,4.595527E0,9.731016E-1,0E0,0E0,0E0,0E0,0E0,0E0,0E0,0E0,0E0,0E0,0E0,0E0,0E0,0E0,0E0,0E0],"parents":[2147483647,0,0,1,1,2,2,3,3,4,4,5,5,6,6,7,7,8,8,9,9,10,10,11,11,12,12,13,13,14,14],"right_children":[2,4,6,8,10,12,14,16,18,20,22,24,26,28,30,-1,-1,-1,-1,-1,-1,-1,-1,-1,-1,-1,-1,-1,-1,-1,-1],"split_conditions":[1E0,9.240108E-1,3E0,4.0951073E-1,1.1858808E0,4E0,1.9184865E0,-1.761643E-1,6.789133E-1,-3.3261025E-1,2.0472264E0,1.6251954E0,-8.963374E-2,-1.3695508E0,-5.5192244E-1,-1.6603911E-2,-3.3260927E-2,2.844509E-2,-2.3524316E-2,2.1031952E-2,-1.2145421E-2,-1.6635133E-2,1.2874122E-2,3.4159448E-2,8.174109E-3,-1.7973408E-2,1.7361077E-2,3.750531E-2,4.660868E-3,-3.1619515E-2,-5.3079687E-3],"split_indices":[0,8,4,6,8,0,9,6,9,12,8,11,6,12,8,0,0,0,0,0,0,0,0,0,0,0,0,0,0,0,0],"split_type":[0,0,0,0,0,0,0,0,0,0,0,0,0,0,0,0,0,0,0,0,0,0,0,0,0,0,0,0,0,0,0],"sum_hessian":[1.3791154E2,7.477802E1,6.3133526E1,5.829109E1,1.6486933E1,3.0503502E1,3.2630024E1,5.4792004E1,3.4990842E0,7.6651125E0,8.821819E0,2.6574896E1,3.9286053E0,2.6366215E1,6.2638106E0,4.913167E1,5.660331E0,2.2906528E0,1.2084316E0,6.2484803E0,1.4166323E0,7.0314283E0,1.7903912E0,2.4556763E1,2.0181339E0,1.7231321E0,2.205473E0,3.7167828E0,2.2649431E1,3.927055E0,2.3367558E0],"tree_param":{"num_deleted":"0","num_feature":"13","num_nodes":"31","size_leaf_vector":"1"}},{"base_weights":[4.0234856E-2,-3.3113652E-1,5.7470626E-1,-5.118196E-1,2.680292E-1,2.0420045E-2,1.021071E0,1.4112795E-2,-5.488307E-1,7.721927E-1,-1.0913225E-1,-1.6418526E-1,5.675063E-1,1.0632168E0,3.1884828E-1,-1.3823659E-2,-2.8004874E-2,3.501472E-2,-2.3121429E-3,-1.2520186E-2,2.0679155E-2,3.0909315E-2,-8.877356E-3,2.582823E-2,-9.98634E-3,2.270556E-2,3.7796553E-2,-5.8182054E-3,2.1331571E-2],"categories":[],"categories_nodes":[],"categories_segments":[],"categories_sizes":[],"default_left":[0,0,0,0,0,0,0,0,0,0,0,0,0,0,0,0,0,0,0,0,0,0,0,0,0,0,0,0,0],"id":37,"left_children":[1,3,5,7,9,11,13,-1,15,17,19,21,23,25,27,-1,-1,-1,-1,-1,-1,-1,-1,-1,-1,-1,-1,-1,-1],"loss_changes":[2.7069311E1,8.855873E0,1.3805578E1,2.5201263E0,3.7571416E0,2.7138703E0,5.765419E-1,0E0,1.6161537E0,2.9041657E0,3.2223918E0,3.4797478E0,2.0755775E0,7.790184E-1,7.7743214E-1,0E0,0E0,0E0,0E0,0E0,0E0,0E0,0E0,0E0,0E0,0E0,0E0,0E0,0E0],"parents":[2147483647,0,0,1,1,2,2,3,3,4,4,5,5,6,6,8,8,9,9,10,10,11,11,12,12,13,13,14,14],"right_children":[2,4,6,8,10,12,14,-1,16,18,20,22,24,26,28,-1,-1,-1,-1,-1,-1,-1,-1,-1,-1,-1,-1,-1,-1],"split_conditions":[1E0,1E0,-2.4949497E-1,-1.8631419E0,5.458922E-1,2E0,1.6251954E0,1.4112795E-2,1.1442446E0,1.3836744E0,1E0,-5.0090545E-1,-7.5128007E-1,-6.447951E-2,2.4401274E0,-1.3823659E-2,-2.8004874E-2,3.501472E-2,-2.3121429E-3,-1.2520186E-2,2.0679155E-2,3.0909315E-2,-8.877356E-3,2.582823E-2,-9.98634E-3,2.270556E-2,3.7796553E-2,-5.8182054E-3,2.1331571E-2],"split_indices":[2,1,8,5,5,3,11,0,12,8,3,6,5,6,6,0,0,0,0,0,0,0,0,0,0,0,0,0,0],"split_type":[0,0,0,0,0,0,0,0,0,0,0,0,0,0,0,0,0,0,0,0,0,0,0,0,0,0,0,0,0],"sum_hessian":[1.3441922E2,7.953539E1,5.4883823E1,6.1219852E1,1.8315542E1,2.4948746E1,2.9935078E1,1.7977785E0,5.9422073E1,7.3898797E0,1.0925662E1,1.9177504E1,5.7712426E0,2.7755198E1,2.179881E0,5.0143204E1,9.278871E0,4.7885623E0,2.6013174E0,8.227172E0,2.698491E0,1.2272478E0,1.7950256E1,4.38574E0,1.3855025E0,1.2746852E1,1.5008345E1,1.163791E0,1.01609E0],"tree_param":{"num_deleted":"0","num_feature":"13","num_nodes":"29","size_leaf_vector":"1"}},{"base_weights":[-2.2487389E-2,-5.315782E-1,5.246916E-1,-6.6731787E-1,-6.9516174E-2,6.1931247E-1,-2.8270625E-2,-6.94784E-1,4.534744E-3,2.6744747E-1,-5.6363994E-1,9.3605316E-1,3.3450416E-1,-1.9037016E-2,-3.2846626E-2,1.5822379E-2,-3.8785117E-3,-2.5069574E-2,6.9564288E-3,-1.4520631E-3,3.0656021E-2,-1.4535471E-2,1.3471359E-2],"categories":[],"categories_nodes":[],"categories_segments":[],"categories_sizes":[],"default_left":[0,0,0,0,0,0,0,0,0,0,0,0,0,0,0,0,0,0,0,0,0,0,0],"id":38,"left_children":[1,3,5,7,9,11,-1,13,-1,15,17,19,21,-1,-1,-1,-1,-1,-1,-1,-1,-1,-1],"loss_changes":[3.8627285E1,4.457609E0,9.863758E0,1.3501873E0,3.0515444E0,5.4067955E0,0E0,6.006832E-1,0E0,1.2064483E0,1.7919447E0,2.538601E0,3.4955442E0,0E0,0E0,0E0,0E0,0E0,0E0,0E0,0E0,0E0,0E0],"parents":[2147483647,0,0,1,1,2,2,3,3,4,4,5,5,7,7,9,9,10,10,11,11,12,12],"right_children":[2,4,6,8,10,12,-1,14,-1,16,18,20,22,-1,-1,-1,-1,-1,-1,-1,-1,-1,-1],"split_conditions":[1E0,1E0,2.3598726E0,3.8292274E0,-6.1541224E-1,-3.9545512E-1,-2.8270625E-2,-1.04726285E-1,4.534744E-3,1.3836744E0,1.0730393E-1,-9.285536E-1,-6.4400685E-1,-1.9037016E-2,-3.2846626E-2,1.5822379E-2,-3.8785117E-3,-2.5069574E-2,6.9564288E-3,-1.4520631E-3,3.0656021E-2,-1.4535471E-2,1.3471359E-2],"split_indices":[0,1,11,11,12,12,0,6,0,8,12,8,8,0,0,0,0,0,0,0,0,0,0],"split_type":[0,0,0,0,0,0,0,0,0,0,0,0,0,0,0,0,0,0,0,0,0,0,0],"sum_hessian":[1.3666458E2,7.0811066E1,6.585352E1,5.4389023E1,1.642204E1,6.240632E1,3.4472046E0,5.2769333E1,1.619691E0,1.0036487E1,6.3855557E0,2.8464169E1,3.394215E1,4.8114033E1,4.6553006E0,5.8643627E0,4.1721234E0,4.7208934E0,1.6646624E0,2.317213E0,2.6146955E1,3.7681506E0,3.0174E1],"tree_param":{"num_deleted":"0","num_feature":"13","num_nodes":"23","size_leaf_vector":"1"}},{"base_weights":[1.5119259E-2,-3.582004E-1,5.838561E-1,2.2228366E-1,-5.6648666E-1,1.0848466E0,1.096804E-1,-1.766415E-1,7.0708174E-1,-6.036722E-1,1.4264057E-2,3.432981E-2,6.890314E-3,2.7185127E-1,-6.3755053E-1,4.595544E-3,-2.7144838E-2,6.369334E-3,2.775734E-2,-2.094431E-2,-1.0408888E-2,2.7588217E-3,2.1615025E-2,-2.5303004E-2,-4.0757484E-3],"categories":[],"categories_nodes":[],"categories_segments":[],"categories_sizes":[],"default_left":[0,0,0,0,0,0,0,0,0,0,0,0,0,0,0,0,0,0,0,0,0,0,0,0,0],"id":39,"left_children":[1,3,5,7,9,11,13,15,17,19,-1,-1,-1,21,23,-1,-1,-1,-1,-1,-1,-1,-1,-1,-1],"loss_changes":[2.8980263E1,1.0092076E1,1.2728008E1,4.47338E0,2.6483307E0,1.0690327E0,3.67488E0,3.293269E0,9.2071867E-1,1.1955166E0,0E0,0E0,0E0,1.9065583E0,4.4853115E-1,0E0,0E0,0E0,0E0,0E0,0E0,0E0,0E0,0E0,0E0],"parents":[2147483647,0,0,1,1,2,2,3,3,4,4,5,5,6,6,7,7,8,8,9,9,13,13,14,14],"right_children":[2,4,6,8,10,12,14,16,18,20,-1,-1,-1,22,24,-1,-1,-1,-1,-1,-1,-1,-1,-1,-1],"split_conditions":[1E0,-6.1541224E-1,3E0,2E0,3.8292274E0,1.6251954E0,2.4187079E-1,7.3686206E-1,4.891632E-1,5.472181E-1,1.4264057E-2,3.432981E-2,6.890314E-3,-1.6396022E-1,3.1580598E0,4.595544E-3,-2.7144838E-2,6.369334E-3,2.775734E-2,-2.094431E-2,-1.0408888E-2,2.7588217E-3,2.1615025E-2,-2.5303004E-2,-4.0757484E-3],"split_indices":[2,12,4,1,11,11,7,7,7,12,0,0,0,7,9,0,0,0,0,0,0,0,0,0,0],"split_type":[0,0,0,0,0,0,0,0,0,0,0,0,0,0,0,0,0,0,0,0,0,0,0,0,0],"sum_hessian":[1.3450789E2,8.142837E1,5.307951E1,2.14846E1,5.994377E1,2.5183754E1,2.7895758E1,1.21348505E1,9.349749E0,5.8284344E1,1.659429E0,2.3229893E1,1.9538616E0,2.344393E1,4.451827E0,8.89539E0,3.2394614E0,3.4648988E0,5.8848495E0,4.134821E1,1.6936132E1,1.7594294E1,5.849636E0,2.6735048E0,1.778322E0],"tree_param":{"num_deleted":"0","num_feature":"13","num_nodes":"25","size_leaf_vector":"1"}},{"base_weights":[-2.4077687E-2,-4.088192E-1,5.5871713E-1,4.8383605E-1,-4.9158737E-1,9.849333E-1,1.645855E-1,3.4913484E-2,-1.9954039E-2,-6.3947684E-1,-3.852652E-2,1.0398076E0,6.1112004E-3,-2.3113646E-1,7.8139114E-1,-1.6103366E-2,-2.6827278E-2,1.5420366E-2,-1.6142301E-2,3.1935282E-2,9.299988E-3,1.1032416E-3,-2.0741737E-2,3.0512562E-2,-3.406523E-3],"categories":[],"categories_nodes":[],"categories_segments":[],"categories_sizes":[],"default_left":[0,0,0,0,0,0,0,0,0,0,0,0,0,0,0,0,0,0,0,0,0,0,0,0,0],"id":40,"left_children":[1,3,5,7,9,11,13,-1,-1,15,17,19,-1,21,23,-1,-1,-1,-1,-1,-1,-1,-1,-1,-1],"loss_changes":[3.0156742E1,6.220606E0,8.824888E0,6.5357466E0,4.9738216E0,8.814583E-1,7.258095E0,0E0,0E0,9.898243E-1,5.6376653E0,9.5184326E-2,0E0,2.298652E0,2.5540266E0,0E0,0E0,0E0,0E0,0E0,0E0,0E0,0E0,0E0,0E0],"parents":[2147483647,0,0,1,1,2,2,3,3,4,4,5,5,6,6,9,9,10,10,11,11,13,13,14,14],"right_children":[2,4,6,8,10,12,14,-1,-1,16,18,20,-1,22,24,-1,-1,-1,-1,-1,-1,-1,-1,-1,-1],"split_conditions":[1E0,-1.1960248E0,3E0,1.9184865E0,9.240108E-1,1.6251954E0,1E0,3.4913484E-2,-1.9954039E-2,-3.7806827E-1,1.1858808E0,1.9171885E0,6.1112004E-3,-2.898614E-1,6.789133E-1,-1.6103366E-2,-2.6827278E-2,1.5420366E-2,-1.6142301E-2,3.1935282E-2,9.299988E-3,1.1032416E-3,-2.0741737E-2,3.0512562E-2,-3.406523E-3],"split_indices":[2,5,4,9,8,11,3,0,0,6,8,5,0,6,9,0,0,0,0,0,0,0,0,0,0],"split_type":[0,0,0,0,0,0,0,0,0,0,0,0,0,0,0,0,0,0,0,0,0,0,0,0,0],"sum_hessian":[1.3247433E2,7.997563E1,5.24987E1,6.3750467E0,7.3600586E1,2.450253E1,2.799617E1,3.9968615E0,2.3781853E0,5.517782E1,1.8422764E1,2.258513E1,1.9173979E0,1.743544E1,1.056073E1,4.1539776E1,1.3638042E1,8.733705E0,9.68906E0,2.1402115E1,1.1830153E0,1.160206E1,5.833381E0,8.251192E0,2.309538E0],"tree_param":{"num_deleted":"0","num_feature":"13","num_nodes":"25","size_leaf_vector":"1"}},{"base_weights":[8.6737275E-3,-3.6635935E-1,5.630076E-1,1.232727E-1,-5.358997E-1,1.0383185E0,7.889399E-2,2.8265843E-1,-2.1229336E-2,-5.703017E-1,7.955675E-3,1.090325E0,3.613543E-1,2.577663E-1,-7.384569E-1,-2.010021E-4,2.9620148E-2,-2.040873E-2,-8.708558E-3,3.5037525E-2,1.5180353E-2,2.2325076E-2,-6.490731E-3,1.0038106E-2,-1.6431099E-2,-3.0196477E-2,-2.990922E-3],"categories":[],"categories_nodes":[],"categories_segments":[],"categories_sizes":[],"default_left":[0,0,0,0,0,0,0,0,0,0,0,0,0,0,0,0,0,0,0,0,0,0,0,0,0,0,0],"id":41,"left_children":[1,3,5,7,9,11,13,15,-1,17,-1,19,21,23,25,-1,-1,-1,-1,-1,-1,-1,-1,-1,-1,-1,-1],"loss_changes":[2.763409E1,6.64882E0,1.2259401E1,3.0088263E0,1.7796993E0,5.559006E-1,4.2332525E0,3.780862E0,0E0,1.5572567E0,0E0,5.225296E-1,9.174874E-1,1.6332927E0,7.9421496E-1,0E0,0E0,0E0,0E0,0E0,0E0,0E0,0E0,0E0,0E0,0E0,0E0],"parents":[2147483647,0,0,1,1,2,2,3,3,4,4,5,5,6,6,7,7,9,9,11,11,12,12,13,13,14,14],"right_children":[2,4,6,8,10,12,14,16,-1,18,-1,20,22,24,26,-1,-1,-1,-1,-1,-1,-1,-1,-1,-1,-1,-1],"split_conditions":[1E0,-6.1541224E-1,3E0,1.9184865E0,8.6622703E-1,2.4016414E0,1.9184865E0,6.789133E-1,-2.1229336E-2,5.472181E-1,7.955675E-3,3.2726103E-1,3E0,1.4898913E0,3.1580598E0,-2.010021E-4,2.9620148E-2,-2.040873E-2,-8.708558E-3,3.5037525E-2,1.5180353E-2,2.2325076E-2,-6.490731E-3,1.0038106E-2,-1.6431099E-2,-3.0196477E-2,-2.990922E-3],"split_indices":[2,12,4,9,6,6,9,9,0,12,0,12,1,12,9,0,0,0,0,0,0,0,0,0,0,0,0],"split_type":[0,0,0,0,0,0,0,0,0,0,0,0,0,0,0,0,0,0,0,0,0,0,0,0,0,0,0],"sum_hessian":[1.3093208E2,7.829852E1,5.2633553E1,2.0208714E1,5.808981E1,2.5980589E1,2.6652966E1,1.7509819E1,2.698893E0,5.5974144E1,2.115665E0,2.3560026E1,2.4205627E0,2.242912E1,4.2238455E0,1.31149845E1,4.394836E0,3.9162003E1,1.6812141E1,1.9916477E1,3.6435485E0,1.2825575E0,1.1380054E0,2.1009518E1,1.4196026E0,2.5695837E0,1.6542618E0],"tree_param":{"num_deleted":"0","num_feature":"13","num_nodes":"27","size_leaf_vector":"1"}},{"base_weights":[2.8476496E-3,-2.0359176E-1,5.288459E-1,-9.84018E-2,-9.189612E-1,5.9836954E-1,-1.3725046E-2,-2.5585604E-1,3.344749E-1,-3.1612124E-2,-3.0053326E-1,3.3434632E-1,7.8599143E-1,-1.1955182E-2,6.344267E-3,2.2285983E-2,-5.65755E-3,5.722236E-3,-2.1654295E-2,3.7709181E-3,2.4332808E-2,3.74388E-3,2.4586625E-2],"categories":[],"categories_nodes":[],"categories_segments":[],"categories_sizes":[],"default_left":[0,0,0,0,0,0,0,0,0,0,0,0,0,0,0,0,0,0,0,0,0,0,0],"id":42,"left_children":[1,3,5,7,9,11,-1,13,15,-1,17,19,21,-1,-1,-1,-1,-1,-1,-1,-1,-1,-1],"loss_changes":[1.4600902E1,7.176751E0,2.8725367E0,5.9004316E0,7.0519924E-1,1.5123577E0,0E0,4.2925262E0,5.093466E0,0E0,8.812568E-1,1.5519727E0,3.461752E-1,0E0,0E0,0E0,0E0,0E0,0E0,0E0,0E0,0E0,0E0],"parents":[2147483647,0,0,1,1,2,2,3,3,4,4,5,5,7,7,8,8,10,10,11,11,12,12],"right_children":[2,4,6,8,10,12,-1,14,16,-1,18,20,22,-1,-1,-1,-1,-1,-1,-1,-1,-1,-1],"split_conditions":[7.5653476E-1,1.2385118E0,2.213685E0,1E0,-1.489535E-1,1.5584065E-1,-1.3725046E-2,1.01147406E-1,-3.4359735E-1,-3.1612124E-2,1.7412709E0,4E0,1.0509781E0,-1.1955182E-2,6.344267E-3,2.2285983E-2,-5.65755E-3,5.722236E-3,-2.1654295E-2,3.7709181E-3,2.4332808E-2,3.74388E-3,2.4586625E-2],"split_indices":[8,12,5,3,7,11,0,5,5,0,12,1,7,0,0,0,0,0,0,0,0,0,0],"split_type":[0,0,0,0,0,0,0,0,0,0,0,0,0,0,0,0,0,0,0,0,0,0,0],"sum_hessian":[1.3247144E2,9.557421E1,3.689723E1,8.4313995E1,1.1260217E1,3.4835186E1,2.0620427E0,6.2125465E1,2.2188528E1,8.6674E0,2.592816E0,1.5626898E1,1.9208288E1,4.7709663E1,1.4415801E1,1.2224071E1,9.964458E0,1.4495934E0,1.1432226E0,1.1748714E1,3.8781834E0,1.1558576E0,1.8052431E1],"tree_param":{"num_deleted":"0","num_feature":"13","num_nodes":"23","size_leaf_vector":"1"}},{"base_weights":[-2.8495504E-2,-4.6971914E-1,4.522452E-1,-6.053054E-1,-2.2013715E-2,1.4944851E-1,1.0093453E0,-7.6026934E-1,-4.081931E-1,-2.4443455E-2,1.121667E-1,2.91365E-1,-5.5933124E-1,1.0583185E0,2.6554407E-3,-2.4694046E-2,-1.0507294E-2,2.8092356E-2,-1.5761312E-2,1.958279E-2,-2.603699E-3,1.1884061E-2,-3.1883683E-2,-2.7211964E-2,4.7119716E-3,1.6534954E-2,3.3895515E-2],"categories":[],"categories_nodes":[],"categories_segments":[],"categories_sizes":[],"default_left":[0,0,0,0,0,0,0,0,0,0,0,0,0,0,0,0,0,0,0,0,0,0,0,0,0,0,0],"id":43,"left_children":[1,3,5,7,9,11,13,15,17,-1,19,21,23,25,-1,-1,-1,-1,-1,-1,-1,-1,-1,-1,-1,-1,-1],"loss_changes":[2.720784E1,4.0447817E0,1.0209326E1,1.2558594E0,1.854809E0,4.283376E0,8.737602E-1,4.21772E-1,4.388198E0,0E0,1.6760856E0,5.356454E0,1.9301672E0,1.12911224E-1,0E0,0E0,0E0,0E0,0E0,0E0,0E0,0E0,0E0,0E0,0E0,0E0,0E0],"parents":[2147483647,0,0,1,1,2,2,3,3,4,4,5,5,6,6,7,7,8,8,10,10,11,11,12,12,13,13],"right_children":[2,4,6,8,10,12,14,16,18,-1,20,22,24,26,-1,-1,-1,-1,-1,-1,-1,-1,-1,-1,-1,-1,-1],"split_conditions":[1E0,1E0,2.0122866E-1,-1.5828703E-1,-8.155827E-1,1.9184865E0,2.0654368E0,-1.6083784E-1,-8.416291E-2,-2.4443455E-2,9.3703663E-1,1.4270464E0,-5.5192244E-1,4.090529E-1,2.6554407E-3,-2.4694046E-2,-1.0507294E-2,2.8092356E-2,-1.5761312E-2,1.958279E-2,-2.603699E-3,1.1884061E-2,-3.1883683E-2,-2.7211964E-2,4.7119716E-3,1.6534954E-2,3.3895515E-2],"split_indices":[0,1,8,5,7,9,5,7,5,0,8,12,8,7,0,0,0,0,0,0,0,0,0,0,0,0,0],"split_type":[0,0,0,0,0,0,0,0,0,0,0,0,0,0,0,0,0,0,0,0,0,0,0,0,0,0,0],"sum_hessian":[1.2626831E2,6.585216E1,6.0416157E1,5.0274624E1,1.557753E1,3.9963398E1,2.0452763E1,2.6547056E1,2.372757E1,1.5206864E0,1.4056844E1,3.378722E1,6.176176E0,1.9278168E1,1.1745939E0,2.2144346E1,4.402709E0,1.341687E0,2.2385881E1,3.1680088E0,1.0888835E1,3.2017506E1,1.7697144E0,3.9787624E0,2.1974134E0,3.4590507E0,1.5819118E1],"tree_param":{"num_deleted":"0","num_feature":"13","num_nodes":"27","size_leaf_vector":"1"}},{"base_weights":[-2.5356483E-2,-4.1253096E-1,4.193809E-1,-5.647633E-1,8.284466E-3,7.122999E-2,8.173196E-1,-6.6431767E-1,-3.0572918E-1,2.897497E-1,-7.574626E-1,2.9954067E-1,-5.23968E-1,9.4134676E-1,8.798034E-3,-8.622878E-3,-2.2611843E-2,7.999556E-3,-2.0816159E-2,1.9440252E-2,-4.928947E-3,-5.249854E-3,-2.9755801E-2,1.4839096E-2,-8.359854E-3,-3.078439E-2,-4.3975396E-4,3.0384567E-2,9.816444E-3,-2.50889E-2,1.8062696E-2],"categories":[],"categories_nodes":[],"categories_segments":[],"categories_sizes":[],"default_left":[0,0,0,0,0,0,0,0,0,0,0,0,0,0,0,0,0,0,0,0,0,0,0,0,0,0,0,0,0,0,0],"id":44,"left_children":[1,3,5,7,9,11,13,15,17,19,21,23,25,27,29,-1,-1,-1,-1,-1,-1,-1,-1,-1,-1,-1,-1,-1,-1,-1,-1],"loss_changes":[2.2961945E1,4.569483E0,8.543974E0,1.1466751E0,4.511792E0,4.806081E0,2.8875751E0,1.0287323E0,3.824986E0,2.5929384E0,5.950012E-1,2.9989755E0,2.5039408E0,7.67149E-1,2.9353397E0,0E0,0E0,0E0,0E0,0E0,0E0,0E0,0E0,0E0,0E0,0E0,0E0,0E0,0E0,0E0,0E0],"parents":[2147483647,0,0,1,1,2,2,3,3,4,4,5,5,6,6,7,7,8,8,9,9,10,10,11,11,12,12,13,13,14,14],"right_children":[2,4,6,8,10,12,14,16,18,20,22,24,26,28,30,-1,-1,-1,-1,-1,-1,-1,-1,-1,-1,-1,-1,-1,-1,-1,-1],"split_conditions":[1E0,7.5653476E-1,-1.3103823E-1,5.472181E-1,-3.9545512E-1,1.3291052E-1,4E0,-6.4009386E-1,2.4939565E-1,1.1858808E0,4.891632E-1,-5.196027E-1,-5.5192244E-1,1.2986999E0,4.090529E-1,-8.622878E-3,-2.2611843E-2,7.999556E-3,-2.0816159E-2,1.9440252E-2,-4.928947E-3,-5.249854E-3,-2.9755801E-2,1.4839096E-2,-8.359854E-3,-3.078439E-2,-4.3975396E-4,3.0384567E-2,9.816444E-3,-2.50889E-2,1.8062696E-2],"split_indices":[0,8,8,12,12,7,0,5,5,8,7,8,8,9,7,0,0,0,0,0,0,0,0,0,0,0,0,0,0,0,0],"split_type":[0,0,0,0,0,0,0,0,0,0,0,0,0,0,0,0,0,0,0,0,0,0,0,0,0,0,0,0,0,0,0],"sum_hessian":[1.3134688E2,7.0256325E1,6.1090546E1,5.1341263E1,1.8915062E1,3.321245E1,2.78781E1,3.595725E1,1.5384014E1,1.428569E1,4.629372E0,2.4363604E1,8.848844E0,2.4027935E1,3.8501651E0,7.70277E0,2.825448E1,6.343086E0,9.040929E0,7.7463703E0,6.5393205E0,1.8295627E0,2.7998095E0,1.832496E1,6.038643E0,3.944647E0,4.9041963E0,2.0941584E1,3.0863514E0,1.4191364E0,2.4310288E0],"tree_param":{"num_deleted":"0","num_feature":"13","num_nodes":"31","size_leaf_vector":"1"}},{"base_weights":[5.0882764E-2,-2.9980618E-1,5.5857813E-1,3.8771895E-1,-4.5161003E-1,6.237979E-1,-2.0772984E-2,6.031071E-1,-2.2807842E-2,-5.122432E-1,1.0530761E-1,4.1026828E-1,1.1128639E0,2.6092265E-2,5.116073E-3,-1.2776928E-2,-2.6730994E-2,3.0997925E-2,-9.418015E-3,1.5397281E-2,-7.154582E-3,1.684615E-2,3.8357668E-2],"categories":[],"categories_nodes":[],"categories_segments":[],"categories_sizes":[],"default_left":[0,0,0,0,0,0,0,0,0,0,0,0,0,0,0,0,0,0,0,0,0,0,0],"id":45,"left_children":[1,3,5,7,9,11,-1,13,-1,15,17,19,21,-1,-1,-1,-1,-1,-1,-1,-1,-1,-1],"loss_changes":[2.327138E1,8.253393E0,4.785982E0,4.052989E0,2.2104912E0,4.8950844E0,0E0,1.3277988E0,0E0,1.5098009E0,3.0864968E0,2.6112738E0,6.5169144E-1,0E0,0E0,0E0,0E0,0E0,0E0,0E0,0E0,0E0,0E0],"parents":[2147483647,0,0,1,1,2,2,3,3,4,4,5,5,7,7,9,9,10,10,11,11,12,12],"right_children":[2,4,6,8,10,12,-1,14,-1,16,18,20,22,-1,-1,-1,-1,-1,-1,-1,-1,-1,-1],"split_conditions":[1E0,-8.0394685E-1,1.7098484E0,2.3598726E0,4.8882905E-1,2.1233359E-1,-2.0772984E-2,1.4480369E-1,-2.2807842E-2,1.1442446E0,4.9897528E-1,1.6251954E0,2E0,2.6092265E-2,5.116073E-3,-1.2776928E-2,-2.6730994E-2,3.0997925E-2,-9.418015E-3,1.5397281E-2,-7.154582E-3,1.684615E-2,3.8357668E-2],"split_indices":[2,12,12,11,6,5,0,6,0,12,6,11,0,0,0,0,0,0,0,0,0,0,0],"split_type":[0,0,0,0,0,0,0,0,0,0,0,0,0,0,0,0,0,0,0,0,0,0,0],"sum_hessian":[1.2876582E2,7.640133E1,5.2364494E1,1.3537126E1,6.2864204E1,5.0246334E1,2.1181586E0,1.179815E1,1.7389749E0,5.6764328E1,6.099875E0,3.625572E1,1.3990616E1,6.673811E0,5.1243396E0,4.7956867E1,8.807462E0,1.4424738E0,4.657401E0,3.1469551E1,4.7861686E0,4.247761E0,9.742855E0],"tree_param":{"num_deleted":"0","num_feature":"13","num_nodes":"23","size_leaf_vector":"1"}},{"base_weights":[1.727722E-2,-3.236591E-1,4.919997E-1,-4.6464238E-1,1.3194542E-1,3.067356E-2,1.7216709E-2,3.1243685E-1,-5.3512883E-1,4.589294E-1,-5.263831E-1,-1.7957188E-1,6.128532E-1,3.0291967E-2,-1.801306E-2,-1.777918E-2,2.0432645E-2,-2.135095E-2,1.8911405E-2,1.8649975E-2,-2.5681961E-2,2.0655962E-2,-1.0177643E-2,2.6736405E-2,-1.1376728E-2],"categories":[],"categories_nodes":[],"categories_segments":[],"categories_sizes":[],"default_left":[0,0,0,0,0,0,0,0,0,0,0,0,0,0,0,0,0,0,0,0,0,0,0,0,0],"id":46,"left_children":[1,3,5,7,9,-1,11,13,15,17,19,21,23,-1,-1,-1,-1,-1,-1,-1,-1,-1,-1,-1,-1],"loss_changes":[2.095899E1,4.9043717E0,1.3610883E1,3.3332186E0,4.2447705E0,0E0,3.5763524E0,4.0680394E0,4.136175E0,3.0496817E0,3.0443347E0,3.422126E0,2.4286041E0,0E0,0E0,0E0,0E0,0E0,0E0,0E0,0E0,0E0,0E0,0E0,0E0],"parents":[2147483647,0,0,1,1,2,2,3,3,4,4,6,6,7,7,8,8,9,9,10,10,11,11,12,12],"right_children":[2,4,6,8,10,-1,12,14,16,18,20,22,24,-1,-1,-1,-1,-1,-1,-1,-1,-1,-1,-1,-1],"split_conditions":[1E0,1E0,3E0,-1.4183972E0,1.027699E0,3.067356E-2,2E0,1.9184865E0,3.8292274E0,-4.9159837E-1,2E0,-1.7148937E0,-6.771559E-1,3.0291967E-2,-1.801306E-2,-1.777918E-2,2.0432645E-2,-2.135095E-2,1.8911405E-2,1.8649975E-2,-2.5681961E-2,2.0655962E-2,-1.0177643E-2,2.6736405E-2,-1.1376728E-2],"split_indices":[2,1,4,5,5,0,3,9,11,6,1,5,5,0,0,0,0,0,0,0,0,0,0,0,0],"split_type":[0,0,0,0,0,0,0,0,0,0,0,0,0,0,0,0,0,0,0,0,0,0,0,0,0],"sum_hessian":[1.275124E2,7.4398834E1,5.311356E1,5.6802048E1,1.7596788E1,2.4541265E1,2.8572296E1,4.438389E0,5.236366E1,1.1959523E1,5.637266E0,2.2001785E1,6.57051E0,2.4561553E0,1.9822334E0,5.0488937E1,1.8747206E0,1.1252856E0,1.0834237E1,1.0600867E0,4.5771794E0,2.9037726E0,1.9098013E1,5.210266E0,1.3602439E0],"tree_param":{"num_deleted":"0","num_feature":"13","num_nodes":"25","size_leaf_vector":"1"}},{"base_weights":[3.9852995E-2,-2.6310873E-1,5.036486E-1,3.2645926E-1,-4.0839356E-1,7.0465975E-2,9.9128354E-1,5.075723E-1,-2.2307493E-2,-7.8717583E-1,-2.8455588E-1,5.2675545E-1,-1.6629635E-1,3.0687228E-2,1.1886791E-2,2.0940004E-2,-1.4620906E-3,-1.2858903E-2,-3.1543348E-2,-1.2038755E-2,6.7675714E-3,8.646857E-3,3.1268172E-2,2.0891534E-2,-1.0045423E-2],"categories":[],"categories_nodes":[],"categories_segments":[],"categories_sizes":[],"default_left":[0,0,0,0,0,0,0,0,0,0,0,0,0,0,0,0,0,0,0,0,0,0,0,0,0],"id":47,"left_children":[1,3,5,7,9,11,13,15,-1,17,19,21,23,-1,-1,-1,-1,-1,-1,-1,-1,-1,-1,-1,-1],"loss_changes":[1.7746672E1,6.6844563E0,1.0465317E1,3.415565E0,2.6751566E0,3.0572133E0,3.4778595E-2,1.5173216E0,0E0,9.385643E-1,2.9575853E0,8.8380647E-1,2.975201E0,0E0,0E0,0E0,0E0,0E0,0E0,0E0,0E0,0E0,0E0,0E0,0E0],"parents":[2147483647,0,0,1,1,2,2,3,3,4,4,5,5,6,6,7,7,9,9,10,10,11,11,12,12],"right_children":[2,4,6,8,10,12,14,16,-1,18,20,22,24,-1,-1,-1,-1,-1,-1,-1,-1,-1,-1,-1,-1],"split_conditions":[1E0,-8.0394685E-1,-1.5042824E-1,2.3598726E0,-5.599795E-1,-4.8933446E-1,9.085762E-1,1.4084764E0,-2.2307493E-2,-5.021631E-1,7.671752E-1,-4.913468E-1,-1.4323957E0,3.0687228E-2,1.1886791E-2,2.0940004E-2,-1.4620906E-3,-1.2858903E-2,-3.1543348E-2,-1.2038755E-2,6.7675714E-3,8.646857E-3,3.1268172E-2,2.0891534E-2,-1.0045423E-2],"split_indices":[2,12,8,11,8,6,12,8,0,6,12,6,12,0,0,0,0,0,0,0,0,0,0,0,0],"split_type":[0,0,0,0,0,0,0,0,0,0,0,0,0,0,0,0,0,0,0,0,0,0,0,0,0],"sum_hessian":[1.2435668E2,7.548251E1,4.887417E1,1.4676804E1,6.0805706E1,2.6488258E1,2.238591E1,1.30018E1,1.6750042E0,1.3661814E1,4.7143894E1,8.630565E0,1.7857693E1,2.057353E1,1.8123798E0,9.496419E0,3.505381E0,6.9094296E0,6.752384E0,3.8538483E1,8.60541E0,6.96637E0,1.6641948E0,2.4069276E0,1.5450766E1],"tree_param":{"num_deleted":"0","num_feature":"13","num_nodes":"25","size_leaf_vector":"1"}},{"base_weights":[-9.017906E-3,-3.9854544E-1,4.484412E-1,-5.011178E-1,1.1651469E-1,1.4496081E-2,8.6791897E-1,-5.639616E-1,-1.1792002E-1,2.6637407E-2,-2.7605388E-1,2.1978574E-1,-7.925001E-1,1.0051793E0,-1.915724E-2,-3.0820826E-2,-1.3189891E-2,1.6534941E-2,-1.296231E-2,-2.2486208E-2,5.944737E-3,3.2458875E-2,1.3450496E-3,-2.920611E-2,-4.87254E-3,3.2524746E-2,1.1012777E-2,-2.6793044E-2,2.2540703E-2],"categories":[],"categories_nodes":[],"categories_segments":[],"categories_sizes":[],"default_left":[0,0,0,0,0,0,0,0,0,0,0,0,0,0,0,0,0,0,0,0,0,0,0,0,0,0,0,0,0],"id":48,"left_children":[1,3,5,7,9,11,13,15,17,-1,19,21,23,25,27,-1,-1,-1,-1,-1,-1,-1,-1,-1,-1,-1,-1,-1,-1],"loss_changes":[2.2579586E1,3.673417E0,1.0597042E1,1.3121977E0,3.932078E0,5.0887904E0,3.62574E0,2.366127E0,2.19942E0,0E0,2.131535E0,3.636808E0,5.5289054E-1,8.9562416E-1,4.0044956E0,0E0,0E0,0E0,0E0,0E0,0E0,0E0,0E0,0E0,0E0,0E0,0E0,0E0,0E0],"parents":[2147483647,0,0,1,1,2,2,3,3,4,4,5,5,6,6,7,7,8,8,10,10,11,11,12,12,13,13,14,14],"right_children":[2,4,6,8,10,12,14,16,18,-1,20,22,24,26,28,-1,-1,-1,-1,-1,-1,-1,-1,-1,-1,-1,-1,-1,-1],"split_conditions":[1E0,4.0951073E-1,-2.4949497E-1,9.240108E-1,5.186801E-1,1.9184865E0,4E0,-1.7549804E-1,-1.04726285E-1,2.6637407E-2,1E0,-1.1181712E0,-5.5192244E-1,1.2986999E0,9.9149513E-1,-3.0820826E-2,-1.3189891E-2,1.6534941E-2,-1.296231E-2,-2.2486208E-2,5.944737E-3,3.2458875E-2,1.3450496E-3,-2.920611E-2,-4.87254E-3,3.2524746E-2,1.1012777E-2,-2.6793044E-2,2.2540703E-2],"split_indices":[0,6,8,8,6,9,0,12,6,0,3,12,8,9,8,0,0,0,0,0,0,0,0,0,0,0,0,0,0],"split_type":[0,0,0,0,0,0,0,0,0,0,0,0,0,0,0,0,0,0,0,0,0,0,0,0,0,0,0,0,0],"sum_hessian":[1.247113E2,6.742637E1,5.728493E1,5.6251213E1,1.1175158E1,2.8665422E1,2.8619509E1,4.7920593E1,8.33062E0,3.3434534E0,7.8317046E0,2.3432213E1,5.23321E0,2.4669218E1,3.9502902E0,8.598632E0,3.932196E1,2.420681E0,5.909939E0,3.628326E0,4.2033787E0,3.0781858E0,2.0354027E1,3.641755E0,1.591455E0,2.1330027E1,3.3391914E0,1.77637E0,2.1739202E0],"tree_param":{"num_deleted":"0","num_feature":"13","num_nodes":"29","size_leaf_vector":"1"}},{"base_weights":[3.2956187E-2,-2.8158727E-1,4.867672E-1,3.556979E-1,-3.7225482E-1,1.1299176E-1,9.3993366E-1,7.6661915E-1,-2.0332504E-2,-4.7697467E-1,-3.459798E-2,2.5924554E-1,-4.5179066E-1,1.0460398E0,1.5362797E-2,3.2917008E-2,-1.4093224E-2,-1.1161445E-2,-2.7850382E-2,5.7705315E-3,-1.1947111E-2,4.2751627E-3,3.2545134E-2,8.009083E-3,-2.022577E-2,3.3390954E-2,8.437311E-3,-1.4254789E-2,1.4304831E-2],"categories":[],"categories_nodes":[],"categories_segments":[],"categories_sizes":[],"default_left":[0,0,0,0,0,0,0,0,0,0,0,0,0,0,0,0,0,0,0,0,0,0,0,0,0,0,0,0,0],"id":49,"left_children":[1,3,5,7,9,11,13,15,-1,17,19,21,23,25,27,-1,-1,-1,-1,-1,-1,-1,-1,-1,-1,-1,-1,-1,-1],"loss_changes":[1.8324389E1,4.5172424E0,8.790747E0,4.7506075E0,2.3498802E0,2.5886407E0,2.299631E0,3.6212506E0,0E0,2.0701685E0,1.4730059E0,2.19725E0,1.2220849E0,7.710991E-1,1.0063714E0,0E0,0E0,0E0,0E0,0E0,0E0,0E0,0E0,0E0,0E0,0E0,0E0,0E0,0E0],"parents":[2147483647,0,0,1,1,2,2,3,3,4,4,5,5,6,6,7,7,9,9,10,10,11,11,12,12,13,13,14,14],"right_children":[2,4,6,8,10,12,14,16,-1,18,20,22,24,26,28,-1,-1,-1,-1,-1,-1,-1,-1,-1,-1,-1,-1,-1,-1],"split_conditions":[1E0,-1.0867488E0,-1.5042824E-1,1.9184865E0,1E0,-2.3401903E-1,7.9859763E-1,1.2334788E0,-2.0332504E-2,8.965082E-2,1.1858808E0,8.90518E-1,-1.4323957E0,1.2986999E0,9.871323E-1,3.2917008E-2,-1.4093224E-2,-1.1161445E-2,-2.7850382E-2,5.7705315E-3,-1.1947111E-2,4.2751627E-3,3.2545134E-2,8.009083E-3,-2.022577E-2,3.3390954E-2,8.437311E-3,-1.4254789E-2,1.4304831E-2],"split_indices":[2,12,8,9,1,6,12,6,0,8,8,11,12,9,12,0,0,0,0,0,0,0,0,0,0,0,0,0,0],"split_type":[0,0,0,0,0,0,0,0,0,0,0,0,0,0,0,0,0,0,0,0,0,0,0,0,0,0,0,0,0],"sum_hessian":[1.2641279E2,7.488697E1,5.1525818E1,8.963203E0,6.592377E1,2.8920933E1,2.2604885E1,6.5979204E0,2.3652823E0,5.00033E1,1.5920469E1,2.3401863E1,5.5190706E0,2.0159904E1,2.4449809E0,5.294667E0,1.3032538E0,4.205207E1,7.951228E0,1.0092639E1,5.8278303E0,2.1530083E1,1.8717797E0,1.2568328E0,4.262238E0,1.8117569E1,2.0423355E0,1.170791E0,1.27419E0],"tree_param":{"num_deleted":"0","num_feature":"13","num_nodes":"29","size_leaf_vector":"1"}},{"base_weights":[-3.915913E-3,-3.7039205E-1,3.697201E-1,-8.449448E-1,-2.1966365E-1,1.2516938E-1,8.745379E-1,-3.1368098E-1,-2.998443E-2,-6.272638E-1,7.6151304E-2,2.3209369E-1,-5.953292E-1,2.0450935E-1,1.0384665E0,1.0751305E-2,-2.4131872E-2,-5.793325E-3,-2.8147886E-2,6.477628E-3,-1.6376238E-2,1.0273321E-2,-1.5619615E-2,3.2452503E-3,-2.8628757E-2,2.3535985E-2,-1.7008997E-2,5.3330963E-3,3.266273E-2],"categories":[],"categories_nodes":[],"categories_segments":[],"categories_sizes":[],"default_left":[0,0,0,0,0,0,0,0,0,0,0,0,0,0,0,0,0,0,0,0,0,0,0,0,0,0,0,0,0],"id":50,"left_children":[1,3,5,7,9,11,13,15,-1,17,19,21,23,25,27,-1,-1,-1,-1,-1,-1,-1,-1,-1,-1,-1,-1,-1,-1],"loss_changes":[1.6764046E1,4.2349586E0,7.375223E0,8.807306E-1,5.866078E0,3.3745155E0,1.9424362E0,1.8499013E0,0E0,2.5734434E0,2.626402E0,3.276661E0,1.5449796E0,2.7276127E0,4.7810555E-1,0E0,0E0,0E0,0E0,0E0,0E0,0E0,0E0,0E0,0E0,0E0,0E0,0E0,0E0],"parents":[2147483647,0,0,1,1,2,2,3,3,4,4,5,5,6,6,7,7,9,9,10,10,11,11,12,12,13,13,14,14],"right_children":[2,4,6,8,10,12,14,16,-1,18,20,22,24,26,28,-1,-1,-1,-1,-1,-1,-1,-1,-1,-1,-1,-1,-1,-1],"split_conditions":[1E0,-5.581169E-1,1.8445316E-1,-3.4359735E-1,-1.5828703E-1,-8.6615235E-2,-6.447951E-2,-5.021631E-1,-2.998443E-2,-5.0701255E-1,1.4353817E0,5.458922E-1,-1.4638181E0,-1.2484967E-1,-1.7780426E0,1.0751305E-2,-2.4131872E-2,-5.793325E-3,-2.8147886E-2,6.477628E-3,-1.6376238E-2,1.0273321E-2,-1.5619615E-2,3.2452503E-3,-2.8628757E-2,2.3535985E-2,-1.7008997E-2,5.3330963E-3,3.266273E-2],"split_indices":[0,8,8,5,5,6,6,6,0,8,5,5,12,6,12,0,0,0,0,0,0,0,0,0,0,0,0,0,0],"split_type":[0,0,0,0,0,0,0,0,0,0,0,0,0,0,0,0,0,0,0,0,0,0,0,0,0,0,0,0,0],"sum_hessian":[1.2042893E2,6.080137E1,5.9627567E1,1.354635E1,4.725502E1,4.1009254E1,1.8618313E1,3.7352273E0,9.811122E0,1.940148E1,2.785354E1,3.6300076E1,4.7091775E0,4.1015434E0,1.4516769E1,1.6901578E0,2.0450697E0,8.773985E0,1.0627494E1,2.327623E1,4.5773096E0,3.2134357E1,4.165718E0,1.827075E0,2.8821025E0,2.3316216E0,1.7699218E0,1.0517471E0,1.3465022E1],"tree_param":{"num_deleted":"0","num_feature":"13","num_nodes":"29","size_leaf_vector":"1"}},{"base_weights":[5.1286407E-2,-3.2498354E-1,4.8381326E-1,-4.275129E-1,6.944243E-2,9.077971E-1,7.003128E-2,-4.690612E-1,8.152038E-3,3.2655662E-1,-2.7545022E-2,1.0425345E0,9.380656E-2,7.058159E-1,-1.8546355E-1,-1.2161431E-2,-3.0660871E-2,-1.7237917E-2,2.3537952E-2,7.2773383E-3,3.2228924E-2,-1.8121263E-2,2.1080792E-2,8.484974E-3,2.5573948E-2,-1.6059292E-2,5.3968565E-3],"categories":[],"categories_nodes":[],"categories_segments":[],"categories_sizes":[],"default_left":[0,0,0,0,0,0,0,0,0,0,0,0,0,0,0,0,0,0,0,0,0,0,0,0,0,0,0],"id":51,"left_children":[1,3,5,7,9,11,13,15,-1,17,-1,19,21,23,25,-1,-1,-1,-1,-1,-1,-1,-1,-1,-1,-1,-1],"loss_changes":[1.9667751E1,2.6465263E0,9.791385E0,1.6236105E0,3.908325E0,2.9359531E0,4.9249096E0,1.3103065E0,0E0,5.4093494E0,0E0,3.3991814E-1,2.5606115E0,2.9658318E-1,2.888432E0,0E0,0E0,0E0,0E0,0E0,0E0,0E0,0E0,0E0,0E0,0E0,0E0],"parents":[2147483647,0,0,1,1,2,2,3,3,4,4,5,5,6,6,7,7,9,9,11,11,12,12,13,13,14,14],"right_children":[2,4,6,8,10,12,14,16,-1,18,-1,20,22,24,26,-1,-1,-1,-1,-1,-1,-1,-1,-1,-1,-1,-1],"split_conditions":[1E0,2E0,3E0,3.8292274E0,1.5465678E0,4E0,-4.8933446E-1,9.147672E-2,8.152038E-3,1.01147406E-1,-2.7545022E-2,-1.9372661E0,1E0,1E0,2E0,-1.2161431E-2,-3.0660871E-2,-1.7237917E-2,2.3537952E-2,7.2773383E-3,3.2228924E-2,-1.8121263E-2,2.1080792E-2,8.484974E-3,2.5573948E-2,-1.6059292E-2,5.3968565E-3],"split_indices":[0,1,4,11,5,0,6,6,0,5,0,5,1,3,0,0,0,0,0,0,0,0,0,0,0,0,0],"split_type":[0,0,0,0,0,0,0,0,0,0,0,0,0,0,0,0,0,0,0,0,0,0,0,0,0,0,0],"sum_hessian":[1.1888261E2,6.370879E1,5.517382E1,5.0498127E1,1.321066E1,2.6661291E1,2.851253E1,4.797662E1,2.5215101E0,1.1012908E1,2.197752E0,2.2633987E1,4.0273037E0,7.6681705E0,2.0844358E1,4.4576283E1,3.4003356E0,3.625539E0,7.3873687E0,1.1942319E0,2.1439756E1,1.8802702E0,2.1470332E0,2.7280948E0,4.9400754E0,1.0410607E1,1.0433752E1],"tree_param":{"num_deleted":"0","num_feature":"13","num_nodes":"27","size_leaf_vector":"1"}},{"base_weights":[1.4459137E-3,-3.1776336E-1,3.7272316E-1,-4.6474323E-1,-1.8459518E-2,7.9725975E-1,-3.6133498E-2,-4.0049425E-1,-2.86364E-2,7.823693E-1,-1.7195286E-1,9.636484E-1,-1.306972E-1,2.1052828E-1,-3.228172E-2,-1.6910952E-2,-5.9058E-3,3.0057484E-2,7.715625E-3,-1.6547726E-2,3.8713783E-3,3.132204E-2,8.951423E-3,-2.018578E-2,1.2908642E-2,3.6165223E-2,1.0358111E-3],"categories":[],"categories_nodes":[],"categories_segments":[],"categories_sizes":[],"default_left":[0,0,0,0,0,0,0,0,0,0,0,0,0,0,0,0,0,0,0,0,0,0,0,0,0,0,0],"id":52,"left_children":[1,3,5,7,9,11,13,15,-1,17,19,21,23,25,-1,-1,-1,-1,-1,-1,-1,-1,-1,-1,-1,-1,-1],"loss_changes":[1.4670621E1,2.9196424E0,9.961512E0,1.0212364E0,2.9572332E0,4.467291E0,7.9493155E0,1.2566314E0,0E0,1.8895578E-1,2.3668504E0,9.704304E-1,1.857581E0,4.3663406E0,0E0,0E0,0E0,0E0,0E0,0E0,0E0,0E0,0E0,0E0,0E0,0E0,0E0],"parents":[2147483647,0,0,1,1,2,2,3,3,4,4,5,5,6,6,7,7,9,9,10,10,11,11,12,12,13,13],"right_children":[2,4,6,8,10,12,14,16,-1,18,20,22,24,26,-1,-1,-1,-1,-1,-1,-1,-1,-1,-1,-1,-1,-1],"split_conditions":[1E0,-1.1914871E-1,3E0,8.965082E-2,-1.04726285E-1,4E0,1.9184865E0,-5.378015E-1,-2.86364E-2,-8.0394685E-1,4.0951073E-1,3.2726103E-1,9.9149513E-1,-8.0977356E-1,-3.228172E-2,-1.6910952E-2,-5.9058E-3,3.0057484E-2,7.715625E-3,-1.6547726E-2,3.8713783E-3,3.132204E-2,8.951423E-3,-2.018578E-2,1.2908642E-2,3.6165223E-2,1.0358111E-3],"split_indices":[0,6,4,8,6,0,9,8,0,12,6,12,8,8,0,0,0,0,0,0,0,0,0,0,0,0,0],"split_type":[0,0,0,0,0,0,0,0,0,0,0,0,0,0,0,0,0,0,0,0,0,0,0,0,0,0,0],"sum_hessian":[1.21787544E2,